Language model created by QuickLM on Wed Feb 18 17:41:39 EST 2009
Copyright (c) 1996-2000
Carnegie Mellon University and Alexander I. Rudnicky

This model based on a corpus of 798 sentences and 571 words
The (fixed) discount mass is 0.5


\data\
ngram 1=571
ngram 2=3177
ngram 3=5287

\1-grams:
-1.3513 </s> -0.3010
-1.3513 <s> -0.1578
-1.9415 A -0.2381
-3.1393 ABOUT -0.2728
-4.2533 ACCORDING -0.2976
-3.5543 ACROSS -0.2818
-3.4082 ACTUALLY -0.2928
-3.7762 AFTER -0.2977
-3.6512 AGAIN -0.2779
-3.2990 AGAINST -0.2850
-3.9523 AH -0.2990
-3.0492 AHEAD -0.2641
-4.2533 ALARM -0.3010
-2.9109 ALL -0.2787
-3.9523 ALMOST -0.2998
-4.2533 ALOT -0.2983
-3.9523 ALREADY -0.2809
-2.3960 ALRIGHT -0.2186
-4.2533 ALRIGHTY -0.2812
-4.2533 ALRRIGHT -0.3007
-3.2533 ALSO -0.2574
-3.4751 AM -0.2774
-3.2990 AN -0.2758
-4.2533 AN' -0.2812
-2.0830 AND -0.1834
-2.7218 ANOTHER -0.2849
-3.5543 ANY -0.2952
-4.2533 ANYMORE -0.2994
-3.7762 ANYTHING -0.2783
-4.2533 ANYWAY -0.2812
-3.9523 ANYWHERE -0.2808
-4.2533 AP -0.2986
-2.9523 ARE -0.2674
-4.2533 ARIGHT -0.2812
-3.2533 AROUND -0.2584
-2.8731 AS -0.2740
-2.7909 AT -0.2590
-4.2533 ATTACHMENT -0.2812
-3.4751 AWAY -0.3004
-4.2533 B -0.2812
-2.5457 BACK -0.2611
-4.2533 BACKTRACK -0.2812
-3.9523 BARRIER -0.2645
-4.2533 BASE -0.2983
-3.4082 BASICALLY -0.2849
-2.6405 BE -0.2367
-4.2533 BECAUSE -0.2986
-3.9523 BEEN -0.3001
-3.3502 BEFORE -0.2748
-3.4751 BEHIND -0.2816
-4.2533 BELIEVE -0.3010
-3.9523 BEND -0.2780
-4.2533 BETWEEN -0.2850
-3.6512 BIG -0.2980
-4.2533 BIGGER -0.2986
-3.9523 BIT -0.2812
-3.9523 BL -0.2773
-3.9523 BLAH -0.2994
-3.2533 BLOCK -0.2741
-2.8553 BLOCKS -0.2703
-2.3342 BLUE -0.2680
-3.9523 BO -0.2963
-3.9523 BOOK -0.2969
-3.0772 BOOKSHELF -0.2705
-4.2533 BOOKSHELFS -0.3008
-4.2533 BOOKSHELVES -0.2977
-3.7762 BOTH -0.2982
-3.7762 BOTTOM -0.3007
-1.9566 BOX -0.1882
-2.6198 BOXES -0.2558
-3.4751 BROWN -0.2955
-4.2533 BUNCH -0.2983
-4.2533 BUSY -0.3010
-2.9980 BUT -0.2672
-3.1741 BY -0.2836
-3.2119 CABINET -0.2688
-3.3502 CABINETS -0.2742
-3.2990 CAME -0.2719
-3.2990 CAN -0.2949
-3.9523 CAN'T -0.3008
-3.9523 CARBOARD -0.2762
-2.8553 CARDBOARD -0.2744
-4.2533 CARE -0.2983
-2.9745 CART -0.2610
-2.8916 CHAIR -0.2647
-2.8383 CHAIRS -0.2594
-4.2533 CHANGED -0.2960
-4.2533 CHART -0.3006
-3.7762 CHECK -0.2850
-3.7762 CHIP -0.2780
-4.2533 CHIPS -0.3005
-3.9523 CLOSE -0.2927
-4.2533 CLOSED -0.2812
-4.2533 CLOSEST -0.2995
-3.5543 CLOSET -0.2727
-4.2533 CLOSETS -0.2968
-3.9523 COLLECTING -0.2845
-4.2533 COLOR -0.2962
-3.3502 COME -0.2729
-4.2533 COMIN' -0.2998
-4.2533 COMING -0.3002
-4.2533 COMPLETE -0.3009
-4.2533 COMPLETELY -0.2968
-3.9523 COMPUTER -0.3005
-3.9523 COMPUTERS -0.2973
-3.6512 CONTINUE -0.2769
-4.2533 CORDER -0.2812
-2.7481 CORNER -0.2579
-4.2533 CREEPY -0.3010
-3.9523 CURVE -0.2806
-4.2533 CUZ -0.3004
-4.2533 D'YA -0.3009
-4.2533 D'YOU -0.3005
-4.2533 DA -0.2977
-3.9523 DE -0.2645
-3.4751 DEAD -0.3004
-4.2533 DEGREE -0.2992
-4.2533 DEGREES -0.3004
-3.2533 DESK -0.2742
-3.5543 DESKS -0.2767
-4.2533 DIAGRAM -0.2983
-3.5543 DID -0.2938
-3.4751 DIRECTLY -0.2894
-4.2533 DISTANCE -0.3010
-2.6512 DO -0.2627
-3.6512 DOES -0.2815
-3.1393 DON'T -0.2967
-3.9523 DONE -0.2807
-2.4539 DOOR -0.2320
-4.2533 DOOR'S -0.3010
-3.9523 DOORPOST -0.2805
-2.9523 DOORWAY -0.2576
-3.9523 DOUBLE -0.2998
-3.4082 DOWN -0.2573
-4.2533 DUH -0.2812
-3.7762 DUMP -0.2849
-4.2533 E -0.3010
-3.1741 EACH -0.2754
-4.2533 EASY -0.3010
-4.2533 EBERHARD -0.2850
-3.9523 EDGE -0.2783
-3.9523 EH -0.2812
-3.1393 EIGHT -0.2759
-3.9523 EIGHTH -0.2962
-4.2533 EITHER -0.3009
-4.2533 ELECTRODE -0.3010
-4.2533 ELSE -0.3001
-3.7762 EM -0.2805
-4.2533 EMERGENC -0.2986
-4.2533 EMPTY -0.2850
-2.9311 END -0.2721
-3.7762 ENDS -0.2807
-4.2533 ENOUGH -0.2812
-3.5543 ENTER -0.2808
-4.2533 ENTERED -0.2850
-4.2533 ENTERING -0.2979
-4.2533 ENTIRE -0.2999
-3.6512 ER -0.2769
-4.2533 EVERY -0.3010
-4.2533 EXIST -0.2812
-3.2119 EXIT -0.2663
-4.2533 EYE -0.3005
-3.7762 EYES -0.2812
-3.7762 F -0.2899
-3.3502 FACING -0.2789
-4.2533 FACT -0.2995
-4.2533 FALSE -0.3008
-3.4082 FAR -0.2981
-4.2533 FARTHEST -0.2976
-4.2533 FASTER -0.2812
-3.7762 FEET -0.2967
-4.2533 FER -0.2850
-4.2533 FI -0.3008
-3.9523 FIFTH -0.2962
-2.9980 FILING -0.3006
-3.6512 FILL -0.2804
-4.2533 FILLING -0.2995
-3.5543 FIND -0.2639
-4.2533 FINDIN' -0.2850
-4.2533 FINDING -0.2850
-3.6512 FINE -0.2729
-4.2533 FINISH -0.3009
-3.5543 FIRE -0.3008
-2.9311 FIRST -0.2818
-2.9745 FIVE -0.2758
-3.5543 FLOOR -0.2775
-4.2533 FOLLOW -0.2850
-3.9523 FOOT -0.3004
-4.2533 FOOTS -0.3010
-3.1072 FOR -0.2700
-3.9523 FORTY -0.3006
-3.4751 FORWARD -0.2757
-3.0492 FOUND -0.2721
-2.9311 FOUR -0.2602
-4.2533 FOUR'S -0.2960
-3.9523 FOURTH -0.2962
-3.9523 FRAME -0.2963
-2.8553 FROM -0.2536
-3.4751 FRONT -0.2983
-3.9523 FURTHER -0.3008
-3.9523 FURTHEST -0.2975
-4.2533 G -0.3009
-4.2533 GEEN -0.2962
-2.9523 GET -0.2636
-4.2533 GETTIN -0.2850
-3.7762 GETTING -0.3001
-4.2533 GIVE -0.3006
-2.4144 GO -0.2586
-4.2533 GOAL -0.3010
-3.7762 GOIN -0.2758
-4.2533 GOIN' -0.2979
-3.2119 GOING -0.2939
-2.8916 GONNA -0.2924
-3.5543 GOOD -0.2811
-2.5457 GOT -0.2378
-3.5543 GOTCHA -0.2764
-3.4751 GOTTA -0.2955
-4.2533 GR -0.3010
-3.4751 GRAB -0.2798
-4.2533 GREAT -0.2812
-2.4208 GREEN -0.2689
-3.2533 GUESS -0.2776
-4.2533 HALF -0.3007
-3.7762 HALL -0.2777
-2.5812 HALLWAY -0.2453
-3.3502 HAND -0.3005
-3.7762 HANG -0.2915
-3.7762 HAS -0.2960
-2.8553 HAVE -0.2381
-3.7762 HAVEN'T -0.3006
-3.4082 HEAD -0.2997
-4.2533 HEADING -0.2998
-3.5543 HEAR -0.2964
-4.2533 HELLO -0.2812
-3.0492 HERE -0.2485
-4.2533 HERE'S -0.3009
-4.2533 HEY -0.3005
-3.9523 HHH -0.2808
-3.7762 HIDDEN -0.2986
-4.2533 HM -0.2812
-4.2533 HMM -0.3005
-3.0772 HOLD -0.2966
-3.4751 HOW -0.2990
-4.2533 HUGE -0.3008
-3.7762 HUH -0.2787
-3.9523 HURRY -0.3005
-3.9523 HUSTLING -0.2972
-2.0602 I -0.2554
-3.4751 I'LL -0.3001
-2.4404 I'M -0.2778
-3.1741 I'VE -0.2995
-2.9311 IF -0.2862
-4.2533 IGNORE -0.2812
-3.4751 IMMEDIATELY -0.2892
-2.1427 IN -0.2263
-4.2533 INCHES -0.3009
-4.2533 INCLUDES -0.2850
-4.2533 INDICATED -0.2812
-4.2533 INS -0.3009
-3.4751 INSIDE -0.2956
-4.2533 INSTEAD -0.2983
-3.7762 INSTRUCTIONS -0.2808
-4.2533 INT -0.3007
-2.7481 INTO -0.2750
-2.3725 IS -0.2106
-2.4020 IT -0.2440
-2.4471 IT'S -0.2225
-4.2533 ITS -0.2976
-4.2533 JUS -0.2995
-2.7762 JUST -0.2649
-3.1741 KAY -0.2692
-3.2990 KEEP -0.2949
-4.2533 KINDA -0.3010
-4.2533 KINDS -0.2991
-3.1393 KNOW -0.2532
-4.2533 L -0.3006
-3.3502 LADDER -0.2683
-3.9523 LADDERS -0.2808
-4.2533 LATER -0.2812
-4.2533 LEAD -0.2968
-3.9523 LEADING -0.2970
-4.2533 LEADS -0.2976
-3.6512 LEAVE -0.2960
-4.2533 LEF -0.2995
-2.3668 LEFT -0.2161
-3.9523 LEFTHAND -0.2982
-3.6512 LET -0.3006
-3.6512 LET'S -0.2979
-2.9745 LIKE -0.2450
-4.2533 LINTEL -0.2983
-4.2533 LISTEN -0.2812
-4.2533 LISTENING -0.2812
-2.9745 LITTLE -0.2907
-3.9523 LOCATED -0.2975
-3.4082 LOOK -0.2985
-3.4751 LOOKING -0.2953
-4.2533 LOOKS -0.3006
-4.2533 LOT -0.3010
-4.2533 M -0.3009
-3.9523 MAKE -0.2952
-3.6512 MANY -0.2989
-3.4751 MAP -0.2804
-4.2533 MARK -0.3010
-4.2533 MARKED -0.2966
-4.2533 MAY -0.3004
-3.7762 MAYBE -0.2993
-4.2533 MBOOKSHELVES -0.3010
-2.9980 ME -0.2547
-4.2533 MEAN -0.2812
-4.2533 METAL -0.3007
-4.2533 MHM -0.2812
-4.2533 MHMM -0.2812
-3.9523 MIDDLE -0.3005
-4.2533 MIGHT -0.3000
-4.2533 MINUTE -0.2992
-3.1741 MINUTES -0.2709
-4.2533 MIRROR -0.2974
-3.9523 MKAY -0.2810
-3.7762 MM -0.2827
-4.2533 MMM -0.3007
-3.5543 MORE -0.2977
-4.2533 MOVE -0.2992
-4.2533 MUCH -0.3009
-2.8061 MY -0.2961
-3.9523 N -0.2992
-4.2533 NE -0.3003
-3.7762 NEAR -0.2850
-3.1072 NEED -0.2672
-3.9523 NEEDS -0.2983
-2.7348 NEXT -0.2715
-2.9311 NO -0.2661
-3.0772 NOT -0.2672
-2.7348 NOW -0.2603
-2.4824 NUMBER -0.2665
-4.2533 NUMBERS -0.2966
-3.7762 O -0.2643
-2.1964 OF -0.2565
-3.7762 OFF -0.2818
-3.4751 OFFICE -0.2727
-3.7762 OFFICES -0.2923
-3.0228 OH -0.2562
-3.9523 OK -0.2972
-2.1599 OKAY -0.2037
-3.7762 OLD -0.2975
-1.9908 ON -0.2371
-3.7762 ONCE -0.2930
-2.2002 ONE -0.2277
-4.2533 ONE'S -0.2812
-3.2990 ONES -0.2683
-3.4082 ONLY -0.2936
-4.2533 OOR -0.2812
-3.1393 OPEN -0.2744
-4.2533 OPENS -0.2812
-3.9523 OPPOSITE -0.2845
-2.7909 OR -0.2342
-3.0228 OTHER -0.2597
-3.6512 OUR -0.2999
-2.9311 OUT -0.2529
-3.5543 OUTTA -0.2793
-3.9523 OVER -0.2983
-3.6512 PAIR -0.2783
-4.2533 PART -0.2983
-4.2533 PASS -0.2850
-3.1072 PAST -0.2564
-3.9523 PEELED -0.3007
-3.4751 PICK -0.2972
-4.2533 PICKED -0.3006
-4.2533 PIECES -0.3009
-2.4471 PINK -0.2638
-3.3502 PLATFORM -0.2714
-4.2533 PLATFORMS -0.3003
-4.2533 PLENTY -0.2983
-3.7762 POINT -0.2767
-4.2533 POINTED -0.3005
-4.2533 POST -0.2812
-4.2533 PRETTY -0.3010
-4.2533 PROFESSOR -0.3010
-4.2533 PULL -0.2850
-4.2533 PUSHED -0.3006
-3.0492 PUT -0.2685
-4.2533 PUTTING -0.3002
-4.2533 QUESTIONS -0.3007
-4.2533 QUICK -0.3003
-3.9523 QUICKLY -0.2808
-3.9523 REACH -0.2850
-3.7762 REALLY -0.3008
-4.2533 RECEIVING -0.3010
-4.2533 RELATION -0.2976
-4.2533 REMAINING -0.3009
-3.6512 REMEMBER -0.2637
-4.2533 REST -0.2983
-2.1888 RIGHT -0.2398
-4.2533 RIGHTSIDE -0.2983
-2.2577 ROOM -0.2112
-3.9523 RYAN -0.2968
-3.9523 S -0.2991
-3.2533 SAID -0.2660
-4.2533 SAME -0.3008
-3.9523 SAY -0.2967
-3.9523 SAYS -0.2996
-4.2533 SE -0.2999
-2.6970 SECOND -0.2606
-4.2533 SECONDS -0.2812
-2.4751 SEE -0.2419
-3.7762 SEEING -0.2964
-4.2533 SEEN -0.3010
-3.9523 SEND -0.2968
-3.9523 SET -0.2983
-3.2119 SEVEN -0.2684
-4.2533 SEVEN'S -0.2966
-3.7762 SEVENTH -0.2762
-3.6512 SH -0.2811
-4.2533 SHE -0.3008
-3.1072 SHELF -0.2703
-3.9523 SHELVES -0.3008
-4.2533 SHIT -0.2986
-2.6001 SHOULD -0.2899
-4.2533 SHOULD'VE -0.3010
-4.2533 SHOWIN -0.2960
-2.9745 SIDE -0.2482
-3.9523 SINGLE -0.2975
-3.7762 SITTING -0.2966
-3.1741 SIX -0.2761
-3.4751 SIXTH -0.2725
-3.6512 SLIGHT -0.2982
-4.2533 SLIGHTLY -0.2976
-3.4751 SMALL -0.2986
-4.2533 SNAGGED -0.3008
-4.2533 SNAGGING -0.2977
-2.4404 SO -0.2205
-3.6512 SOME -0.2956
-4.2533 SOMETHIN -0.2812
-4.2533 SOMETHING -0.2977
-3.9523 SON -0.2783
-3.9523 SOON -0.3004
-4.2533 SORRY -0.2962
-3.9523 SORT -0.2783
-4.2533 SOUND -0.3010
-3.9523 SPOT -0.2993
-3.2119 STACK -0.2932
-3.7762 STACKS -0.2983
-4.2533 STAIR -0.2966
-3.7762 STAIRS -0.2812
-4.2533 STAND -0.2976
-4.2533 STANDARD -0.3010
-3.6512 STANDING -0.2944
-3.7762 START -0.3009
-4.2533 STARTED -0.2987
-3.9523 STARTING -0.2979
-3.9523 STAY -0.2982
-3.5543 STEP -0.2754
-4.2533 STEPPED -0.3005
-3.2533 STEPS -0.2684
-4.2533 STI -0.2812
-3.4082 STILL -0.2970
-4.2533 STOP -0.2974
-2.7762 STRAIGHT -0.2744
-4.2533 STUFF -0.2812
-3.6512 SUPPOSED -0.2976
-3.9523 SURE -0.2970
-3.6512 T -0.2792
-3.5543 TABLE -0.2763
-4.2533 TABLES -0.2966
-2.9745 TAKE -0.2745
-4.2533 TAKEN -0.2850
-3.5543 TAKING -0.2793
-4.2533 TALKING -0.2976
-4.2533 TAS -0.2977
-3.6512 TASK -0.2802
-3.7762 TESTING -0.2986
-3.3502 TH -0.2557
-2.1230 THAT -0.2150
-2.8061 THAT'S -0.2640
-1.4410 THE -0.1813
-3.5543 THEM -0.2671
-2.6001 THEN -0.2223
-2.2710 THERE -0.2487
-2.2490 THERE'S -0.2335
-4.2533 THEY -0.3009
-4.2533 THING -0.3006
-3.4082 THINK -0.2795
-3.9523 THIRD -0.2990
-3.0772 THIS -0.2650
-3.3502 THOSE -0.2711
-3.7762 THOUGH -0.2963
-4.2533 THR -0.3004
-2.7481 THREE -0.2627
-2.7348 THROUGH -0.2483
-4.2533 THROUGHOUT -0.2850
-3.6512 TIME -0.2918
-3.7762 TIME'S -0.3005
-2.1041 TO -0.2359
-3.6512 TOLD -0.2959
-3.6512 TOO -0.2812
-3.9523 TOOK -0.2960
-3.4751 TOP -0.2783
-4.2533 TOTAL -0.2812
-3.9523 TOWARD -0.2816
-3.7762 TOWARDS -0.2837
-4.2533 TRY -0.2976
-4.2533 TRYIN -0.2976
-4.2533 TUH -0.2850
-2.9980 TURN -0.2702
-3.7762 TURNED -0.2982
-3.9523 TURNING -0.2992
-3.5543 TURNS -0.2587
-2.6735 TWO -0.2630
-2.3557 UH -0.2102
-4.2533 UHF -0.2997
-4.2533 UHUH -0.2812
-2.5129 UM -0.2153
-4.2533 UNDER -0.2983
-4.2533 UNDERNEATH -0.2850
-4.2533 UNDERSTAND -0.2998
-4.2533 UNLESS -0.2968
-3.6512 UNTIL -0.2768
-2.9980 UP -0.2622
-4.2533 UUM -0.2812
-3.6512 VERY -0.3001
-4.2533 W -0.2998
-3.6512 WAIT -0.2890
-3.2119 WALK -0.2935
-3.2533 WALKED -0.2952
-3.4751 WALKING -0.2940
-2.9109 WALL -0.2568
-3.2533 WANNA -0.2974
-3.2990 WANT -0.2770
-2.6512 WAS -0.2337
-3.2990 WAY -0.2866
-2.8219 WE -0.2944
-3.9523 WE'LL -0.3007
-3.2533 WE'RE -0.2987
-3.6512 WE'VE -0.2995
-3.0772 WELL -0.2632
-3.4751 WENT -0.2950
-3.4082 WERE -0.2711
-3.9523 WH -0.2994
-2.9745 WHAT -0.2562
-4.2533 WHAT'S -0.2850
-3.9523 WHATEVER -0.2968
-3.2533 WHEN -0.2923
-2.5543 WHERE -0.2436
-3.3502 WHERE'S -0.2829
-3.4751 WHICH -0.2976
-4.2533 WHILE -0.3010
-4.2533 WHOLE -0.3009
-4.2533 WILL -0.3010
-3.6512 WINDOW -0.2740
-2.9523 WITH -0.2762
-4.2533 WONDERFUL -0.2993
-3.9523 WOODEN -0.3008
-4.2533 WORTH -0.2983
-3.6512 WOULD -0.2941
-4.2533 WOW -0.2980
-4.2533 WRITE -0.3007
-4.2533 WRONG -0.3006
-3.9523 Y -0.3005
-4.2533 YA -0.3010
-3.2533 YAH -0.2757
-3.9523 YE -0.2809
-2.5051 YEAH -0.2249
-2.9523 YELLOW -0.2700
-3.2533 YEP -0.2666
-3.0772 YES -0.2697
-3.6512 YET -0.2755
-2.0152 YOU -0.2350
-3.7762 YOU'LL -0.2996
-2.9745 YOU'RE -0.2705
-4.2533 YOU'VE -0.3010
-4.2533 YOULL -0.3008
-2.9109 YOUR -0.2936

\2-grams:
-2.6010 <s> A -0.2714
-3.2030 <s> ABOUT -0.2663
-3.2030 <s> ACTUALLY -0.2688
-3.2030 <s> AH -0.1761
-3.2030 <s> ALL -0.1047
-3.2030 <s> ALMOST -0.1761
-1.4548 <s> ALRIGHT -0.0235
-2.7259 <s> AN -0.2218
-1.4955 <s> AND -0.1175
-3.2030 <s> ANY -0.2553
-3.2030 <s> AP 0.0000
-2.6010 <s> ARE -0.1614
-3.2030 <s> ARIGHT 0.0000
-2.9020 <s> AT -0.0939
-3.2030 <s> BE -0.2957
-3.2030 <s> BEHIND -0.0669
-3.2030 <s> BIG -0.1761
-2.9020 <s> BLUE -0.1021
-3.2030 <s> BOX -0.2999
-2.7259 <s> BUT -0.2632
-2.9020 <s> BY -0.0669
-2.9020 <s> CAN -0.2499
-3.2030 <s> CART -0.2126
-3.2030 <s> D'YA 0.0000
-3.2030 <s> D'YOU 0.0000
-2.9020 <s> DID -0.0792
-2.0569 <s> DO -0.1055
-2.9020 <s> DON'T -0.2083
-3.2030 <s> DUMP -0.2218
-3.2030 <s> E 0.0000
-3.2030 <s> EACH -0.2218
-3.2030 <s> EH -0.1761
-3.2030 <s> EM -0.2218
-2.9020 <s> ENTER -0.0792
-3.2030 <s> EXIT -0.2808
-3.2030 <s> FILING -0.1597
-3.2030 <s> FINDING 0.0000
-3.2030 <s> FIVE -0.2894
-2.7259 <s> FOUND -0.0746
-2.7259 <s> FOUR -0.1829
-2.6010 <s> GO -0.1698
-2.3579 <s> GOT -0.1845
-2.9020 <s> GOTCHA -0.0792
-3.2030 <s> GRAB -0.1761
-2.7259 <s> GREEN -0.1265
-3.2030 <s> HALLWAY -0.2030
-3.2030 <s> HANG -0.1249
-3.2030 <s> HELLO 0.0000
-3.2030 <s> HHH -0.1761
-3.2030 <s> HM 0.0000
-2.6010 <s> HOLD 0.0000
-3.2030 <s> HOW -0.1249
-2.9020 <s> HUH -0.1249
-1.8228 <s> I -0.1493
-3.2030 <s> I'LL -0.2632
-2.0891 <s> I'M -0.1957
-2.9020 <s> I'VE -0.0969
-2.9020 <s> IF -0.1691
-3.2030 <s> IGNORE 0.0000
-3.2030 <s> IMMEDIATELY -0.2632
-2.2999 <s> IN -0.1398
-2.2488 <s> IS -0.2196
-2.7259 <s> IT -0.2918
-1.8808 <s> IT'S -0.1181
-2.6010 <s> JUST -0.2389
-2.1239 <s> KAY 0.0000
-2.9020 <s> KEEP -0.2218
-2.9020 <s> LEFT -0.1891
-3.2030 <s> LEFTHAND -0.1761
-2.9020 <s> LET 0.0000
-3.2030 <s> LET'S -0.1761
-2.9020 <s> LIKE -0.2775
-3.2030 <s> LOOK -0.2688
-3.2030 <s> LOOKS 0.0000
-3.2030 <s> LOT 0.0000
-3.2030 <s> MAYBE -0.2218
-3.2030 <s> MHM 0.0000
-3.2030 <s> MHMM 0.0000
-2.9020 <s> MKAY 0.0000
-2.7259 <s> MM 0.0000
-3.2030 <s> MMM 0.0000
-3.2030 <s> NEED -0.1549
-2.2030 <s> NO -0.0928
-2.7259 <s> NOT -0.2389
-2.6010 <s> NOW -0.2218
-2.2999 <s> NUMBER -0.1430
-2.9020 <s> O -0.1249
-2.0269 <s> OH -0.0248
-3.2030 <s> OK -0.1761
-1.1944 <s> OKAY -0.0138
-1.9478 <s> ON -0.1123
-2.6010 <s> ONE -0.2257
-3.2030 <s> OPEN -0.2840
-2.9020 <s> OR -0.2780
-2.9020 <s> PICK -0.1761
-3.2030 <s> PUT -0.2272
-2.9020 <s> QUICKLY 0.0000
-3.2030 <s> REMEMBER -0.2430
-2.2030 <s> RIGHT -0.1884
-3.2030 <s> SAY -0.1761
-3.2030 <s> SEE -0.2863
-3.2030 <s> SEVEN -0.1891
-3.2030 <s> SH -0.2430
-3.2030 <s> SHIT 0.0000
-2.9020 <s> SHOULD -0.0628
-3.2030 <s> SIXTH -0.2632
-3.2030 <s> SNAGGING 0.0000
-1.9020 <s> SO -0.1556
-3.2030 <s> SON -0.1761
-3.2030 <s> STAY 0.0000
-3.2030 <s> STRAIGHT -0.2937
-2.9020 <s> TH -0.2430
-2.9020 <s> THAT -0.2846
-2.3579 <s> THAT'S -0.1656
-2.0569 <s> THE -0.2615
-2.2999 <s> THEN -0.1793
-2.4249 <s> THERE -0.1880
-1.8808 <s> THERE'S -0.0712
-2.7259 <s> THREE -0.2024
-3.2030 <s> THROUGHOUT 0.0000
-3.2030 <s> TIME'S -0.2218
-2.6010 <s> TO -0.1751
-2.9020 <s> TWO -0.2653
-1.6590 <s> UH -0.0801
-3.2030 <s> UHF 0.0000
-3.2030 <s> UHUH 0.0000
-1.6845 <s> UM -0.0792
-3.2030 <s> UUM 0.0000
-3.2030 <s> WAIT -0.2430
-3.2030 <s> WALK -0.2596
-2.5041 <s> WE -0.0872
-2.9020 <s> WE'RE -0.2304
-2.7259 <s> WELL -0.2553
-3.2030 <s> WH -0.1761
-2.9020 <s> WHAT -0.2264
-2.9020 <s> WHEN -0.0414
-2.3579 <s> WHERE -0.1523
-2.9020 <s> WHERE'S -0.0969
-3.2030 <s> WHICH -0.2218
-3.2030 <s> WITH -0.2900
-3.2030 <s> WRITE 0.0000
-3.2030 <s> YE -0.1761
-1.6232 <s> YEAH -0.0077
-2.2030 <s> YEP 0.0000
-2.1239 <s> YES -0.0280
-2.0569 <s> YOU -0.2258
-3.2030 <s> YOULL 0.0000
-3.2030 <s> YOUR -0.1891
-2.1357 A </s> -0.3010
-2.6128 A ALRIGHT -0.2980
-2.6128 A B 0.0000
-2.6128 A BIT -0.1761
-1.8346 A BLOCK -0.1139
-1.1214 A BLUE -0.1143
-2.3118 A BOOKSHELF -0.2553
-2.1357 A BOX -0.2750
-2.6128 A BROWN -0.0669
-2.6128 A BUNCH 0.0000
-2.6128 A CAME -0.2762
-2.6128 A CARBOARD -0.1761
-1.9138 A CART -0.1684
-1.6585 A CHAIR -0.0185
-2.6128 A CHAIRS -0.2926
-2.0107 A DESK -0.1761
-2.6128 A DISTANCE 0.0000
-1.6128 A DOOR -0.1784
-2.6128 A DOORWAY -0.2553
-2.6128 A F -0.2218
-2.6128 A FIRST -0.2906
-2.6128 A GEEN 0.0000
-1.2511 A GREEN -0.0651
-2.6128 A HALF 0.0000
-2.1357 A HALLWAY -0.1852
-2.6128 A HIDDEN -0.2218
-2.6128 A IF -0.1829
-2.0107 A IT'S -0.2232
-2.6128 A KINDA 0.0000
-2.1357 A LADDER -0.1761
-2.0107 A LEFT -0.1891
-2.0107 A LITTLE -0.1836
-2.6128 A MIRROR 0.0000
-2.6128 A NUMBER -0.2973
-2.6128 A ONE -0.2814
-2.0107 A PAIR 0.0000
-1.2906 A PINK -0.0859
-2.3118 A PLATFORM -0.2430
-2.6128 A QUICK 0.0000
-1.6128 A RIGHT -0.2097
-2.6128 A ROOM -0.2785
-1.8346 A SECOND -0.2566
-2.3118 A SET 0.0000
-2.3118 A SHELF -0.1549
-2.6128 A SINGLE -0.1761
-2.6128 A SLIGHT 0.0000
-2.6128 A SMALL 0.0000
-1.8346 A STACK -0.0378
-2.6128 A STANDARD 0.0000
-2.3118 A TABLE -0.2041
-2.6128 A TAKE -0.1684
-2.6128 A THERE'S -0.1804
-2.6128 A TURN -0.2071
-2.3118 A WHAT -0.2398
-2.6128 A WOODEN 0.0000
-2.0107 A YELLOW -0.2553
-1.1139 ABOUT </s> -0.3010
-1.4150 ABOUT FORTY 0.0000
-1.1139 ABOUT MAYBE -0.1249
-1.4150 ABOUT ONE -0.2972
-1.4150 ABOUT THREE -0.2430
-1.1139 ABOUT TO -0.2948
-0.8129 ABOUT TWO -0.2653
-0.3010 ACCORDING TO -0.1832
-0.5229 ACROSS FROM -0.1072
-1.0000 ACROSS THE -0.2929
-1.0000 ACROSS THERE'S -0.2923
-0.8451 ACTUALLY GO -0.2947
-1.1461 ACTUALLY I -0.2617
-1.1461 ACTUALLY NOT -0.2863
-1.1461 ACTUALLY SEE -0.2937
-1.1461 ACTUALLY SITTING 0.0000
-1.1461 ACTUALLY THREE -0.2872
-0.7782 AFTER COMING 0.0000
-0.4771 AFTER THAT -0.2762
-0.9031 AGAIN </s> -0.3010
-0.9031 AGAIN GREEN -0.1265
-0.9031 AGAIN INTO -0.1076
-0.9031 AGAIN STRAIGHT -0.2218
-0.3010 AGAINST THE -0.2909
-0.6021 AH ALRIGHT -0.2857
-0.6021 AH WE'RE -0.2788
-0.9031 AHEAD </s> -0.3010
-1.0280 AHEAD AND -0.2831
-1.5051 AHEAD FINDIN' 0.0000
-1.5051 AHEAD I -0.2617
-0.8062 AHEAD OF -0.2796
-1.5051 AHEAD THERE'S -0.2989
-1.5051 AHEAD TO -0.2964
-0.3010 ALARM WILL 0.0000
-1.6435 ALL KINDS 0.0000
-1.0414 ALL OF -0.1761
-1.6435 ALL THAT -0.2994
-0.4393 ALL THE -0.2709
-0.6021 ALMOST ALL -0.2596
-0.6021 ALMOST STRAIGHT -0.2863
-0.3010 ALOT OF -0.1861
-0.6021 ALREADY </s> -0.3010
-0.6021 ALREADY OPEN -0.2840
-1.4594 ALRIGHT </s> -0.3010
-2.1584 ALRIGHT ALRIGHT -0.2857
-2.1584 ALRIGHT AN -0.2762
-1.5563 ALRIGHT AND -0.2530
-2.1584 ALRIGHT AS -0.2825
-2.1584 ALRIGHT CONTINUE -0.2430
-2.1584 ALRIGHT GET -0.2304
-2.1584 ALRIGHT GO -0.2850
-2.1584 ALRIGHT HEAD -0.0580
-2.1584 ALRIGHT HEY 0.0000
-1.8573 ALRIGHT HOLD 0.0000
-2.1584 ALRIGHT HOW -0.2632
-1.2041 ALRIGHT I -0.1996
-2.1584 ALRIGHT I'LL -0.2632
-1.6812 ALRIGHT I'M -0.2909
-1.8573 ALRIGHT I'VE -0.0669
-1.8573 ALRIGHT IF -0.1249
-2.1584 ALRIGHT LET'S -0.2430
-1.3802 ALRIGHT NOW -0.2218
-2.1584 ALRIGHT NUMBER -0.2705
-2.1584 ALRIGHT ON -0.1689
-2.1584 ALRIGHT OUR -0.2430
-1.2041 ALRIGHT SO -0.2285
-2.1584 ALRIGHT START -0.2218
-2.1584 ALRIGHT T -0.2430
-2.1584 ALRIGHT THAT -0.2762
-2.1584 ALRIGHT THE -0.2994
-2.1584 ALRIGHT THEN -0.2762
-1.8573 ALRIGHT THERE'S -0.1747
-2.1584 ALRIGHT UH -0.2899
-2.1584 ALRIGHT UM -0.2971
-2.1584 ALRIGHT WE'LL -0.1761
-2.1584 ALRIGHT WE'VE -0.1761
-2.1584 ALRIGHT WELL -0.2863
-2.1584 ALRIGHT WHERE -0.2967
-1.6812 ALRIGHT YOU -0.2752
-0.3010 ALRIGHTY </s> -0.3010
-0.3010 ALRRIGHT HOLD 0.0000
-1.3010 ALSO </s> -0.3010
-0.6990 ALSO A -0.2397
-1.0000 ALSO ANOTHER -0.1761
-1.3010 ALSO IF -0.2906
-1.3010 ALSO SUPPOSED 0.0000
-1.3010 ALSO THE -0.2936
-1.0792 AM </s> -0.3010
-1.0792 AM AT -0.1174
-0.7782 AM HUSTLING 0.0000
-1.0792 AM RIGHT -0.2935
-1.0792 AM SEEING -0.1249
-1.2553 AN </s> -0.3010
-1.2553 AN EIGHT -0.1165
-1.2553 AN EMERGENC 0.0000
-1.2553 AN EXIT -0.2808
-1.2553 AN EYE 0.0000
-1.2553 AN IT'S -0.2976
-1.2553 AN OPEN -0.1871
-1.2553 AN PUT -0.2583
-1.2553 AN THERE -0.2988
-0.3010 AN' </s> -0.3010
-2.4713 AND </s> -0.3010
-1.6931 AND A -0.2107
-2.4713 AND AND -0.2906
-2.1703 AND AS -0.2109
-2.4713 AND AT -0.1174
-2.4713 AND BL -0.1761
-2.4713 AND BOX -0.2854
-2.4713 AND CHECK 0.0000
-2.4713 AND CONTINUE -0.2430
-2.4713 AND DO -0.1538
-2.4713 AND EMPTY 0.0000
-2.4713 AND EXIT -0.2139
-2.4713 AND FIVE -0.2126
-1.9942 AND GET -0.1139
-1.6931 AND GO -0.1823
-2.4713 AND GREEN -0.2747
-1.5170 AND I -0.2301
-2.4713 AND I'LL -0.2218
-1.7723 AND I'M -0.2770
-2.4713 AND I'VE -0.2825
-2.4713 AND IN -0.2075
-2.4713 AND IS -0.2775
-2.4713 AND IT -0.2886
-1.8692 AND IT'S -0.2507
-2.4713 AND KEEP -0.2762
-2.4713 AND LET 0.0000
-2.1703 AND LOOK -0.1963
-2.4713 AND LOOKING -0.2218
-2.4713 AND NOW -0.2596
-2.4713 AND NUMBER -0.2973
-2.4713 AND ON -0.1689
-2.4713 AND ONE -0.2773
-2.4713 AND OPEN -0.2840
-1.7723 AND PUT -0.1576
-2.4713 AND SAYS -0.1761
-2.1703 AND SO -0.2626
-1.9942 AND TAKE -0.1526
-2.1703 AND THAT'S -0.2430
-1.3573 AND THE -0.2651
-1.0911 AND THEN -0.0792
-1.7723 AND THERE -0.2052
-1.4713 AND THERE'S -0.1387
-2.4713 AND THROUGH -0.2944
-2.1703 AND TO -0.1832
-2.4713 AND TOWARDS -0.1249
-2.1703 AND TURN -0.1597
-2.4713 AND TWO -0.2715
-2.1703 AND UH -0.2813
-2.4713 AND UM -0.2849
-2.1703 AND WE -0.1919
-2.1703 AND WHAT -0.2398
-1.6262 AND YOU -0.2533
-0.8325 ANOTHER BLUE -0.0980
-1.5315 ANOTHER CLOSET -0.1461
-1.8325 ANOTHER DOORWAY -0.2553
-1.3554 ANOTHER GREEN -0.1265
-1.8325 ANOTHER HALLWAY -0.2964
-1.3554 ANOTHER ONE -0.2234
-1.5315 ANOTHER OPEN -0.1871
-0.9874 ANOTHER PINK -0.1023
-1.8325 ANOTHER RIGHT -0.2473
-1.5315 ANOTHER ROOM -0.2112
-1.8325 ANOTHER STEP -0.2553
-1.8325 ANOTHER YELLOW -0.2788
-1.0000 ANY BLUE -0.2656
-1.0000 ANY GREEN -0.1265
-1.0000 ANY MORE -0.2041
-1.0000 ANY OTHER -0.2881
-1.0000 ANY PINK -0.2583
-0.3010 ANYMORE GREEN -0.2747
-0.4771 ANYTHING </s> -0.3010
-0.7782 ANYTHING OF -0.1861
-0.3010 ANYWAY </s> -0.3010
-0.6021 ANYWHERE </s> -0.3010
-0.6021 ANYWHERE LIKE -0.2894
-0.3010 AP THERE'S -0.1804
-1.0000 ARE </s> -0.3010
-1.6021 ARE ENTERING 0.0000
-1.6021 ARE ONE -0.2933
-1.6021 ARE RIGHT -0.2954
-1.6021 ARE THERE -0.2988
-1.6021 ARE TWO -0.2953
-0.5607 ARE YOU -0.2831
-0.3010 ARIGHT </s> -0.3010
-1.0000 AROUND </s> -0.3010
-1.0000 AROUND AND -0.2906
-1.3010 AROUND HERE -0.1938
-1.3010 AROUND SO -0.2977
-0.6990 AROUND THE -0.2936
-1.0792 AS I -0.2782
-0.9031 AS I'M -0.2165
-1.3802 AS SOON 0.0000
-1.3802 AS THE -0.2871
-1.0792 AS WELL -0.2389
-1.2041 AS YOU -0.2857
-1.3802 AS YOU'RE -0.2775
-1.6812 AS YOU'VE 0.0000
-1.4624 AT </s> -0.3010
-1.7634 AT NOW -0.2739
-1.7634 AT RIGHT -0.2973
-1.7634 AT TH -0.2730
-0.4624 AT THE -0.2673
-1.4624 AT THIS -0.2711
-1.7634 AT WHEN -0.1139
-1.7634 AT YOUR -0.2374
-0.3010 ATTACHMENT </s> -0.3010
-0.3010 AWAY FROM -0.0934
-0.3010 B </s> -0.3010
-1.1055 BACK </s> -0.3010
-2.0086 BACK ACROSS -0.2553
-2.0086 BACK ALRIGHT -0.2857
-1.4065 BACK AND -0.2876
-2.0086 BACK ANYWAY 0.0000
-2.0086 BACK AROUND -0.2788
-1.7076 BACK DOWN -0.1549
-2.0086 BACK HERE -0.2872
-1.7076 BACK IN -0.1839
-1.3096 BACK INTO -0.1076
-1.5315 BACK OUT -0.1402
-2.0086 BACK STEP -0.2553
-2.0086 BACK T -0.2430
-2.0086 BACK THEN -0.2813
-1.5315 BACK THROUGH -0.1627
-0.9672 BACK TO -0.1688
-2.0086 BACK TOWARD -0.1761
-2.0086 BACK TOWARDS -0.2218
-2.0086 BACK UH -0.2756
-2.0086 BACK UNTIL -0.0969
-2.0086 BACK UP -0.2361
-0.3010 BACKTRACK </s> -0.3010
-0.6021 BARRIER </s> -0.3010
-0.6021 BARRIER THE -0.2994
-0.3010 BASE OF -0.1861
-1.1461 BASICALLY ALL -0.1047
-1.1461 BASICALLY IF -0.2798
-1.1461 BASICALLY IN -0.2605
-1.1461 BASICALLY ON -0.1689
-1.1461 BASICALLY RIGHT -0.2992
-1.1461 BASICALLY WANNA -0.2788
-1.1461 BASICALLY YOU -0.2922
-1.9138 BE </s> -0.3010
-0.7097 BE A -0.2184
-1.6128 BE ANOTHER -0.2167
-1.9138 BE BOX -0.2999
-1.9138 BE BY -0.0669
-1.9138 BE COLLECTING -0.1761
-1.9138 BE IN -0.2925
-1.9138 BE LIKE -0.2527
-1.6128 BE ON -0.2866
-1.2148 BE ONE -0.2188
-1.9138 BE SH -0.2430
-1.9138 BE STAND 0.0000
-1.9138 BE SURE -0.1761
-1.4367 BE THE -0.2857
-1.6128 BE TWO -0.2775
-1.6128 BE UH -0.2667
-0.3010 BECAUSE THERE'S -0.2989
-0.6021 BEEN NEXT -0.1150
-0.6021 BEEN TOLD -0.2430
-0.7270 BEFORE I -0.2883
-1.2041 BEFORE IT -0.2949
-0.7270 BEFORE THE -0.2973
-1.2041 BEFORE YOU -0.2922
-1.0792 BEHIND THAT -0.2945
-0.3802 BEHIND THE -0.2885
-0.3010 BELIEVE SHE 0.0000
-0.6021 BEND </s> -0.3010
-0.6021 BEND IN -0.2075
-0.3010 BETWEEN THE -0.3000
-0.6021 BIG CARDBOARD -0.2833
-0.6021 BIG ROOM -0.2877
-0.3010 BIGGER ROOM -0.2785
-0.6021 BIT </s> -0.3010
-0.6021 BIT OFF -0.2218
-0.6021 BL </s> -0.3010
-0.6021 BL I -0.2897
-0.6021 BLAH BLAH -0.1761
-0.6021 BLAH IT'S -0.2942
-1.3010 BLOCK </s> -0.3010
-1.3010 BLOCK FOR -0.2688
-1.3010 BLOCK FROM -0.2923
-0.5229 BLOCK IN -0.2218
-1.3010 BLOCK ONE -0.2933
-0.7959 BLOCKS </s> -0.3010
-1.3979 BLOCKS DO -0.1538
-1.6990 BLOCKS ER -0.2430
-1.6990 BLOCKS FROM -0.2923
-1.3979 BLOCKS IN -0.1839
-1.6990 BLOCKS INSIDE -0.2632
-1.6990 BLOCKS OR -0.2935
-1.0000 BLOCKS OUT -0.1549
-1.6990 BLOCKS OUTTA -0.2041
-1.6990 BLOCKS PICK -0.2218
-1.6990 BLOCKS RIGHT -0.2473
-1.6990 BLOCKS THEN -0.2813
-1.6180 BLUE </s> -0.3010
-2.2201 BLUE AND -0.2921
-0.4642 BLUE BOX -0.1249
-1.1062 BLUE BOXES -0.0989
-2.2201 BLUE DUMP -0.1249
-1.5211 BLUE ONE -0.2414
-1.9191 BLUE ONES -0.2218
-0.6021 BO IN -0.2075
-0.6021 BO PINK -0.2583
-0.6021 BOOK I -0.2968
-0.6021 BOOK SHELF -0.1761
-0.6990 BOOKSHELF </s> -0.3010
-1.1761 BOOKSHELF AND -0.2530
-1.4771 BOOKSHELF BUT -0.2632
-1.1761 BOOKSHELF IN -0.2033
-1.4771 BOOKSHELF SIX -0.2632
-1.4771 BOOKSHELF WAS -0.2613
-1.4771 BOOKSHELF WHERE -0.2201
-1.4771 BOOKSHELF WITH -0.2672
-0.3010 BOOKSHELFS WHEN -0.2788
-0.3010 BOOKSHELVES THAT -0.2978
-0.7782 BOTH ACCORDING 0.0000
-0.4771 BOTH OF -0.2894
-0.3010 BOTTOM SHELF -0.2518
-0.8817 BOX </s> -0.3010
-2.5977 BOX A -0.2760
-1.9956 BOX AND -0.2643
-2.5977 BOX AROUND -0.2041
-2.2967 BOX AT -0.1174
-2.5977 BOX BEHIND -0.0669
-2.5977 BOX BOXES -0.2116
-2.2967 BOX BUT -0.2632
-2.5977 BOX BY -0.0669
-2.5977 BOX DIRECTLY -0.2632
-2.5977 BOX EITHER 0.0000
-2.5977 BOX FIVE -0.2894
-2.5977 BOX FOR -0.2852
-2.5977 BOX GO -0.2256
-2.5977 BOX HAS -0.2218
-2.2967 BOX HERE -0.2583
-2.5977 BOX HIDDEN -0.2218
-2.5977 BOX HOW -0.1249
-2.5977 BOX I -0.2617
-2.5977 BOX IMMEDIATELY -0.2218
-1.5977 BOX IN -0.1173
-2.5977 BOX INCLUDES 0.0000
-2.5977 BOX INTO -0.1076
-1.5563 BOX IS -0.2365
-2.2967 BOX IT'S -0.2430
-2.5977 BOX LET 0.0000
-2.5977 BOX LIKE -0.2894
-2.5977 BOX N 0.0000
-2.2967 BOX NEEDS 0.0000
-1.8987 BOX NEXT -0.1150
-2.5977 BOX NOW -0.2944
-1.4516 BOX NUMBER -0.1156
-2.5977 BOX O -0.2218
-2.5977 BOX OKAY -0.2813
-1.2755 BOX ON -0.0760
-2.5977 BOX OR -0.2935
-1.9956 BOX RIGHT -0.2680
-2.5977 BOX SAYS -0.1761
-2.5977 BOX SEVEN -0.2596
-2.5977 BOX SO -0.2977
-2.5977 BOX STACK -0.2808
-2.1206 BOX THAT -0.2813
-2.2967 BOX THAT'S -0.2249
-2.2967 BOX THE -0.2956
-2.2967 BOX THEN -0.2553
-1.6435 BOX THERE -0.1448
-2.2967 BOX THERE'S -0.1689
-2.5977 BOX THOUGH -0.2218
-2.5977 BOX THREE -0.2942
-1.9956 BOX TO -0.1583
-2.5977 BOX UNDER 0.0000
-2.1206 BOX WAS -0.2613
-2.5977 BOX WE'RE -0.2041
-2.5977 BOX WHERE -0.2201
-2.2967 BOX WHICH -0.1249
-2.5977 BOX WITH -0.2672
-2.1206 BOX YET -0.0969
-2.5977 BOX YOU -0.2909
-0.7304 BOXES </s> -0.3010
-1.9345 BOXES AFTER -0.1249
-1.3324 BOXES AND -0.2546
-1.6335 BOXES ARE -0.2553
-1.4574 BOXES AS -0.1880
-1.9345 BOXES BUT -0.2632
-1.9345 BOXES DO -0.1538
-1.6335 BOXES HERE -0.2730
-1.9345 BOXES I -0.2982
-1.4574 BOXES IN -0.2530
-1.9345 BOXES NEXT -0.1150
-1.9345 BOXES ON -0.2975
-1.9345 BOXES OR -0.2858
-1.6335 BOXES THERE -0.1576
-1.9345 BOXES THREE -0.2942
-1.9345 BOXES WE -0.2407
-1.9345 BOXES YES -0.2863
-1.9345 BOXES YET -0.2430
-0.3802 BROWN BOX -0.2933
-1.0792 BROWN OR -0.2935
-0.3010 BUNCH OF -0.2991
-0.3010 BUSY TALKING 0.0000
-1.0792 BUT I -0.2854
-1.5563 BUT IN -0.2605
-1.5563 BUT INSTEAD 0.0000
-1.2553 BUT INTO -0.2583
-1.0792 BUT IT'S -0.2837
-1.5563 BUT KEEP -0.2762
-1.2553 BUT NO -0.2576
-1.5563 BUT OPEN -0.2840
-1.5563 BUT RIGHT -0.2935
-1.5563 BUT THE -0.2926
-1.5563 BUT THERE'S -0.2923
-1.5563 BUT WHERE -0.2648
-0.3802 BY THE -0.2766
-1.3802 BY WALKING -0.2632
-1.3802 BY WHERE -0.2648
-0.7404 CABINET </s> -0.3010
-1.3424 CABINET OK -0.1761
-1.0414 CABINET ON -0.1689
-1.3424 CABINET ROOM -0.2139
-1.3424 CABINET THERE -0.2326
-1.3424 CABINET THERE'S -0.2989
-1.3424 CABINET THING 0.0000
-0.6021 CABINETS </s> -0.3010
-1.2041 CABINETS FOUR -0.2688
-1.2041 CABINETS IF -0.1829
-1.2041 CABINETS ON -0.1689
-1.2041 CABINETS WHERE -0.2201
-1.2553 CAME </s> -0.3010
-1.2553 CAME AND -0.2996
-1.2553 CAME CAME -0.2762
-0.9542 CAME FROM -0.2742
-0.9542 CAME IN -0.2856
-1.2553 CAME OUT -0.1549
-1.2553 CAME THROUGH -0.2944
-1.2553 CAN BACKTRACK 0.0000
-0.9542 CAN FIND -0.2041
-1.2553 CAN HEAR -0.1461
-1.2553 CAN ONLY -0.2688
-1.2553 CAN SEE -0.2389
-1.2553 CAN STOP 0.0000
-0.9542 CAN YOU -0.2985
-0.6021 CAN'T HEAR -0.1461
-0.6021 CAN'T REALLY -0.2218
-0.6021 CARBOARD </s> -0.3010
-0.6021 CARBOARD BOX -0.2399
-1.6990 CARDBOARD </s> -0.3010
-1.6990 CARDBOARD BLOCKS -0.2923
-0.3768 CARDBOARD BOX -0.2016
-1.3979 CARDBOARD BOXES -0.2116
-0.3010 CARE OF -0.2972
-0.7347 CART </s> -0.3010
-1.2788 CART AND -0.2675
-1.5798 CART COMPLETELY 0.0000
-1.5798 CART DIRECTLY -0.2632
-1.5798 CART GO -0.2979
-1.5798 CART IN -0.2908
-1.5798 CART IS -0.2806
-1.5798 CART OKAY -0.2813
-1.2788 CART ON -0.1492
-1.5798 CART STRAIGHT -0.2041
-1.5798 CART YES -0.2218
-0.5166 CHAIR </s> -0.3010
-1.6628 CHAIR IN -0.2821
-1.6628 CHAIR IS -0.2982
-1.1856 CHAIR ON -0.1232
-1.6628 CHAIR THERE -0.2378
-1.3617 CHAIR THERE'S -0.1540
-1.6628 CHAIR UM -0.2890
-0.6746 CHAIRS </s> -0.3010
-1.7160 CHAIRS AGAINST 0.0000
-1.2389 CHAIRS AND -0.2722
-1.7160 CHAIRS GOTCHA -0.1461
-1.7160 CHAIRS JUST -0.2863
-1.7160 CHAIRS NEXT -0.1150
-1.4150 CHAIRS ON -0.1673
-1.4150 CHAIRS OR -0.2700
-1.7160 CHAIRS RIGHT -0.2780
-1.7160 CHAIRS THEN -0.2962
-1.7160 CHAIRS THERE'S -0.2989
-1.7160 CHAIRS TO -0.2838
-0.3010 CHANGED A -0.3000
-0.3010 CHART HERE -0.1938
-0.3010 CHECK THE -0.2953
-0.4771 CHIP </s> -0.3010
-0.7782 CHIP IN -0.2993
-0.3010 CHIPS OUT -0.1549
-0.6021 CLOSE BOX -0.2399
-0.6021 CLOSE TO -0.1832
-0.3010 CLOSED </s> -0.3010
-0.3010 CLOSEST PINK -0.1669
-0.6990 CLOSET </s> -0.3010
-1.0000 CLOSET IN -0.2821
-1.0000 CLOSET IT'S -0.2976
-1.0000 CLOSET TO -0.1832
-0.3010 CLOSETS YOU -0.2922
-0.6021 COLLECTING ALL -0.1047
-0.6021 COLLECTING THE -0.2936
-0.3010 COLOR BOX -0.2399
-1.2041 COME </s> -0.3010
-0.6021 COME BACK -0.2467
-1.2041 COME IN -0.2993
-1.2041 COME OUTTA -0.2041
-1.2041 COME TO -0.2933
-0.3010 COMIN' BACK -0.2968
-0.3010 COMING THROUGH -0.1717
-0.3010 COMPLETE OUR -0.2430
-0.3010 COMPLETELY YOU -0.2922
-0.6021 COMPUTER CART -0.2894
-0.6021 COMPUTER STUFF 0.0000
-0.6021 COMPUTERS AND -0.2815
-0.6021 COMPUTERS WERE -0.2688
-0.9031 CONTINUE </s> -0.3010
-0.9031 CONTINUE AROUND -0.2553
-0.9031 CONTINUE IN -0.2993
-0.9031 CONTINUE INTO -0.1076
-0.3010 CORDER </s> -0.3010
-0.7648 CORNER </s> -0.3010
-1.8062 CORNER AS -0.2632
-1.8062 CORNER BUT -0.2632
-1.8062 CORNER DOES -0.1761
-1.8062 CORNER FACING -0.1383
-1.5051 CORNER FROM -0.1206
-1.8062 CORNER IN -0.2605
-1.8062 CORNER LEFT -0.1927
-1.8062 CORNER LOOKING -0.2218
-1.2041 CORNER OF -0.1861
-1.5051 CORNER ON -0.1673
-1.8062 CORNER OPPOSITE -0.1761
-1.8062 CORNER SHOULD'VE 0.0000
-1.8062 CORNER THAT'S -0.2932
-1.8062 CORNER UM -0.2931
-1.8062 CORNER WHERE -0.2201
-1.8062 CORNER YOU -0.2922
-0.3010 CREEPY DIAGRAM 0.0000
-0.6021 CURVE </s> -0.3010
-0.6021 CURVE FROM -0.2923
-0.3010 CUZ WE -0.2407
-0.3010 D'YA HEAR -0.2041
-0.3010 D'YOU GET -0.2304
-0.3010 DA THAT -0.2913
-0.6021 DE </s> -0.3010
-0.6021 DE THE -0.2929
-0.3802 DEAD END -0.2341
-1.0792 DEAD ENDS -0.2218
-0.3010 DEGREE LEFT -0.1927
-0.3010 DEGREES FROM -0.1206
-0.8239 DESK </s> -0.3010
-1.3010 DESK IS -0.2806
-1.0000 DESK OR -0.2858
-1.3010 DESK THERE -0.2326
-1.0000 DESK WITH -0.2788
-1.3010 DESK YEAH -0.2932
-1.0000 DESKS </s> -0.3010
-1.0000 DESKS AN' 0.0000
-0.6990 DESKS AND -0.2815
-1.0000 DESKS OR -0.2935
-0.3010 DIAGRAM OF -0.2991
-1.0000 DID OKAY -0.2922
-0.3979 DID YOU -0.2831
-0.7782 DIRECTLY ACROSS -0.0792
-1.0792 DIRECTLY AHEAD -0.2272
-1.0792 DIRECTLY IN -0.2908
-1.0792 DIRECTLY ON -0.2829
-1.0792 DIRECTLY TO -0.2964
-0.3010 DISTANCE BETWEEN 0.0000
-1.6021 DO </s> -0.3010
-1.9031 DO DO -0.1538
-1.4260 DO I -0.2954
-1.6021 DO IS -0.2953
-1.9031 DO IT -0.1901
-1.9031 DO THAT -0.2994
-1.9031 DO THIS -0.2711
-1.9031 DO THOUGH -0.2218
-1.4260 DO WE -0.2121
-1.9031 DO WITH -0.1761
-1.9031 DO YA 0.0000
-0.5414 DO YOU -0.2448
-0.9031 DOES NOT -0.2863
-0.9031 DOES OKAY -0.2975
-0.6021 DOES THE -0.2833
-1.1139 DON'T ACTUALLY -0.2341
-1.4150 DON'T GO -0.2979
-0.9379 DON'T HAVE -0.2355
-1.4150 DON'T MOVE 0.0000
-1.4150 DON'T NEED -0.2852
-0.7160 DON'T SEE -0.2086
-0.6021 DONE </s> -0.3010
-0.6021 DONE ALL -0.1047
-0.8216 DOOR </s> -0.3010
-1.6232 DOOR AND -0.2921
-2.1004 DOOR AT -0.1174
-1.7993 DOOR FRAME 0.0000
-2.1004 DOOR I -0.2954
-2.1004 DOOR I'M -0.2805
-2.1004 DOOR IMMEDIATELY -0.1761
-2.1004 DOOR IN -0.2993
-2.1004 DOOR INTO -0.1076
-1.7993 DOOR IS -0.2775
-2.1004 DOOR IT'S -0.2976
-2.1004 DOOR LEADING -0.1761
-2.1004 DOOR LIKE -0.2527
-2.1004 DOOR ON -0.2866
-2.1004 DOOR ONE -0.2991
-2.1004 DOOR OPENS 0.0000
-1.6232 DOOR OR -0.2619
-2.1004 DOOR OUT -0.2906
-2.1004 DOOR POST 0.0000
-1.1973 DOOR STRAIGHT -0.1856
-2.1004 DOOR THAT -0.2880
-1.7993 DOOR THAT'S -0.2852
-1.7993 DOOR THERE -0.2326
-1.7993 DOOR THERE'S -0.1804
-1.7993 DOOR TO -0.2838
-2.1004 DOOR WHERE -0.2923
-2.1004 DOOR WOULD -0.2430
-2.1004 DOOR YOU -0.2922
-0.3010 DOOR'S ALREADY -0.1761
-0.6021 DOORPOST </s> -0.3010
-0.6021 DOORPOST THAT'S -0.2932
-0.8239 DOORWAY </s> -0.3010
-1.6021 DOORWAY AND -0.2936
-1.6021 DOORWAY GREEN -0.2747
-1.6021 DOORWAY I -0.2869
-1.6021 DOORWAY I'M -0.2840
-1.6021 DOORWAY IN -0.2075
-1.6021 DOORWAY LEADING -0.1761
-1.6021 DOORWAY LIKE -0.2894
-1.0000 DOORWAY ON -0.1441
-1.3010 DOORWAY THAT -0.2929
-1.6021 DOORWAY TOOK 0.0000
-0.3010 DOUBLE BACK -0.2837
-1.1461 DOWN </s> -0.3010
-1.1461 DOWN IN -0.2075
-0.5441 DOWN THE -0.2909
-1.1461 DOWN TO -0.1832
-0.3010 DUH </s> -0.3010
-0.7782 DUMP DUMP -0.1249
-0.4771 DUMP THE -0.2939
-0.3010 E DUH 0.0000
-1.0792 EACH </s> -0.3010
-1.3802 EACH CORNER -0.2942
-0.9031 EACH OF -0.1861
-1.0792 EACH OTHER -0.2609
-0.7782 EACH PINK -0.1669
-0.3010 EASY ENOUGH 0.0000
-0.3010 EBERHARD THE -0.2997
-0.6021 EDGE </s> -0.3010
-0.6021 EDGE OF -0.1861
-0.6021 EH </s> -0.3010
-0.6021 EH DA 0.0000
-0.4607 EIGHT </s> -0.3010
-1.4150 EIGHT OKAY -0.2975
-1.4150 EIGHT PINK -0.2802
-1.1139 EIGHT YELLOW -0.2175
-0.3010 EIGHTH BOX -0.2843
-0.3010 EITHER BEHIND -0.0669
-0.3010 ELECTRODE ATTACHMENT 0.0000
-0.3010 ELSE DO -0.1538
-0.7782 EM </s> -0.3010
-0.7782 EM UP -0.2218
-0.7782 EM WE'RE -0.2553
-0.3010 EMERGENC THERE'S -0.1804
-0.3010 EMPTY THE -0.2963
-0.9243 END </s> -0.3010
-1.6232 END BY -0.2825
-0.5441 END OF -0.1390
-1.6232 END RIGHT -0.2473
-1.6232 END SO -0.2977
-1.6232 END WHERE -0.2648
-0.7782 ENDS </s> -0.3010
-0.7782 ENDS DEAD -0.2632
-0.7782 ENDS HERE -0.1938
-0.3010 ENOUGH </s> -0.3010
-0.6990 ENTER THAT -0.2913
-0.6990 ENTER THE -0.2997
-1.0000 ENTER THROUGH -0.1717
-0.3010 ENTERED THE -0.2956
-0.3010 ENTERING IN -0.2874
-0.3010 ENTIRE HALLWAY -0.2030
-0.9031 ER </s> -0.3010
-0.9031 ER FOR -0.2852
-0.9031 ER THAT -0.2962
-0.9031 ER YOUR -0.2374
-0.3010 EVERY SINGLE -0.1761
-0.3010 EXIST </s> -0.3010
-0.8653 EXIT </s> -0.3010
-1.3424 EXIT AND -0.2996
-1.3424 EXIT EXIT -0.2139
-1.3424 EXIT ON -0.1689
-0.7404 EXIT THAT -0.2624
-1.3424 EXIT THERE'S -0.2812
-0.3010 EYE OUT -0.2906
-0.7782 EYES </s> -0.3010
-0.4771 EYES PEELED 0.0000
-0.7782 F IN -0.2075
-0.7782 F ON -0.1689
-0.7782 F TO -0.1832
-1.2041 FACING FORWARD -0.2632
-1.2041 FACING THAT -0.2994
-0.5051 FACING THE -0.2808
-1.2041 FACING THERE'S -0.1804
-0.3010 FACT IT'S -0.2976
-0.3010 FALSE ONES -0.2499
-1.1461 FAR CORNER -0.2191
-1.1461 FAR END -0.2906
-1.1461 FAR SIDE -0.2894
-0.6690 FAR WALL -0.2139
-1.1461 FAR WE -0.2314
-0.3010 FARTHEST TO -0.1832
-0.3010 FASTER </s> -0.3010
-0.7782 FEET AWAY 0.0000
-0.7782 FEET INTO -0.1076
-0.7782 FEET TO -0.2838
-0.3010 FER THE -0.2956
-0.3010 FI WHERE'S -0.1761
-0.3010 FIFTH BOX -0.2399
-0.5563 FILING CABINET -0.0378
-0.6532 FILING CABINETS 0.0000
-0.9031 FILL </s> -0.3010
-0.9031 FILL EACH -0.2218
-0.9031 FILL EIGHT -0.2840
-0.9031 FILL THOSE -0.2730
-0.3010 FILLING PINK -0.2583
-0.6990 FIND </s> -0.3010
-0.6990 FIND THE -0.2933
-1.0000 FIND YELLOW -0.2175
-0.3010 FINDIN' THE -0.2980
-0.3010 FINDING THE -0.2956
-0.9031 FINE </s> -0.3010
-0.9031 FINE OKAY -0.2993
-0.9031 FINE THAT'S -0.2688
-0.9031 FINE YOU -0.2972
-0.3010 FINISH OUR -0.2430
-0.3010 FIRE EXIT -0.1891
-1.6232 FIRST BO -0.1761
-1.6232 FIRST BOX -0.2399
-1.6232 FIRST CORNER -0.2942
-1.6232 FIRST DOOR -0.2300
-1.6232 FIRST DOORWAY -0.2900
-1.6232 FIRST GREEN -0.1265
-1.6232 FIRST I -0.2940
-1.3222 FIRST ONE -0.2893
-0.6690 FIRST ROOM -0.1687
-1.6232 FIRST SMALL 0.0000
-1.6232 FIRST WALK -0.2596
-1.6232 FIRST WHEN -0.1139
-0.7347 FIVE </s> -0.3010
-1.5798 FIVE DEGREE 0.0000
-1.5798 FIVE DEGREES 0.0000
-1.5798 FIVE I'VE -0.0969
-1.2788 FIVE IS -0.2622
-1.5798 FIVE S -0.1761
-1.5798 FIVE SEVEN -0.2808
-1.5798 FIVE SH -0.1761
-1.5798 FIVE SIX -0.2825
-1.2788 FIVE WAS -0.2613
-1.5798 FIVE YEAH -0.2730
-0.3979 FLOOR </s> -0.3010
-1.0000 FLOOR AND -0.2921
-0.3010 FOLLOW THE -0.2909
-0.3010 FOOT FROM -0.1206
-0.3010 FOOTS WORTH 0.0000
-1.4472 FOR ANY -0.2553
-1.4472 FOR BLUE -0.2656
-1.4472 FOR COLLECTING -0.1761
-1.4472 FOR FOR -0.2518
-1.4472 FOR G 0.0000
-1.4472 FOR GREEN -0.2747
-1.1461 FOR IT -0.1862
-1.4472 FOR NOW -0.2944
-1.4472 FOR THAT -0.2762
-0.9700 FOR THE -0.2946
-1.4472 FOR YOU -0.2998
-0.3010 FORTY FIVE -0.2775
-0.4771 FORWARD </s> -0.3010
-1.0792 FORWARD AND -0.2643
-1.0792 FORWARD GREEN -0.1265
-1.5051 FOUND A -0.2760
-0.8062 FOUND ANOTHER -0.1761
-1.5051 FOUND IT -0.2980
-1.2041 FOUND NUMBER -0.2585
-1.5051 FOUND THAT -0.2978
-0.7270 FOUND THE -0.2734
-0.8451 FOUR </s> -0.3010
-1.6232 FOUR AND -0.2996
-1.6232 FOUR FEET -0.2218
-1.3222 FOUR FIVE -0.1984
-1.1461 FOUR GREEN -0.1217
-1.6232 FOUR I -0.2954
-1.6232 FOUR IS -0.2775
-1.6232 FOUR RIGHT -0.2877
-1.6232 FOUR SIX -0.2825
-1.1461 FOUR WAS -0.2613
-1.6232 FOUR YOU -0.2896
-0.3010 FOUR'S A -0.3000
-0.6021 FOURTH BOOK -0.1761
-0.6021 FOURTH BOX -0.2888
-0.6021 FRAME IN -0.2075
-0.6021 FRAME IT'S -0.2802
-1.3979 FROM </s> -0.3010
-1.6990 FROM ALL -0.2596
-1.6990 FROM EACH -0.2430
-1.6990 FROM PAST -0.2156
-1.6990 FROM THAT -0.2978
-0.4685 FROM THE -0.2350
-1.6990 FROM WHERE -0.2648
-1.6990 FROM YOU -0.2934
-0.3010 FRONT OF -0.2715
-0.6021 FURTHER AWAY 0.0000
-0.6021 FURTHER INSTRUCTIONS -0.2218
-0.6021 FURTHEST AWAY 0.0000
-0.6021 FURTHEST TO -0.1832
-0.3010 G WAIT -0.2430
-0.3010 GEEN BOX -0.2854
-1.6021 GET A -0.2978
-1.6021 GET BOTH -0.1249
-1.6021 GET IT -0.2980
-0.8239 GET THAT -0.2553
-0.7570 GET THE -0.2798
-1.6021 GET THERE -0.2378
-1.6021 GET THOSE -0.2730
-1.6021 GET TO -0.2979
-1.6021 GET YOU -0.2972
-0.3010 GETTIN THE -0.3007
-0.7782 GETTING INTO -0.1076
-0.4771 GETTING MORE -0.2041
-0.3010 GIVE ME -0.2888
-1.8388 GO </s> -0.3010
-1.6628 GO AHEAD -0.2583
-2.1399 GO ALL -0.1047
-2.1399 GO ALRIGHT -0.2980
-0.7975 GO BACK -0.0848
-2.1399 GO DOWN -0.1549
-2.1399 GO GRAB -0.2218
-2.1399 GO HEAD -0.0580
-2.1399 GO IN -0.2605
-1.4409 GO INTO -0.0859
-2.1399 GO OUT -0.1549
-1.2948 GO PAST -0.0300
-1.2368 GO STRAIGHT -0.0911
-1.8388 GO THERE -0.2326
-1.3617 GO THROUGH -0.1047
-1.5378 GO TO -0.1812
-1.8388 GO UP -0.2361
-2.1399 GO YOU -0.2998
-0.3010 GOAL HAS -0.2218
-0.7782 GOIN </s> -0.3010
-0.7782 GOIN ON -0.2963
-0.7782 GOIN STRAIGHT -0.2218
-0.3010 GOIN' IN -0.2874
-1.3424 GOING ALL -0.1047
-1.3424 GOING BACK -0.2792
-1.0414 GOING DOWN -0.1091
-1.0414 GOING FORWARD -0.0669
-1.3424 GOING STRAIGHT -0.2937
-1.0414 GOING THROUGH -0.2449
-1.3424 GOING TO -0.2933
-1.3424 GOING YOU'LL 0.0000
-1.1856 GONNA BE -0.1725
-1.6628 GONNA CHECK 0.0000
-1.3617 GONNA DO -0.2844
-1.6628 GONNA DOUBLE 0.0000
-1.6628 GONNA FIND -0.2041
-1.6628 GONNA GET -0.2175
-1.1856 GONNA GO -0.1986
-1.6628 GONNA HAVE -0.2742
-1.6628 GONNA I'M -0.2977
-1.6628 GONNA LEAVE -0.2430
-1.6628 GONNA START -0.2218
-1.6628 GONNA TAKE -0.2775
-1.3617 GONNA TURN -0.2632
-1.3617 GONNA WANNA -0.2304
-1.6628 GONNA WE'RE -0.2041
-1.6628 GONNA YOU'RE -0.1984
-0.3979 GOOD </s> -0.3010
-1.0000 GOOD GOOD -0.0792
-1.7076 GOT </s> -0.3010
-1.4065 GOT A -0.2714
-1.4065 GOT ABOUT -0.1648
-1.7076 GOT ALL -0.0889
-1.4065 GOT ANOTHER -0.1761
-2.0086 GOT EIGHT -0.2663
-1.7076 GOT FIVE -0.2775
-1.0544 GOT IT -0.1822
-2.0086 GOT ONE -0.2991
-2.0086 GOT SOME -0.2430
-2.0086 GOT TH -0.2730
-1.2304 GOT THAT -0.2535
-1.1635 GOT THE -0.2850
-1.5315 GOT THREE -0.2352
-2.0086 GOT TO -0.1832
-2.0086 GOT TWO -0.2953
-2.0086 GOT UH -0.2983
-2.0086 GOT UM -0.2931
-0.5229 GOTCHA </s> -0.3010
-1.0000 GOTCHA OKAY -0.2813
-1.0000 GOTCHA SO -0.2977
-1.0792 GOTTA BLOCK -0.2788
-1.0792 GOTTA DOUBLE 0.0000
-1.0792 GOTTA LOOK -0.2688
-1.0792 GOTTA PUT -0.2872
-1.0792 GOTTA TAKE -0.1684
-1.0792 GOTTA YOU -0.2985
-0.3010 GR EH -0.1761
-1.0792 GRAB IT -0.1901
-0.7782 GRAB THAT -0.2693
-0.6021 GRAB THE -0.2905
-0.3010 GREAT </s> -0.3010
-1.5315 GREEN </s> -0.3010
-0.4803 GREEN BOX -0.1249
-1.2304 GREEN BOXES -0.1519
-2.1335 GREEN IS -0.2806
-1.2304 GREEN ONE -0.2046
-2.1335 GREEN ONES -0.2499
-2.1335 GREEN WAS -0.2613
-0.6990 GUESS </s> -0.3010
-1.3010 GUESS COME -0.1761
-1.3010 GUESS KEEP -0.2499
-1.3010 GUESS THAT'S -0.2852
-1.3010 GUESS TURN -0.2632
-1.3010 GUESS UH -0.2813
-1.3010 GUESS WE'LL -0.1761
-0.3010 HALF MINUTES -0.1996
-0.4771 HALL </s> -0.3010
-0.7782 HALL TO -0.1832
-0.6944 HALLWAY </s> -0.3010
-1.4960 HALLWAY AND -0.2611
-1.9731 HALLWAY AROUND -0.2041
-1.9731 HALLWAY AS -0.2825
-1.9731 HALLWAY BACK -0.2792
-1.9731 HALLWAY CUZ 0.0000
-1.9731 HALLWAY ER -0.2430
-1.9731 HALLWAY GO -0.2915
-1.9731 HALLWAY I -0.2617
-1.9731 HALLWAY IN -0.2075
-1.9731 HALLWAY JUST -0.2937
-1.9731 HALLWAY ON -0.1689
-1.9731 HALLWAY THAT -0.2994
-1.6721 HALLWAY THERE -0.2326
-1.9731 HALLWAY TURN -0.2888
-1.4960 HALLWAY TURNS -0.1461
-1.9731 HALLWAY UM -0.2971
-1.9731 HALLWAY UNTIL -0.0969
-1.4960 HALLWAY WHERE -0.1761
-1.9731 HALLWAY WITH -0.1761
-1.6721 HALLWAY YOU -0.2922
-1.2041 HAND ER -0.2430
-0.3590 HAND SIDE -0.1984
-0.7782 HANG A -0.2968
-0.4771 HANG ON -0.2754
-0.7782 HAS A -0.2968
-0.7782 HAS ALOT 0.0000
-0.7782 HAS CHANGED 0.0000
-1.3979 HAVE </s> -0.3010
-1.0000 HAVE A -0.2235
-1.6990 HAVE ABOUT -0.2285
-1.6990 HAVE ANOTHER -0.2319
-1.6990 HAVE EIGHT -0.2663
-1.6990 HAVE LEFT -0.1927
-1.6990 HAVE ONE -0.2933
-1.6990 HAVE RIGHT -0.2473
-1.3979 HAVE THE -0.2867
-1.6990 HAVE THIS -0.2863
-1.6990 HAVE THR 0.0000
-1.2218 HAVE THREE -0.2430
-1.2218 HAVE TO -0.2885
-1.6990 HAVE TWO -0.2953
-1.6990 HAVE YOU -0.2985
-0.7782 HAVEN'T BEEN -0.1761
-0.4771 HAVEN'T FOUND -0.2109
-0.3680 HEAD BACK -0.2009
-1.1461 HEAD TOWARD -0.1761
-0.3010 HEADING BACK -0.2968
-0.6990 HEAR ME -0.2632
-0.5229 HEAR YOU -0.2922
-0.3010 HELLO </s> -0.3010
-0.6601 HERE </s> -0.3010
-1.5051 HERE AND -0.2996
-1.2041 HERE AT -0.1174
-1.5051 HERE IN -0.2075
-1.5051 HERE ON -0.2766
-1.5051 HERE ONCE -0.2218
-1.5051 HERE STARTING 0.0000
-1.5051 HERE THE -0.3007
-1.5051 HERE THERE'S -0.2812
-0.3010 HERE'S OUR -0.2430
-0.3010 HEY ARE -0.1614
-0.6021 HHH </s> -0.3010
-0.6021 HHH SIDE -0.2264
-0.7782 HIDDEN BEHIND -0.2632
-0.7782 HIDDEN BLUE -0.1183
-0.7782 HIDDEN ONES -0.2762
-0.3010 HM </s> -0.3010
-0.3010 HMM NO -0.2460
-0.3010 HOLD ON -0.2587
-0.4771 HOW MANY 0.0000
-1.0792 HOW MUCH 0.0000
-1.0792 HOW UH -0.2983
-0.3010 HUGE STACK -0.0378
-0.7782 HUH </s> -0.3010
-0.7782 HUH ALRIGHT -0.2888
-0.7782 HUH THAT'S -0.2932
-0.6021 HURRY RYAN -0.1761
-0.6021 HURRY UP -0.2218
-0.6021 HUSTLING I -0.2926
-0.6021 HUSTLING SON -0.1761
-2.4942 I </s> -0.3010
-2.4942 I ACTUALLY -0.2688
-1.7160 I AM 0.0000
-2.4942 I BELIEVE 0.0000
-2.1931 I CAME -0.2499
-2.1931 I CAN -0.2218
-2.1931 I CAN'T 0.0000
-2.1931 I COME -0.1383
-2.4942 I DID -0.2553
-2.1931 I DO -0.2900
-1.7952 I DON'T -0.1413
-1.5911 I FOUND -0.0512
-1.7952 I GO -0.1655
-1.3802 I GOT -0.1498
-2.4942 I GOTCHA -0.2553
-2.1931 I GOTTA -0.2218
-2.4942 I GRAB -0.1761
-1.4942 I GUESS 0.0000
-2.4942 I HAVE -0.2923
-1.8921 I I -0.2796
-2.4942 I I'M -0.2977
-2.4942 I IMMEDIATELY -0.1761
-2.4942 I ITS 0.0000
-1.8921 I JUST -0.2711
-1.8921 I KNOW -0.1648
-2.4942 I LEAVE -0.0969
-2.4942 I MEAN 0.0000
-2.1931 I NEED -0.2688
-2.4942 I ONLY -0.2688
-2.4942 I PICK -0.2218
-2.1931 I PUT -0.2109
-2.4942 I SE 0.0000
-1.0628 I SEE -0.0607
-2.4942 I SEND 0.0000
-2.4942 I SHOULD -0.2762
-2.4942 I SNAGGED 0.0000
-2.4942 I STI 0.0000
-2.0170 I STILL -0.1963
-2.4942 I TAKE -0.2894
-1.7952 I THINK -0.1091
-2.4942 I TO -0.2948
-2.4942 I TOOK 0.0000
-2.0170 I TURN -0.1919
-2.1931 I TURNED 0.0000
-1.8921 I WALK -0.1891
-1.7952 I WALKED -0.0414
-1.7952 I WAS -0.2304
-1.8921 I WENT -0.1249
-2.4942 I WERE -0.2341
-1.0792 I'LL I'LL -0.2632
-1.0792 I'LL KEEP -0.2762
-1.0792 I'LL LEAD 0.0000
-1.0792 I'LL LOOK -0.2341
-0.7782 I'LL PUT -0.2583
-2.1139 I'M ABOUT -0.2663
-2.1139 I'M ALSO -0.2788
-1.6368 I'M AT -0.1174
-2.1139 I'M BACK -0.2924
-2.1139 I'M COMIN' 0.0000
-1.4150 I'M FACING -0.0512
-2.1139 I'M GETTIN 0.0000
-1.8129 I'M GETTING 0.0000
-2.1139 I'M GOIN -0.2218
-2.1139 I'M GOIN' 0.0000
-1.4150 I'M GOING -0.1347
-1.2109 I'M GONNA -0.1698
-2.1139 I'M I'M -0.2909
-1.3358 I'M IN -0.1471
-2.1139 I'M INTO -0.1076
-2.1139 I'M JUST -0.2937
-2.1139 I'M NOT -0.2863
-2.1139 I'M ON -0.1689
-1.8129 I'M OUTTA -0.2041
-2.1139 I'M PRETTY 0.0000
-2.1139 I'M PUTTING 0.0000
-2.1139 I'M RECEIVING 0.0000
-2.1139 I'M RIGHT -0.2992
-2.1139 I'M SEEING -0.2218
-2.1139 I'M SHOULD -0.2762
-2.1139 I'M SHOWIN 0.0000
-2.1139 I'M SORRY 0.0000
-2.1139 I'M STANDING -0.2430
-1.5119 I'M TAKING 0.0000
-2.1139 I'M THERE'S -0.1804
-2.1139 I'M THROUGH -0.1717
-2.1139 I'M TRYIN 0.0000
-1.8129 I'M TURNING 0.0000
-1.5119 I'M WALKING -0.0669
-1.3802 I'VE DONE -0.1761
-0.4260 I'VE GOT -0.2009
-1.3802 I'VE SEEN 0.0000
-1.3802 I'VE WALKED -0.1761
-1.3222 IF I -0.2940
-1.6232 IF I'M -0.2805
-1.3222 IF IF -0.1691
-1.6232 IF SO -0.2977
-1.6232 IF THERE'S -0.2989
-0.6232 IF YOU -0.2547
-1.0212 IF YOU'RE -0.2527
-0.3010 IGNORE </s> -0.3010
-1.0792 IMMEDIATELY I -0.2982
-0.7782 IMMEDIATELY ON -0.1492
-0.6021 IMMEDIATELY TO -0.1604
-1.5085 IN </s> -0.3010
-1.7126 IN A -0.2397
-2.4116 IN ALL -0.1047
-2.4116 IN ANOTHER -0.2881
-1.9345 IN EACH -0.2218
-2.4116 IN FACT 0.0000
-1.6335 IN FRONT 0.0000
-1.9345 IN HERE -0.1576
-2.4116 IN I -0.2940
-2.1106 IN IN -0.2075
-2.4116 IN IT -0.1901
-2.4116 IN NOW -0.2739
-2.4116 IN RELATION 0.0000
-1.0499 IN THAT -0.2160
-0.7126 IN THE -0.2208
-2.4116 IN THEN -0.2913
-1.3702 IN THERE -0.2024
-2.4116 IN THERE'S -0.2812
-1.8096 IN THIS -0.2218
-2.4116 IN THROUGH -0.2523
-2.4116 IN TO -0.2995
-2.1106 IN UH -0.2637
-2.4116 IN UM -0.2931
-0.3010 INCHES AWAY 0.0000
-0.3010 INCLUDES THE -0.2990
-0.3010 INDICATED </s> -0.3010
-0.3010 INS INSIDE -0.2218
-0.7782 INSIDE CURVE 0.0000
-1.0792 INSIDE INSIDE -0.2218
-1.0792 INSIDE OF -0.1861
-1.0792 INSIDE T -0.2430
-1.0792 INSIDE THERE -0.2378
-0.3010 INSTEAD OF -0.2991
-0.7782 INSTRUCTIONS </s> -0.3010
-0.7782 INSTRUCTIONS HERE -0.1938
-0.7782 INSTRUCTIONS RYAN -0.1761
-0.3010 INT NOT -0.2711
-1.2041 INTO A -0.2925
-1.5051 INTO ANOTHER -0.2814
-1.8062 INTO BUT -0.2888
-1.5051 INTO THAT -0.2606
-0.4445 INTO THE -0.2362
-1.3367 IS </s> -0.3010
-1.4829 IS A -0.2068
-2.1818 IS ABOUT -0.2285
-2.1818 IS AND -0.2643
-2.1818 IS ANOTHER -0.2881
-2.1818 IS BASICALLY -0.2688
-2.1818 IS DOES -0.1761
-2.1818 IS EVERY 0.0000
-2.1818 IS GO -0.2784
-2.1818 IS GONNA -0.2717
-1.8808 IS IF -0.2576
-2.1818 IS IN -0.2075
-2.1818 IS IS -0.2982
-1.1027 IS IT -0.1355
-2.1818 IS IT'S -0.2907
-2.1818 IS NOT -0.2863
-1.8808 IS NUMBER -0.2462
-2.1818 IS OKAY -0.2957
-1.1818 IS ON -0.0993
-2.1818 IS ONE -0.2773
-2.1818 IS SITTING 0.0000
-1.7047 IS THAT -0.2945
-1.4829 IS THE -0.2933
-1.2788 IS THERE -0.1967
-2.1818 IS THERE'S -0.2812
-2.1818 IS TO -0.1832
-2.1818 IS UP -0.2218
-1.7047 IS WHERE -0.2833
-2.1818 IS YOU'RE -0.1984
-0.6471 IT </s> -0.3010
-2.1523 IT A -0.2989
-1.5502 IT AND -0.2643
-2.1523 IT AS -0.2825
-2.1523 IT BASICALLY -0.2688
-2.1523 IT DOES -0.2430
-2.1523 IT HOLD 0.0000
-2.1523 IT I'M -0.2734
-1.5502 IT IN -0.2299
-1.8513 IT IS -0.2653
-2.1523 IT NUMBER -0.2666
-1.5502 IT ON -0.1689
-1.6752 IT SHOULD -0.1027
-1.6752 IT SO -0.2840
-1.8513 IT THERE -0.2352
-2.1523 IT THERE'S -0.1804
-1.8513 IT TURNS -0.2041
-2.1523 IT UH -0.2813
-2.1523 IT UM -0.2971
-1.8513 IT WAS -0.2430
-2.1523 IT WONDERFUL 0.0000
-1.8513 IT WOULD -0.0969
-2.1072 IT'S </s> -0.3010
-1.3291 IT'S A -0.2815
-2.1072 IT'S ABOUT -0.2663
-2.1072 IT'S ACTUALLY -0.2688
-2.1072 IT'S AGAINST 0.0000
-1.8062 IT'S AN -0.2499
-2.1072 IT'S AWAY 0.0000
-2.1072 IT'S BASICALLY -0.2688
-2.1072 IT'S CLOSED 0.0000
-2.1072 IT'S DIRECTLY -0.2632
-2.1072 IT'S GOT -0.2924
-2.1072 IT'S I -0.2996
-1.8062 IT'S IN -0.2033
-2.1072 IT'S IT -0.2980
-1.8062 IT'S IT'S -0.2312
-1.6301 IT'S LIKE -0.2264
-2.1072 IT'S LOCATED -0.1761
-2.1072 IT'S NOT -0.2711
-1.6301 IT'S NUMBER -0.2114
-2.1072 IT'S OH -0.2881
-0.9933 IT'S ON -0.1249
-2.1072 IT'S PAST -0.2341
-2.1072 IT'S PINK -0.2802
-1.3291 IT'S RIGHT -0.2720
-1.3291 IT'S THE -0.2895
-2.1072 IT'S TO -0.1832
-2.1072 IT'S TUH 0.0000
-2.1072 IT'S UH -0.2899
-2.1072 IT'S UM -0.2849
-2.1072 IT'S UP -0.2632
-0.3010 ITS TO -0.1832
-0.3010 JUS SO -0.2770
-1.3010 JUST A -0.2714
-1.7782 JUST ABOUT -0.2663
-1.7782 JUST ANYWHERE -0.1761
-1.7782 JUST DO -0.2956
-1.7782 JUST ENTERED 0.0000
-1.7782 JUST FOUND -0.2872
-1.7782 JUST GOT -0.2968
-1.7782 JUST GRAB -0.1761
-1.4771 JUST IN -0.2874
-1.7782 JUST LOOKING -0.2218
-1.7782 JUST MAKE -0.1761
-1.7782 JUST ONE -0.2991
-1.4771 JUST PAST -0.2341
-1.7782 JUST PICK -0.1761
-1.7782 JUST POINT -0.2218
-1.7782 JUST POINTED 0.0000
-1.7782 JUST SUPPOSED 0.0000
-1.1761 JUST THE -0.2888
-1.4771 JUST TO -0.1604
-1.7782 JUST TOLD -0.2430
-1.7782 JUST WALKED -0.2788
-1.7782 JUST WELL -0.2863
-1.3802 KAY </s> -0.3010
-1.0792 KAY DO -0.1461
-1.3802 KAY JUST -0.2937
-1.3802 KAY KEEP -0.2499
-1.3802 KAY NOW -0.2596
-1.0792 KAY ONCE -0.1249
-1.3802 KAY PINK -0.1669
-1.3802 KAY THAT -0.2994
-1.3802 KAY THERE'S -0.2812
-1.3802 KAY UM -0.2849
-1.2553 KEEP AN -0.2762
-0.9542 KEEP GOING -0.2596
-1.2553 KEEP LOOKING -0.2218
-1.2553 KEEP ON -0.2998
-1.2553 KEEP TAKE -0.2527
-0.7782 KEEP YOUR -0.2704
-0.3010 KINDA CREEPY 0.0000
-0.3010 KINDS UH -0.2983
-0.9379 KNOW </s> -0.3010
-1.4150 KNOW HOW -0.1249
-1.4150 KNOW I -0.2954
-1.4150 KNOW I'M -0.2977
-1.1139 KNOW THAT -0.2499
-1.4150 KNOW THE -0.2929
-1.1139 KNOW WHEN -0.1139
-1.1139 KNOW WHERE -0.2148
-0.3010 L LIKE -0.2775
-0.7270 LADDER </s> -0.3010
-0.9031 LADDER AND -0.2627
-0.9031 LADDER ON -0.1492
-1.2041 LADDER YOU -0.2934
-0.6021 LADDERS </s> -0.3010
-0.6021 LADDERS HERE -0.1938
-0.3010 LATER </s> -0.3010
-0.3010 LEAD YOU -0.2985
-0.6021 LEADING FROM -0.1206
-0.6021 LEADING TO -0.1832
-0.3010 LEADS TO -0.1832
-0.4260 LEAVE IT -0.1822
-0.9031 LEAVE THAT -0.2994
-0.3010 LEF DOOR -0.2976
-0.6560 LEFT </s> -0.3010
-2.1875 LEFT ABOUT -0.2840
-1.5855 LEFT AND -0.2769
-1.8865 LEFT AT -0.0939
-2.1875 LEFT CORNER -0.2191
-2.1875 LEFT DO -0.1538
-2.1875 LEFT GO -0.2979
-1.7104 LEFT HAND -0.0512
-2.1875 LEFT I -0.2617
-2.1875 LEFT IN -0.2075
-2.1875 LEFT IT -0.2918
-1.7104 LEFT OF -0.1861
-2.1875 LEFT OKAY -0.2975
-1.7104 LEFT ON -0.1689
-1.8865 LEFT ONE -0.2414
-1.5855 LEFT OR -0.2536
-2.1875 LEFT RIGHT -0.2780
-1.8865 LEFT SIDE -0.2126
-1.8865 LEFT SO -0.2909
-2.1875 LEFT TAKE -0.2775
-2.1875 LEFT THE -0.3007
-2.1875 LEFT THERE -0.2326
-1.8865 LEFT THERE'S -0.1804
-2.1875 LEFT THROUGH -0.1717
-2.1875 LEFT TOO 0.0000
-2.1875 LEFT WALL -0.2910
-2.1875 LEFT YOU'LL 0.0000
-0.6021 LEFTHAND ROOM -0.2988
-0.6021 LEFTHAND SIDE -0.2894
-0.3010 LET ME -0.2499
-0.9031 LET'S DO -0.2956
-0.9031 LET'S JUST -0.2937
-0.6021 LET'S SEE -0.2788
-1.5798 LIKE </s> -0.3010
-0.9777 LIKE A -0.2936
-1.5798 LIKE BIG -0.1761
-1.5798 LIKE BOOKSHELF -0.2041
-1.5798 LIKE CLOSE -0.1761
-1.5798 LIKE FOUR -0.2341
-1.5798 LIKE I -0.2825
-1.5798 LIKE IF -0.1829
-1.5798 LIKE NOT -0.2711
-1.5798 LIKE ONE -0.2972
-1.5798 LIKE RIGHT -0.2954
-1.5798 LIKE STARTING 0.0000
-1.2788 LIKE THE -0.3000
-1.5798 LIKE THREE -0.2942
-1.5798 LIKE WHAT -0.2527
-0.3010 LINTEL OF -0.1861
-0.3010 LISTEN </s> -0.3010
-0.3010 LISTENING </s> -0.3010
-1.5798 LITTLE BIT -0.1761
-1.5798 LITTLE CHIP -0.2218
-1.5798 LITTLE DOOR -0.2976
-1.2788 LITTLE GREEN -0.1265
-1.5798 LITTLE HALLWAY -0.2869
-1.5798 LITTLE IN -0.2605
-1.2788 LITTLE OFFICE -0.1761
-0.7347 LITTLE ROOM -0.2620
-1.1027 LITTLE TESTING 0.0000
-0.6021 LOCATED AT -0.2858
-0.6021 LOCATED RIGHT -0.2780
-1.1461 LOOK AROUND -0.2788
-1.1461 LOOK BACK -0.2968
-1.1461 LOOK BEHIND -0.0669
-0.8451 LOOK FOR -0.2341
-0.8451 LOOK FROM -0.1072
-1.0792 LOOKING AT -0.1174
-1.0792 LOOKING BACK -0.2924
-0.7782 LOOKING FOR -0.2341
-0.7782 LOOKING TO -0.1812
-0.3010 LOOKS LIKE -0.2527
-0.3010 LOT FASTER 0.0000
-0.3010 M THINK -0.2341
-0.6021 MAKE A -0.2903
-0.6021 MAKE ANOTHER -0.2946
-0.9031 MANY FEET -0.2218
-0.9031 MANY PINK -0.2583
-0.6021 MANY YELLOW -0.2041
-0.7782 MAP </s> -0.3010
-1.0792 MAP ER -0.2430
-1.0792 MAP GRAB -0.2632
-1.0792 MAP HAS -0.2218
-1.0792 MAP IF -0.2576
-0.3010 MARK EM -0.2218
-0.3010 MARKED ON -0.1689
-0.3010 MAY HAVE -0.2553
-0.7782 MAYBE MY -0.2932
-0.7782 MAYBE SIX -0.2825
-0.7782 MAYBE THREE -0.2942
-0.3010 MBOOKSHELVES OVER -0.1761
-1.0792 ME </s> -0.3010
-1.5563 ME ALRIGHT -0.2980
-1.5563 ME GOING -0.2596
-1.5563 ME I'M -0.2840
-1.2553 ME KNOW -0.2663
-1.5563 ME SEE -0.2937
-1.5563 ME T -0.2430
-1.5563 ME THE -0.3007
-0.7112 ME TO -0.1561
-0.3010 MEAN </s> -0.3010
-0.3010 METAL SHELF -0.2852
-0.3010 MHM </s> -0.3010
-0.3010 MHMM </s> -0.3010
-0.3010 MIDDLE CHAIR -0.1434
-0.3010 MIGHT BE -0.2068
-0.3010 MINUTE LEFT -0.1927
-0.6812 MINUTES </s> -0.3010
-1.3802 MINUTES AND -0.2981
-0.9031 MINUTES LEFT -0.1854
-1.0792 MINUTES TO -0.2948
-1.3802 MINUTES TWO -0.2835
-0.3010 MIRROR AND -0.2921
-0.6021 MKAY </s> -0.3010
-0.6021 MKAY WHERE'S -0.2730
-0.7782 MM ALRIGHT -0.2730
-0.7782 MM CART -0.2894
-0.7782 MM THE -0.3007
-0.3010 MMM WELL -0.2863
-0.6990 MORE GREEN -0.2747
-0.6990 MORE INSTRUCTIONS -0.1249
-1.0000 MORE PINK -0.1669
-0.3010 MOVE IS -0.2775
-0.3010 MUCH TIME -0.2430
-1.7482 MY FOOTS 0.0000
-1.7482 MY FORTY 0.0000
-1.7482 MY L 0.0000
-0.6342 MY LEFT -0.1429
-1.7482 MY MAP -0.2632
-0.7068 MY RIGHT -0.2188
-0.3010 N LEFT -0.2838
-0.3010 NE AT -0.1174
-0.3010 NEAR THE -0.2871
-1.4472 NEED A -0.3000
-1.4472 NEED ALL -0.2596
-1.4472 NEED BLUE -0.2656
-1.4472 NEED GREEN -0.2747
-1.4472 NEED THE -0.2943
-0.5441 NEED TO -0.2821
-1.4472 NEED YOU -0.2972
-0.3010 NEEDS ONE -0.2952
-1.8195 NEXT </s> -0.3010
-1.8195 NEXT GREEN -0.1265
-1.8195 NEXT PINK -0.1669
-1.0414 NEXT ROOM -0.1891
-1.8195 NEXT SMALL 0.0000
-0.4578 NEXT TO -0.1668
-0.9243 NO </s> -0.3010
-1.3222 NO BLUE -0.1183
-1.6232 NO CHAIRS -0.2840
-1.3222 NO GREEN -0.2609
-1.6232 NO IT'S -0.2976
-1.1461 NO NO -0.2460
-1.1461 NO THERE'S -0.1747
-1.6232 NO WE -0.2929
-1.6232 NO WE'VE -0.2430
-1.6232 NO YOU -0.2998
-1.6232 NO YOU'RE -0.2894
-1.4771 NOT A -0.2989
-1.4771 NOT EXIST 0.0000
-1.1761 NOT IN -0.1566
-1.4771 NOT INT 0.0000
-1.1761 NOT INTO -0.2730
-1.4771 NOT MARKED 0.0000
-1.4771 NOT ON -0.1689
-1.4771 NOT SEEING -0.1249
-1.1761 NOT SUPPOSED 0.0000
-1.4771 NOT THAT -0.2945
-1.1761 NOT THE -0.2881
-1.2175 NOW </s> -0.3010
-1.8195 NOW AND -0.2966
-1.8195 NOW BECAUSE 0.0000
-1.1206 NOW GO -0.1524
-1.8195 NOW HAVE -0.2742
-1.0414 NOW I'M -0.2553
-1.8195 NOW I'VE -0.0969
-1.8195 NOW IN -0.2993
-1.8195 NOW OR -0.2935
-1.8195 NOW PAST -0.2156
-1.8195 NOW SO -0.2977
-1.8195 NOW TH -0.2730
-1.8195 NOW THAT'S -0.2932
-1.8195 NOW TOO 0.0000
-1.5185 NOW TURN -0.1597
-1.8195 NOW WHAT -0.2894
-1.2175 NOW YOU -0.2791
-1.7709 NUMBER </s> -0.3010
-1.2268 NUMBER EIGHT -0.0902
-1.2937 NUMBER FIVE -0.1836
-2.0719 NUMBER FOR -0.2852
-1.1176 NUMBER FOUR -0.1402
-1.7709 NUMBER IS -0.2559
-1.7709 NUMBER ON -0.1689
-1.4698 NUMBER ONE -0.2414
-1.1688 NUMBER SEVEN -0.0378
-2.0719 NUMBER SEVEN'S 0.0000
-1.2268 NUMBER SIX -0.0969
-1.3729 NUMBER THREE -0.2583
-1.4698 NUMBER TWO -0.2591
-2.0719 NUMBER WAS -0.2956
-0.3010 NUMBERS ON -0.2998
-0.7782 O </s> -0.3010
-0.7782 O DID -0.0792
-0.7782 O THE -0.2980
-1.8808 OF A -0.2925
-2.3579 OF BLUE -0.2656
-1.6590 OF BOXES -0.1659
-1.4037 OF CHAIRS -0.1532
-2.3579 OF ELECTRODE 0.0000
-2.3579 OF GOING -0.2596
-2.3579 OF IN -0.2075
-1.7559 OF IT -0.1616
-2.0569 OF LADDERS 0.0000
-2.3579 OF M 0.0000
-1.7559 OF ME -0.1249
-2.3579 OF PINK -0.2976
-2.3579 OF STAIRS 0.0000
-2.3579 OF STEPS -0.2788
-1.3579 OF THAT -0.2061
-0.6337 OF THE -0.1946
-1.7559 OF THEM -0.0792
-2.0569 OF THERE -0.2378
-2.3579 OF THIS -0.2863
-2.0569 OF THOSE -0.2109
-1.5128 OF YOU -0.2857
-0.7782 OFF BY -0.2825
-0.7782 OFF OF -0.2816
-0.7782 OFF THE -0.2956
-0.7782 OFFICE </s> -0.3010
-1.0792 OFFICE AND -0.2981
-1.0792 OFFICE OFF -0.2218
-1.0792 OFFICE ON -0.1689
-1.0792 OFFICE W 0.0000
-0.7782 OFFICES ON -0.2866
-0.7782 OFFICES RIGHT -0.2473
-0.7782 OFFICES YEAH -0.2730
-1.2304 OH </s> -0.3010
-1.5315 OH AND -0.2643
-1.5315 OH GO -0.2784
-1.5315 OH I -0.2825
-1.5315 OH IT -0.2980
-1.0544 OH OKAY -0.2721
-1.5315 OH SO -0.2840
-1.5315 OH TH -0.2730
-1.5315 OH THERE'S -0.2812
-1.5315 OH TO -0.1832
-1.5315 OH VERY -0.1761
-1.5315 OH WELL -0.2863
-1.5315 OH WOW 0.0000
-1.5315 OH YEAH -0.2730
-0.6021 OK I -0.2825
-0.6021 OK WHAT'S 0.0000
-1.3531 OKAY </s> -0.3010
-1.9173 OKAY ALRIGHT -0.2396
-2.3945 OKAY ALRIGHTY 0.0000
-1.6955 OKAY AND -0.2447
-2.3945 OKAY AS -0.2430
-2.3945 OKAY AT -0.1174
-2.3945 OKAY BEFORE -0.2730
-2.3945 OKAY DID -0.0792
-2.3945 OKAY DON'T -0.2840
-2.3945 OKAY DOOR -0.2725
-2.3945 OKAY EXIT -0.2139
-2.3945 OKAY FIRST -0.2906
-1.4402 OKAY GO -0.1568
-2.0934 OKAY GOOD 0.0000
-2.0934 OKAY GOT -0.2609
-2.3945 OKAY GRAB -0.2218
-2.0934 OKAY HOLD 0.0000
-1.6955 OKAY I -0.2301
-2.3945 OKAY I'LL -0.2632
-1.6955 OKAY I'M -0.2245
-1.9173 OKAY IF -0.0928
-1.9173 OKAY IN -0.1566
-2.3945 OKAY IS -0.2653
-2.3945 OKAY JUST -0.2711
-2.3945 OKAY KEEP -0.2762
-2.3945 OKAY LEFT -0.2896
-2.3945 OKAY LET'S -0.2430
-2.3945 OKAY LIKE -0.2894
-2.3945 OKAY LOOKING -0.2632
-2.3945 OKAY NEAR 0.0000
-1.6955 OKAY NOW -0.2058
-2.3945 OKAY OKAY -0.2813
-1.5494 OKAY SO -0.2590
-2.3945 OKAY TAKE -0.1684
-2.3945 OKAY THAT'S -0.2932
-2.0934 OKAY THE -0.2970
-2.3945 OKAY THEN -0.2913
-1.7924 OKAY THERE -0.2052
-1.9173 OKAY THERE'S -0.1630
-2.3945 OKAY TIME -0.2430
-2.0934 OKAY UH -0.2697
-2.3945 OKAY UM -0.2931
-2.3945 OKAY VERY -0.1761
-1.6955 OKAY WE -0.1368
-2.3945 OKAY WE'VE -0.1761
-2.0934 OKAY WELL -0.2711
-2.3945 OKAY WH -0.1761
-1.9173 OKAY WHAT -0.2264
-1.6955 OKAY WHERE -0.2504
-1.9173 OKAY WHERE'S -0.1383
-1.7924 OKAY YEAH -0.2109
-2.3945 OKAY YOU -0.2934
-0.4771 OLD HALLWAY -0.1971
-0.7782 OLD ROOM -0.2139
-1.9614 ON </s> -0.3010
-1.2625 ON A -0.2600
-2.5635 ON BY -0.0669
-2.5635 ON FOUR'S 0.0000
-2.5635 ON GOIN -0.2218
-2.5635 ON HOLD 0.0000
-2.0864 ON I -0.2954
-1.8645 ON IT -0.1781
-2.2625 ON JUST -0.2788
-2.5635 ON LISTEN 0.0000
-1.3874 ON MY -0.0442
-2.2625 ON ONE -0.2952
-1.7853 ON THAT -0.2606
-0.5812 ON THE -0.1993
-2.5635 ON THERE -0.2378
-2.0864 ON THIS -0.2553
-2.5635 ON THOSE -0.2730
-1.8645 ON TOP 0.0000
-2.5635 ON UH -0.2955
-2.5635 ON WAIT -0.2430
-2.5635 ON WHICH -0.2218
-1.4843 ON YOUR -0.0726
-0.7782 ONCE I -0.2982
-0.4771 ONCE YOU -0.2934
-0.9227 ONE </s> -0.3010
-2.3541 ONE ALRIGHT -0.2950
-2.0531 ONE AND -0.2921
-2.3541 ONE ANYWHERE -0.1761
-2.3541 ONE AROUND -0.2041
-2.0531 ONE AT -0.1174
-2.3541 ONE BEFORE -0.2109
-2.3541 ONE BEHIND -0.0669
-2.3541 ONE BLUE -0.1183
-2.3541 ONE BOOKSHELF -0.2041
-2.3541 ONE BOOKSHELFS 0.0000
-1.8770 ONE BY -0.0669
-2.3541 ONE CLOSE -0.1761
-2.3541 ONE DOES -0.2430
-2.0531 ONE EACH -0.2632
-2.0531 ONE FOOT 0.0000
-1.8770 ONE GOT -0.2562
-2.3541 ONE HALLWAY -0.2869
-2.3541 ONE I -0.2968
-2.3541 ONE IMMEDIATELY -0.1761
-1.2749 ONE IN -0.1471
-2.0531 ONE IS -0.2953
-2.3541 ONE MINUTE 0.0000
-2.3541 ONE MORE -0.2553
-2.3541 ONE NUMBER -0.2745
-1.5760 ONE OF -0.1861
-2.3541 ONE OKAY -0.2813
-1.3541 ONE ON -0.1267
-2.3541 ONE PUT -0.2272
-1.8770 ONE SECOND -0.2698
-2.3541 ONE SHOULD -0.1027
-2.3541 ONE SO -0.2977
-2.3541 ONE THAT -0.2945
-2.3541 ONE THAT'S -0.2932
-2.3541 ONE THERE -0.2965
-2.0531 ONE TOO 0.0000
-1.7520 ONE TWO -0.2775
-2.3541 ONE UH -0.2983
-1.6551 ONE WAS -0.2730
-2.3541 ONE WE -0.2314
-1.8770 ONE YELLOW -0.2553
-0.3010 ONE'S </s> -0.3010
-1.2553 ONES </s> -0.3010
-1.2553 ONES AS -0.2825
-1.2553 ONES I -0.2869
-0.9542 ONES ON -0.1641
-1.2553 ONES OUT -0.2906
-1.2553 ONES RIGHT -0.2473
-0.9542 ONES UNTIL 0.0000
-0.8451 ONLY BLUE -0.1183
-1.1461 ONLY GOT -0.2881
-1.1461 ONLY HAVE -0.2553
-1.1461 ONLY NEED -0.2852
-1.1461 ONLY ONE -0.2991
-1.1461 ONLY TAKE -0.1684
-0.3010 OOR </s> -0.3010
-1.4150 OPEN BUT -0.2888
-0.6368 OPEN DOOR -0.2007
-1.4150 OPEN FOR -0.2852
-1.4150 OPEN IT -0.2886
-1.4150 OPEN ONE -0.2893
-1.4150 OPEN PULL 0.0000
-1.4150 OPEN THAT -0.2962
-1.4150 OPEN THE -0.2885
-0.3010 OPENS </s> -0.3010
-0.6021 OPPOSITE THE -0.2980
-0.6021 OPPOSITE WALL -0.2704
-1.7634 OR </s> -0.3010
-1.7634 OR A -0.2914
-1.7634 OR ANYTHING -0.1249
-1.7634 OR BOTH -0.2218
-1.7634 OR DESKS -0.2553
-1.7634 OR DO -0.1538
-1.4624 OR FOUR -0.2576
-1.7634 OR GO -0.2256
-1.7634 OR IT'S -0.2802
-1.7634 OR JUST -0.2711
-1.7634 OR LEAVE -0.0969
-1.7634 OR LEFT -0.2925
-1.4624 OR LIKE -0.2653
-1.4624 OR ON -0.1689
-1.2863 OR RIGHT -0.2344
-1.7634 OR SOMETHIN 0.0000
-1.7634 OR SOMETHING 0.0000
-1.7634 OR TH -0.2730
-1.2863 OR THE -0.2929
-1.7634 OR TWO -0.2835
-1.7634 OR WHERE -0.2201
-1.7634 OR YOU -0.2972
-1.2304 OTHER </s> -0.3010
-1.5315 OTHER BLUE -0.2877
-1.5315 OTHER BOX -0.2774
-1.5315 OTHER CORNER -0.2191
-1.5315 OTHER DOOR -0.2941
-1.5315 OTHER GREEN -0.2747
-1.5315 OTHER OFFICE -0.2218
-1.5315 OTHER ON -0.1689
-1.5315 OTHER ONES -0.2762
-1.5315 OTHER PIECES 0.0000
-1.2304 OTHER PINK -0.1669
-1.0544 OTHER ROOM -0.2139
-1.5315 OTHER WALL -0.2910
-0.9031 OUR SECOND -0.2950
-0.9031 OUR TAS 0.0000
-0.9031 OUR TASK -0.1761
-0.9031 OUR TIME -0.2430
-1.3222 OUT </s> -0.3010
-1.6232 OUT AND -0.2936
-1.6232 OUT FOR -0.2688
-1.6232 OUT INTO -0.1076
-0.5441 OUT OF -0.1418
-1.6232 OUT OKAY -0.2957
-1.1461 OUT THE -0.2794
-1.0000 OUTTA BLOCKS -0.2253
-1.0000 OUTTA I'M -0.2943
-0.6990 OUTTA THAT -0.2352
-1.0000 OUTTA THE -0.2943
-0.6021 OVER HERE -0.2872
-0.6021 OVER THERE -0.2378
-0.9031 PAIR </s> -0.3010
-0.4260 PAIR OF -0.2816
-0.3010 PART OF -0.1861
-0.3010 PASS THE -0.2980
-1.4472 PAST </s> -0.3010
-1.4472 PAST BOTH -0.1249
-1.4472 PAST IT -0.2886
-0.7482 PAST THAT -0.2913
-0.8451 PAST THE -0.2822
-1.4472 PAST TWO -0.2953
-1.4472 PAST YEAH -0.2932
-0.3010 PEELED FOR -0.2688
-1.0792 PICK EM -0.2218
-0.7782 PICK THAT -0.2978
-0.6021 PICK UP -0.2071
-0.3010 PICKED UP -0.2361
-0.3010 PIECES OUTTA -0.2553
-1.3291 PINK </s> -0.3010
-2.1072 PINK AND -0.2921
-0.5757 PINK BOX -0.1331
-1.0280 PINK BOXES -0.1519
-2.1072 PINK BUT -0.2762
-1.2621 PINK ONE -0.2370
-2.1072 PINK OR -0.2935
-2.1072 PINK RIGHT -0.2780
-2.1072 PINK YAH -0.1139
-0.6021 PLATFORM </s> -0.3010
-1.2041 PLATFORM AT -0.2935
-1.2041 PLATFORM ON -0.2829
-1.2041 PLATFORM OR -0.2858
-1.2041 PLATFORM TO -0.2964
-0.3010 PLATFORMS AT -0.2935
-0.3010 PLENTY OF -0.2991
-0.7782 POINT </s> -0.3010
-0.7782 POINT I -0.2982
-0.7782 POINT OUT -0.2688
-0.3010 POINTED OUT -0.2798
-0.3010 POST </s> -0.3010
-0.3010 PRETTY SURE -0.1761
-0.3010 PROFESSOR EBERHARD 0.0000
-0.3010 PULL THE -0.2885
-0.3010 PUSHED UP -0.2632
-1.5051 PUT A -0.2946
-1.5051 PUT ALL -0.1047
-1.5051 PUT HOLD 0.0000
-1.0280 PUT IT -0.2758
-0.8062 PUT ONE -0.2566
-1.5051 PUT THAT -0.2994
-1.2041 PUT THE -0.2987
-1.5051 PUT THEM -0.2553
-1.5051 PUT UH -0.2871
-0.3010 PUTTING ANOTHER -0.2946
-0.3010 QUESTIONS FOR -0.2852
-0.3010 QUICK THREE -0.2430
-0.6021 QUICKLY </s> -0.3010
-0.6021 QUICKLY OH -0.2747
-0.3010 REACH THE -0.2960
-0.4771 REALLY GOTTA -0.2218
-0.7782 REALLY HEAR -0.1461
-0.3010 RECEIVING FURTHER -0.1761
-0.3010 RELATION TO -0.2995
-0.3010 REMAINING TASK -0.2430
-0.9031 REMEMBER </s> -0.3010
-0.9031 REMEMBER MY -0.2932
-0.6021 REMEMBER THE -0.2895
-0.3010 REST OF -0.1861
-0.9341 RIGHT </s> -0.3010
-2.0645 RIGHT ACROSS -0.1461
-2.3655 RIGHT AFTER -0.2218
-2.3655 RIGHT AGAINST 0.0000
-1.6665 RIGHT AND -0.2311
-2.3655 RIGHT AROUND -0.2041
-2.3655 RIGHT AS -0.2632
-2.0645 RIGHT AT -0.2858
-1.7634 RIGHT BEFORE -0.0512
-2.3655 RIGHT BUT -0.2632
-2.3655 RIGHT DON'T -0.2840
-2.3655 RIGHT FOLLOW 0.0000
-2.0645 RIGHT FROM -0.1206
-1.6665 RIGHT HAND 0.0000
-2.3655 RIGHT HERE -0.1938
-1.8884 RIGHT IN -0.1948
-2.3655 RIGHT INSIDE -0.2632
-1.8884 RIGHT INTO -0.0631
-2.3655 RIGHT IS -0.2982
-2.3655 RIGHT IT'S -0.2976
-2.3655 RIGHT JUST -0.2711
-2.3655 RIGHT LIKE -0.2894
-2.3655 RIGHT NE 0.0000
-2.0645 RIGHT NEAR 0.0000
-1.2863 RIGHT NEXT -0.1150
-1.7634 RIGHT NOW -0.2139
-1.5873 RIGHT OF -0.1861
-1.5204 RIGHT ON -0.1592
-2.3655 RIGHT OR -0.2935
-2.3655 RIGHT RIGHT -0.2877
-1.7634 RIGHT SIDE -0.2264
-2.3655 RIGHT SO -0.2943
-1.7634 RIGHT THERE -0.1544
-1.8884 RIGHT THERE'S -0.1630
-2.3655 RIGHT UP -0.2632
-2.3655 RIGHT WENT -0.2632
-2.3655 RIGHT WHERE -0.2648
-2.3655 RIGHT YOU'RE -0.1984
-0.3010 RIGHTSIDE OF -0.2816
-0.7404 ROOM </s> -0.3010
-2.2967 ROOM AGAIN -0.2430
-2.2967 ROOM ALREADY -0.1761
-1.5977 ROOM AND -0.2769
-2.2967 ROOM ARE -0.1614
-2.2967 ROOM AWAY 0.0000
-1.9956 ROOM BUT -0.2762
-2.2967 ROOM BY -0.0669
-1.9956 ROOM DIRECTLY -0.1761
-2.2967 ROOM GO -0.2256
-1.8195 ROOM I -0.2382
-2.2967 ROOM IS -0.2924
-2.2967 ROOM IT'S -0.2976
-2.2967 ROOM JUST -0.2863
-2.2967 ROOM NEXT -0.1150
-2.2967 ROOM NO -0.2460
-1.9956 ROOM ON -0.1441
-2.2967 ROOM OR -0.2935
-2.2967 ROOM RIGHT -0.2916
-1.5977 ROOM THAT -0.2711
-2.2967 ROOM THAT'S -0.2932
-2.2967 ROOM THE -0.2980
-1.6946 ROOM THERE -0.1576
-2.2967 ROOM THERE'S -0.1804
-2.2967 ROOM THEY 0.0000
-2.2967 ROOM THOUGH -0.2218
-2.2967 ROOM TO -0.1832
-1.8195 ROOM UH -0.2547
-1.9956 ROOM UM -0.2890
-1.9956 ROOM WHERE -0.2041
-2.2967 ROOM WHICH -0.1761
-1.2967 ROOM WITH -0.1303
-1.9956 ROOM YOU -0.2972
-2.2967 ROOM YOU'RE -0.2894
-0.6021 RYAN FER 0.0000
-0.6021 RYAN YOU -0.2998
-0.6021 S DO -0.1538
-0.6021 S WAS -0.2613
-1.3010 SAID </s> -0.3010
-1.3010 SAID AS -0.2825
-1.3010 SAID I'M -0.2977
-1.0000 SAID IT -0.2949
-1.3010 SAID THAT -0.2994
-1.3010 SAID THAT'S -0.2430
-1.0000 SAID THERE -0.2849
-1.3010 SAID YOU -0.2972
-0.3010 SAME WAY -0.2762
-0.6021 SAY AGAIN -0.2430
-0.6021 SAY YOU -0.2972
-0.6021 SAYS ALARM 0.0000
-0.6021 SAYS NUMBER -0.2822
-0.3010 SE SHOULD -0.2762
-1.3802 SECOND </s> -0.3010
-1.5563 SECOND BOX -0.2843
-1.5563 SECOND CHAIR -0.1434
-1.8573 SECOND CLOSET -0.2041
-1.5563 SECOND FILING -0.1597
-1.8573 SECOND GREEN -0.1265
-1.8573 SECOND I -0.2954
-1.5563 SECOND I'M -0.2909
-1.5563 SECOND NOW -0.2668
-1.0792 SECOND ONE -0.2070
-1.0792 SECOND ROOM -0.1975
-1.5563 SECOND SMALL 0.0000
-1.8573 SECOND STAIR 0.0000
-1.8573 SECOND STAY 0.0000
-1.3802 SECOND STEP -0.1461
-1.8573 SECOND TASK -0.2430
-0.3010 SECONDS </s> -0.3010
-1.4771 SEE </s> -0.3010
-0.8751 SEE A -0.1852
-2.0792 SEE ANOTHER -0.2814
-1.7782 SEE ANY -0.2041
-1.7782 SEE ANYTHING 0.0000
-2.0792 SEE HMM 0.0000
-1.6021 SEE I -0.2285
-1.6021 SEE IT -0.1901
-1.7782 SEE LIKE -0.2775
-1.6021 SEE ONE -0.2671
-1.7782 SEE THAT -0.2880
-0.9331 SEE THE -0.2604
-1.7782 SEE THREE -0.2583
-1.7782 SEE TWO -0.2775
-1.7782 SEE WHAT -0.2775
-2.0792 SEE WHATEVER 0.0000
-0.4771 SEEING ONE -0.2753
-0.7782 SEEING UH -0.2871
-0.3010 SEEN PLENTY 0.0000
-0.3010 SEND YOU -0.2947
-0.3010 SET OF -0.2953
-0.6435 SEVEN </s> -0.3010
-1.3424 SEVEN AN -0.2762
-1.0414 SEVEN OKAY -0.2813
-1.3424 SEVEN ON -0.1689
-1.3424 SEVEN TO -0.2838
-1.3424 SEVEN WAS -0.2956
-0.3010 SEVEN'S ON -0.1689
-0.4771 SEVENTH </s> -0.3010
-0.7782 SEVENTH BOX -0.2888
-0.6021 SH </s> -0.3010
-0.9031 SH HOW -0.2632
-0.9031 SH OOR 0.0000
-0.3010 SHE SAID -0.2553
-0.6021 SHELF </s> -0.3010
-1.4472 SHELF AS -0.2632
-1.4472 SHELF IS -0.2865
-1.4472 SHELF NUMBER -0.2784
-1.4472 SHELF ON -0.1689
-1.4472 SHELF PUSHED 0.0000
-1.4472 SHELF THAT'S -0.2932
-1.4472 SHELF UM -0.2971
-0.6021 SHELVES OVER -0.1761
-0.6021 SHELVES WERE -0.2688
-0.3010 SHIT THERE'S -0.2812
-0.4357 SHOULD BE -0.0207
-1.2553 SHOULD I -0.2883
-1.9542 SHOULD I'VE -0.0969
-1.9542 SHOULD ON -0.2866
-1.2553 SHOULD SEE -0.1663
-0.3010 SHOULD'VE BEEN -0.1761
-0.3010 SHOWIN A -0.2669
-0.7347 SIDE </s> -0.3010
-1.5798 SIDE IN -0.2075
-1.5798 SIDE LEFT -0.2896
-1.5798 SIDE N 0.0000
-0.8016 SIDE OF -0.1606
-1.5798 SIDE ON -0.1689
-1.5798 SIDE THE -0.2983
-1.5798 SIDE THERE'S -0.1804
-0.6021 SINGLE BLUE -0.1183
-0.6021 SINGLE DOOR -0.2725
-0.3010 SITTING ON -0.1267
-0.6812 SIX </s> -0.3010
-1.3802 SIX EIGHT -0.1165
-1.3802 SIX GREEN -0.2881
-1.3802 SIX INCHES 0.0000
-1.3802 SIX TOTAL 0.0000
-1.3802 SIX UH -0.2983
-1.0792 SIX WAS -0.2175
-0.7782 SIXTH </s> -0.3010
-1.0792 SIXTH BOX -0.2888
-1.0792 SIXTH IT -0.2949
-1.0792 SIXTH OR -0.2935
-1.0792 SIXTH THEN -0.2813
-0.3010 SLIGHT RIGHT -0.2233
-0.3010 SLIGHTLY TO -0.1832
-0.3010 SMALL ROOM -0.2003
-0.3010 SNAGGED THOSE -0.2430
-0.3010 SNAGGING THAT -0.2762
-1.6368 SO </s> -0.3010
-1.6368 SO AS -0.1996
-2.1139 SO BASICALLY -0.2688
-2.1139 SO DO -0.2844
-2.1139 SO DON'T -0.2663
-2.1139 SO EXIT -0.2139
-2.1139 SO FAR -0.2688
-2.1139 SO GET -0.2175
-2.1139 SO GO -0.2915
-2.1139 SO HANG -0.1249
-2.1139 SO HEAD -0.0580
-2.1139 SO HERE'S 0.0000
-1.3358 SO I -0.2737
-2.1139 SO I'LL -0.2218
-1.4150 SO I'M -0.2285
-2.1139 SO IS -0.2653
-1.8129 SO IT'S -0.2942
-2.1139 SO JUST -0.2937
-2.1139 SO NOW -0.2596
-2.1139 SO RIGHT -0.2935
-2.1139 SO SEE -0.2974
-2.1139 SO SHOULD -0.2762
-2.1139 SO THAT -0.2880
-2.1139 SO THAT'S -0.2932
-1.5119 SO THE -0.2854
-1.6368 SO THEN -0.2813
-2.1139 SO THERE'S -0.1804
-1.8129 SO THIS -0.2711
-2.1139 SO UH -0.2813
-1.8129 SO WE'RE -0.2041
-2.1139 SO WHAT -0.2894
-2.1139 SO WHERE -0.2923
-2.1139 SO Y 0.0000
-2.1139 SO YEAH -0.2892
-1.2688 SO YOU -0.2657
-1.6368 SO YOU'RE -0.1684
-0.9031 SOME COMPUTER -0.1761
-0.9031 SOME I -0.2954
-0.9031 SOME PINK -0.2583
-0.9031 SOME SHELVES -0.1761
-0.3010 SOMETHIN </s> -0.3010
-0.3010 SOMETHING THAT -0.2994
-0.6021 SON </s> -0.3010
-0.6021 SON OF -0.2953
-0.3010 SOON AS -0.2109
-0.3010 SORRY BOX -0.2854
-0.6021 SORT </s> -0.3010
-0.6021 SORT OF -0.2991
-0.3010 SOUND WHILE 0.0000
-0.6021 SPOT ALRIGHT -0.2857
-0.6021 SPOT ANYMORE 0.0000
-1.3424 STACK A -0.3000
-0.3424 STACK OF -0.2694
-0.3010 STACKS OF -0.2735
-0.3010 STAIR ON -0.1689
-0.3010 STAIRS </s> -0.3010
-0.3010 STAND TO -0.2933
-0.3010 STANDARD METAL 0.0000
-0.9031 STANDING BY -0.0669
-0.9031 STANDING HERE -0.2730
-0.9031 STANDING IN -0.2993
-0.9031 STANDING RIGHT -0.2780
-0.7782 START FILLING 0.0000
-0.7782 START HEADING 0.0000
-0.7782 START OFF -0.2218
-0.3010 STARTED THERE -0.2378
-0.3010 STARTING IN -0.2768
-0.3010 STAY RIGHT -0.2916
-0.6990 STEP </s> -0.3010
-1.0000 STEP BACK -0.2881
-1.0000 STEP IT'S -0.2942
-1.0000 STEP OF -0.1861
-0.3010 STEPPED OUT -0.1549
-0.6990 STEPS </s> -0.3010
-1.3010 STEPS FORWARD -0.1249
-1.3010 STEPS IT'S -0.2545
-1.3010 STEPS TAKE -0.1684
-1.3010 STEPS THAT -0.2994
-1.3010 STEPS THERE'S -0.1804
-1.3010 STEPS YOU -0.2985
-0.3010 STI </s> -0.3010
-1.1461 STILL FACING -0.2730
-0.8451 STILL HAVEN'T -0.1249
-1.1461 STILL IN -0.2075
-1.1461 STILL NEED -0.1549
-1.1461 STILL STANDING -0.2430
-1.1461 STILL WANT -0.1597
-0.3010 STOP AND -0.2966
-1.7782 STRAIGHT </s> -0.3010
-0.6990 STRAIGHT AHEAD -0.0746
-1.7782 STRAIGHT BACK -0.2968
-1.4771 STRAIGHT FORWARD -0.1249
-1.4771 STRAIGHT IN -0.2908
-1.7782 STRAIGHT INTO -0.2872
-0.7782 STRAIGHT THROUGH -0.0613
-1.7782 STRAIGHT UNLESS 0.0000
-0.3010 STUFF </s> -0.3010
-0.3010 SUPPOSED TO -0.2901
-0.6021 SURE BLOCKS -0.2253
-0.6021 SURE TO -0.2995
-0.9031 T THE -0.2967
-0.9031 T TO -0.1832
-0.9031 T TWO -0.2953
-0.9031 T WHERE -0.2201
-1.0000 TABLE </s> -0.3010
-1.0000 TABLE BUT -0.2888
-1.0000 TABLE IN -0.2942
-1.0000 TABLE OR -0.2935
-1.0000 TABLE WHAT -0.2527
-0.3010 TABLES ON -0.1689
-0.5798 TAKE A -0.2804
-1.5798 TAKE ANOTHER -0.2946
-1.5798 TAKE CARE 0.0000
-1.2788 TAKE THAT -0.2745
-0.9777 TAKE THE -0.2864
-1.5798 TAKE TWO -0.2953
-0.3010 TAKEN THE -0.2943
-0.6990 TAKING A -0.2903
-1.0000 TAKING OUT -0.2688
-0.6990 TAKING THE -0.2950
-0.3010 TALKING TO -0.2979
-0.3010 TAS THAT -0.2994
-0.6021 TASK </s> -0.3010
-0.9031 TASK HOLD 0.0000
-0.9031 TASK WE -0.2407
-0.3010 TESTING ROOM -0.2831
-1.2041 TH </s> -0.3010
-1.2041 TH AT -0.1174
-1.2041 TH NUMBER -0.2745
-1.2041 TH OR -0.2780
-1.2041 TH THE -0.2970
-1.2041 TH THERE -0.2802
-1.2041 TH THERE'S -0.2967
-1.2041 TH WELL -0.2863
-1.5863 THAT </s> -0.3010
-2.4314 THAT AND -0.2996
-2.4314 THAT ARE -0.2900
-2.4314 THAT BL -0.1761
-1.8293 THAT BLUE -0.0809
-2.4314 THAT BOX -0.2999
-2.1303 THAT CART -0.1836
-2.4314 THAT CHAIRS -0.2752
-1.9542 THAT CORNER -0.2730
-1.8293 THAT DOOR -0.2218
-1.6532 THAT DOORWAY -0.0969
-2.1303 THAT FAR -0.1549
-1.9542 THAT FILING -0.1597
-2.4314 THAT FIRST -0.2906
-2.4314 THAT GR 0.0000
-2.1303 THAT GREEN -0.1265
-2.4314 THAT HALL -0.2218
-1.6532 THAT HALLWAY -0.1668
-1.8293 THAT I -0.2462
-2.4314 THAT IN -0.2605
-2.4314 THAT INTO -0.1076
-2.4314 THAT IS -0.2775
-2.1303 THAT LADDER -0.1761
-2.4314 THAT LEADS 0.0000
-2.4314 THAT LEFT -0.2982
-1.9542 THAT LITTLE -0.1984
-2.4314 THAT LOCATED -0.1761
-2.4314 THAT MAY 0.0000
-2.4314 THAT NOT -0.2711
-2.4314 THAT NOW -0.2739
-2.4314 THAT NUMBER -0.2705
-2.4314 THAT OFFICE -0.2632
-2.4314 THAT ON -0.2951
-1.2553 THAT ONE -0.2188
-2.4314 THAT ONE'S 0.0000
-2.4314 THAT OPEN -0.2840
-2.4314 THAT OTHER -0.2747
-2.4314 THAT PINK -0.1669
-1.0696 THAT ROOM -0.1776
-2.4314 THAT SHELF -0.2852
-2.4314 THAT SIDE -0.2126
-2.4314 THAT SPOT -0.1761
-2.4314 THAT STRAIGHT -0.2218
-2.4314 THAT TASK -0.1761
-2.4314 THAT THAT -0.2624
-2.4314 THAT UH -0.2756
-2.1303 THAT UP -0.2071
-1.8293 THAT WAS -0.2304
-2.4314 THAT WINDOW -0.2430
-2.4314 THAT WOULD -0.1761
-2.4314 THAT WRONG 0.0000
-1.5283 THAT YOU -0.2765
-2.4314 THAT YOU'RE -0.2894
-1.7482 THAT'S ALL -0.2596
-1.7482 THAT'S ALMOST -0.1761
-1.7482 THAT'S ALSO -0.2788
-1.7482 THAT'S BOX -0.2854
-1.7482 THAT'S DIRECTLY -0.2218
-1.7482 THAT'S EASY 0.0000
-1.1461 THAT'S FINE 0.0000
-1.7482 THAT'S FIVE -0.2126
-1.7482 THAT'S FURTHER -0.1761
-1.7482 THAT'S FURTHEST -0.1761
-1.7482 THAT'S IT -0.1901
-0.9031 THAT'S NUMBER -0.1586
-1.7482 THAT'S ON -0.1689
-1.4472 THAT'S ONE -0.2893
-1.7482 THAT'S RIGHT -0.2973
-1.4472 THAT'S THE -0.2953
-1.7482 THAT'S WHERE'S -0.2430
-2.6362 THE </s> -0.3010
-2.8122 THE AND -0.2627
-3.1133 THE BACK -0.2515
-2.8122 THE BARRIER 0.0000
-3.1133 THE BASE 0.0000
-2.8122 THE BEND 0.0000
-2.8122 THE BIG -0.1761
-3.1133 THE BIGGER 0.0000
-1.9671 THE BLOCKS -0.0792
-1.8122 THE BLUE -0.0052
-3.1133 THE BOOK -0.1761
-2.1133 THE BOOKSHELF -0.0280
-3.1133 THE BOOKSHELVES 0.0000
-2.6362 THE BOTTOM 0.0000
-2.1590 THE BOX -0.1933
-2.4143 THE BROWN 0.0000
-3.1133 THE CARBOARD -0.1761
-1.7709 THE CARDBOARD -0.0334
-2.1590 THE CART -0.1015
-2.1133 THE CHAIR -0.0854
-2.3351 THE CHAIRS -0.1291
-3.1133 THE CHIPS 0.0000
-3.1133 THE CLOSEST 0.0000
-2.8122 THE CLOSET -0.2041
-3.1133 THE COMPUTER -0.1761
-2.8122 THE COMPUTERS 0.0000
-3.1133 THE CORDER 0.0000
-1.7709 THE CORNER -0.0631
-2.8122 THE DE 0.0000
-2.4143 THE DEAD -0.0669
-2.3351 THE DESK -0.1139
-2.6362 THE DESKS -0.1461
-1.5451 THE DOOR -0.0640
-3.1133 THE DOOR'S 0.0000
-2.8122 THE DOORPOST 0.0000
-2.0719 THE DOORWAY -0.0792
-2.8122 THE EDGE 0.0000
-2.8122 THE EIGHTH 0.0000
-1.9372 THE END -0.0395
-3.1133 THE ENDS -0.2218
-3.1133 THE ENTIRE 0.0000
-2.8122 THE F -0.1249
-3.1133 THE FALSE 0.0000
-2.5112 THE FAR -0.1091
-3.1133 THE FARTHEST 0.0000
-3.1133 THE FI 0.0000
-2.8122 THE FIFTH 0.0000
-2.1133 THE FILING 0.0000
-2.4143 THE FIRE 0.0000
-1.9092 THE FIRST -0.0928
-2.4143 THE FLOOR 0.0000
-3.1133 THE FOURTH -0.1761
-3.1133 THE FURTHEST -0.1761
-3.1133 THE GOAL 0.0000
-2.0341 THE GREEN -0.0126
-2.8122 THE HALL -0.1249
-1.6362 THE HALLWAY -0.0522
-3.1133 THE HHH -0.1761
-3.1133 THE HIDDEN -0.2218
-3.1133 THE HUGE 0.0000
-3.1133 THE I -0.2617
-2.8122 THE I'M -0.2875
-2.6362 THE IN -0.2075
-3.1133 THE INS 0.0000
-2.8122 THE INSIDE -0.2218
-2.6362 THE IT'S -0.2507
-2.6362 THE LADDER -0.1383
-3.1133 THE LEF 0.0000
-1.6661 THE LEFT -0.0726
-3.1133 THE LEFTHAND -0.1761
-3.1133 THE LINTEL 0.0000
-2.1590 THE LITTLE -0.1015
-2.5112 THE MAP -0.1249
-2.8122 THE MIDDLE 0.0000
-2.0719 THE NEXT -0.0130
-2.5112 THE NUMBER -0.2420
-3.1133 THE NUMBERS 0.0000
-3.1133 THE OF -0.1861
-2.8122 THE OFFICE -0.2218
-2.6362 THE OLD 0.0000
-2.3351 THE ONE -0.2733
-3.1133 THE ONES -0.2499
-2.6362 THE ONLY -0.1963
-2.6362 THE OPEN -0.1871
-3.1133 THE OPPOSITE -0.1761
-1.9993 THE OTHER -0.0483
-3.1133 THE PART 0.0000
-1.9092 THE PINK -0.0327
-2.5112 THE PLATFORM -0.0969
-3.1133 THE PLATFORMS 0.0000
-3.1133 THE REMAINING 0.0000
-3.1133 THE REMEMBER -0.2430
-3.1133 THE REST 0.0000
-1.8122 THE RIGHT -0.1956
-3.1133 THE RIGHTSIDE 0.0000
-1.7331 THE ROOM -0.1249
-3.1133 THE SAME 0.0000
-1.7153 THE SECOND -0.1065
-2.6362 THE SEVENTH 0.0000
-2.4143 THE SHELF -0.1549
-3.1133 THE SHELVES -0.1761
-3.1133 THE SITTING 0.0000
-2.4143 THE SIXTH -0.0669
-2.6362 THE SLIGHT 0.0000
-3.1133 THE SMALL 0.0000
-3.1133 THE SO -0.2805
-3.1133 THE SORT -0.1761
-2.6362 THE STACK -0.0378
-2.8122 THE STAIRS 0.0000
-2.2102 THE STEPS -0.0792
-2.6362 THE TABLE -0.1461
-3.1133 THE TABLES 0.0000
-2.5112 THE THE -0.2881
-2.8122 THE THIRD 0.0000
-2.6362 THE THREE -0.2657
-3.1133 THE TIME'S -0.1249
-2.6362 THE TO -0.1812
-3.1133 THE TOP -0.1249
-2.8122 THE TWO -0.2835
-2.3351 THE UH -0.2607
-2.5112 THE UM -0.2767
-2.8122 THE VERY -0.1761
-1.9092 THE WALL -0.0378
-2.2102 THE WAY -0.0458
-3.1133 THE WHOLE 0.0000
-2.6362 THE WINDOW -0.0969
-3.1133 THE WOODEN 0.0000
-3.1133 THE YE -0.1761
-3.1133 THE YEAH -0.2932
-2.3351 THE YELLOW -0.1761
-1.0000 THEM </s> -0.3010
-1.0000 THEM AND -0.2996
-1.0000 THEM IN -0.2075
-1.0000 THEM ROOM -0.2988
-1.0000 THEM YOU -0.2909
-1.3522 THEN </s> -0.3010
-1.9542 THEN A -0.2903
-1.9542 THEN AFTER -0.1249
-1.9542 THEN ALSO -0.2788
-1.6532 THEN AS -0.1996
-1.9542 THEN ENDS -0.2218
-1.6532 THEN GO -0.2784
-1.2553 THEN I -0.2767
-1.6532 THEN I'M -0.2805
-1.9542 THEN IN -0.2075
-1.9542 THEN IT -0.2949
-1.9542 THEN ONE -0.2991
-1.9542 THEN TAKING -0.2041
-1.6532 THEN THAT -0.2929
-1.3522 THEN THE -0.2840
-1.9542 THEN THERE -0.2988
-1.1091 THEN THERE'S -0.1449
-1.9542 THEN TURN -0.2071
-1.9542 THEN TWO -0.2835
-1.9542 THEN WE -0.2846
-1.9542 THEN WHEN -0.1139
-1.9542 THEN WHERE -0.2648
-1.9542 THEN YOU -0.2998
-1.9542 THEN YOU'LL 0.0000
-1.9542 THEN YOU'RE -0.1984
-0.8683 THERE </s> -0.3010
-1.6812 THERE A -0.2541
-2.2833 THERE AGAINST 0.0000
-2.2833 THERE ALSO -0.2553
-1.9823 THERE AND -0.2861
-1.9823 THERE ANOTHER -0.2319
-1.9823 THERE ARE -0.2788
-2.2833 THERE AS -0.2632
-2.2833 THERE AT -0.1174
-2.2833 THERE BASICALLY -0.2688
-1.9823 THERE BUT -0.2499
-2.2833 THERE GONNA -0.2717
-2.2833 THERE I -0.2954
-1.3291 THERE IS -0.2331
-2.2833 THERE JUST -0.2937
-2.2833 THERE MIGHT 0.0000
-2.2833 THERE OKAY -0.2813
-0.8361 THERE SHOULD -0.0872
-2.2833 THERE THERE -0.2872
-1.9823 THERE THERE'S -0.1689
-2.2833 THERE THREE -0.2872
-1.5051 THERE WAS -0.2553
-2.2833 THERE WERE -0.2688
-2.3054 THERE'S </s> -0.3010
-0.6152 THERE'S A -0.1581
-2.0043 THERE'S ACTUALLY -0.2341
-2.3054 THERE'S ALL -0.2910
-1.5272 THERE'S ALSO -0.1139
-1.3511 THERE'S ANOTHER -0.0918
-2.3054 THERE'S BOX -0.2854
-2.3054 THERE'S GONNA -0.2717
-2.3054 THERE'S IN -0.2075
-2.0043 THERE'S JUST -0.2711
-2.3054 THERE'S MBOOKSHELVES 0.0000
-1.7033 THERE'S NO -0.2093
-2.3054 THERE'S NUMBER -0.2666
-1.3511 THERE'S ONE -0.2650
-2.3054 THERE'S SOME -0.2430
-2.3054 THERE'S STANDING -0.2430
-2.0043 THERE'S THE -0.2888
-2.3054 THERE'S THERE'S -0.2989
-1.7033 THERE'S TWO -0.2653
-1.8282 THERE'S UH -0.2785
-2.3054 THERE'S UM -0.2931
-0.3010 THEY TOLD -0.1761
-0.3010 THING LIKE -0.2894
-0.8451 THINK OF -0.2914
-1.1461 THINK SO -0.2909
-1.1461 THINK THAT'S -0.2852
-1.1461 THINK THE -0.3007
-0.8451 THINK WE'RE -0.2553
-0.6021 THIRD GREEN -0.1265
-0.6021 THIRD SHELF -0.1761
-1.1761 THIS </s> -0.3010
-1.4771 THIS CHART 0.0000
-1.4771 THIS DOWN -0.2688
-1.4771 THIS HALLWAY -0.2030
-1.1761 THIS IS -0.2953
-1.4771 THIS LITTLE -0.2126
-1.4771 THIS ON -0.2975
-1.4771 THIS ONE -0.2991
-1.1761 THIS POINT -0.1249
-1.1761 THIS ROOM -0.2139
-1.4771 THIS UH -0.2983
-0.9031 THOSE </s> -0.3010
-1.2041 THOSE BOXES -0.2116
-1.2041 THOSE LATER 0.0000
-1.2041 THOSE NOW -0.2944
-1.2041 THOSE ON -0.1689
-1.2041 THOSE RIGHT -0.2473
-1.2041 THOSE UP -0.2888
-0.7782 THOUGH IS -0.2953
-0.7782 THOUGH REMEMBER -0.1761
-0.7782 THOUGH RIGHT -0.2992
-0.3010 THR WE -0.2314
-1.3291 THREE </s> -0.3010
-1.8062 THREE BLUE -0.2656
-1.1072 THREE CHAIRS -0.1648
-1.2041 THREE FOUR -0.1963
-1.8062 THREE GREEN -0.1265
-1.8062 THREE IS -0.2865
-0.9031 THREE MINUTES -0.0348
-1.8062 THREE MORE -0.2041
-1.5051 THREE ON -0.1608
-1.8062 THREE OR -0.2858
-1.5051 THREE STACKS 0.0000
-1.8062 THREE TO -0.2995
-1.8062 THREE WAS -0.2844
-1.8062 THREE WE -0.2588
-1.8195 THROUGH </s> -0.3010
-1.8195 THROUGH A -0.3000
-1.5185 THROUGH AGAIN -0.1761
-1.8195 THROUGH ANOTHER -0.2881
-1.8195 THROUGH IT -0.1901
-1.8195 THROUGH KEEP -0.2218
-1.8195 THROUGH SOME -0.2430
-0.9744 THROUGH THAT -0.2426
-0.5891 THROUGH THE -0.2545
-1.8195 THROUGH TO -0.2995
-0.3010 THROUGHOUT THE -0.3007
-0.9031 TIME AH -0.1761
-0.9031 TIME I -0.2825
-0.9031 TIME IS -0.2982
-0.9031 TIME TO -0.2979
-0.7782 TIME'S TIME'S -0.1249
-0.4771 TIME'S UP -0.2218
-2.1492 TO </s> -0.3010
-2.4502 TO AN -0.2762
-2.4502 TO BE -0.2957
-2.4502 TO CHECK 0.0000
-2.4502 TO COME -0.2730
-2.4502 TO COMPLETE 0.0000
-2.4502 TO CONTINUE -0.2430
-1.9731 TO DO -0.2788
-2.1492 TO EACH -0.2632
-2.4502 TO ENTER -0.2041
-1.8482 TO FILL 0.0000
-2.1492 TO FIND -0.1461
-2.4502 TO FINISH 0.0000
-1.7513 TO GET -0.1139
-1.8482 TO GO -0.2065
-2.4502 TO HAVE -0.2923
-2.1492 TO HURRY 0.0000
-2.4502 TO IN -0.2908
-1.8482 TO IT -0.1901
-2.4502 TO LEFT -0.2896
-2.4502 TO MARK 0.0000
-1.4089 TO MY -0.0442
-2.4502 TO PICK -0.2632
-2.1492 TO PUT -0.2730
-2.4502 TO SEND 0.0000
-1.8482 TO TAKE -0.0830
-2.4502 TO THAT -0.2896
-0.6242 TO THE -0.1678
-2.4502 TO THERE -0.2326
-2.4502 TO TRY 0.0000
-2.1492 TO UH -0.2955
-2.4502 TO WALK -0.2808
-1.7513 TO WHERE -0.1703
-2.4502 TO YEAH -0.2971
-1.9731 TO YOUR -0.1047
-0.6021 TOLD ME -0.1919
-0.9031 TOLD WHAT -0.2894
-0.9031 TOLD YOU -0.2998
-0.3010 TOO </s> -0.3010
-0.3010 TOOK A -0.2892
-0.7782 TOP </s> -0.3010
-0.4771 TOP OF -0.1684
-0.3010 TOTAL </s> -0.3010
-0.6021 TOWARD THAT -0.2994
-0.6021 TOWARD THE -0.2929
-0.4771 TOWARDS THE -0.2898
-0.7782 TOWARDS WHERE -0.2201
-0.3010 TRY TO -0.2979
-0.3010 TRYIN TO -0.2948
-0.3010 TUH THE -0.3000
-1.5563 TURN </s> -0.3010
-1.0792 TURN AROUND -0.2041
-1.5563 TURN INTO -0.1076
-0.7112 TURN LEFT -0.1666
-1.0792 TURN RIGHT -0.2430
-1.5563 TURN STRAIGHT -0.2937
-1.5563 TURN TO -0.1832
-1.5563 TURN YOUR -0.2910
-0.3010 TURNED RIGHT -0.2322
-0.3010 TURNING LEFT -0.1891
-1.0000 TURNS </s> -0.3010
-1.0000 TURNS LEFT -0.2954
-1.0000 TURNS THE -0.3004
-0.6990 TURNS TO -0.1832
-1.1818 TWO </s> -0.3010
-1.5798 TWO AND -0.2815
-1.8808 TWO BLOCKS -0.2923
-1.4037 TWO BLUE -0.2656
-1.8808 TWO BOXES -0.2116
-1.4037 TWO CHAIRS -0.1648
-1.8808 TWO CLOSETS 0.0000
-1.8808 TWO FEET -0.2218
-1.5798 TWO FILING -0.1919
-1.8808 TWO FIVE -0.2894
-1.8808 TWO IS -0.2715
-1.8808 TWO LITTLE -0.2894
-1.4037 TWO MINUTES -0.0969
-1.4037 TWO OFFICES 0.0000
-1.8808 TWO PINK -0.2976
-1.8808 TWO QUESTIONS 0.0000
-1.8808 TWO RIGHT -0.2877
-1.8808 TWO SECONDS 0.0000
-1.8808 TWO STACKS 0.0000
-1.8808 TWO STEPS -0.2788
-1.2788 TWO THREE -0.2507
-1.3536 UH </s> -0.3010
-2.1987 UH ALRIGHT -0.2950
-1.8976 UH ARE -0.1461
-2.1987 UH BASICALLY -0.2688
-2.1987 UH BOOKSHELF -0.2041
-2.1987 UH CABINET -0.2808
-2.1987 UH CARDBOARD -0.0645
-2.1987 UH CONTINUE -0.2430
-2.1987 UH FIRST -0.2906
-2.1987 UH FOURTH -0.1761
-1.8976 UH GO -0.2256
-2.1987 UH GREEN -0.2978
-2.1987 UH HOLD 0.0000
-2.1987 UH HOW -0.1249
-2.1987 UH HUH -0.2218
-1.4997 UH I -0.2723
-1.8976 UH IF -0.1249
-2.1987 UH IS -0.2653
-2.1987 UH IT -0.2918
-1.7215 UH IT'S -0.2545
-2.1987 UH LITTLE -0.2894
-2.1987 UH OF -0.1861
-2.1987 UH ON -0.1689
-2.1987 UH ONE -0.2972
-2.1987 UH PROFESSOR 0.0000
-1.7215 UH RIGHT -0.2877
-1.5966 UH SO -0.2553
-1.2444 UH THE -0.2677
-1.5966 UH THERE -0.2164
-1.5966 UH THERE'S -0.1510
-2.1987 UH TOWARDS -0.1249
-2.1987 UH TURN -0.2888
-2.1987 UH UH -0.2756
-2.1987 UH WAIT -0.2430
-2.1987 UH WE -0.2588
-2.1987 UH WHATEVER 0.0000
-2.1987 UH WHEN -0.1139
-2.1987 UH WHICH -0.1761
-2.1987 UH Y 0.0000
-2.1987 UH YEAH -0.2730
-2.1987 UH YELLOW -0.2900
-1.5966 UH YOU -0.2818
-0.3010 UHF YEAH -0.2646
-0.3010 UHUH </s> -0.3010
-1.4393 UM </s> -0.3010
-1.7404 UM A -0.2714
-1.7404 UM AGAINST 0.0000
-2.0414 UM ALRIGHT -0.2730
-1.4393 UM AND -0.2329
-2.0414 UM ANY -0.2553
-2.0414 UM AS -0.2919
-2.0414 UM BACK -0.2968
-2.0414 UM DO -0.2956
-2.0414 UM FROM -0.1206
-1.4393 UM GO -0.1698
-2.0414 UM GOING -0.2808
-1.7404 UM I -0.2556
-2.0414 UM I'M -0.2943
-2.0414 UM IF -0.1829
-2.0414 UM IMMEDIATELY -0.2218
-1.7404 UM IS -0.2684
-1.4393 UM IT'S -0.2730
-1.4393 UM ON -0.1492
-2.0414 UM SECOND -0.2632
-2.0414 UM SO -0.2977
-2.0414 UM SORT -0.1761
-2.0414 UM STILL -0.2688
-2.0414 UM TAKE -0.1684
-1.5643 UM THE -0.2960
-1.7404 UM THERE'S -0.1747
-2.0414 UM TO -0.2838
-2.0414 UM TURNED 0.0000
-2.0414 UM WALK -0.2808
-2.0414 UM WE -0.2407
-2.0414 UM WHERE -0.2923
-2.0414 UM YEAH -0.2932
-2.0414 UM YES -0.2711
-0.3010 UNDER ONE -0.2893
-0.3010 UNDERNEATH THE -0.3000
-0.3010 UNDERSTAND WHERE -0.2923
-0.3010 UNLESS YOU -0.2844
-0.9031 UNTIL </s> -0.3010
-0.4260 UNTIL YOU -0.2725
-0.7782 UP </s> -0.3010
-1.0792 UP AGAINST 0.0000
-1.5563 UP ALL -0.1047
-1.5563 UP BEFORE -0.2109
-1.5563 UP OR -0.2935
-0.8573 UP THE -0.2748
-1.5563 UP WHAT -0.2527
-0.3010 UUM </s> -0.3010
-0.6021 VERY CORNER -0.2657
-0.6021 VERY GOOD -0.0792
-0.3010 W WHERE -0.2923
-0.9031 WAIT A -0.2946
-0.9031 WAIT HOLD 0.0000
-0.9031 WAIT I -0.2617
-0.9031 WAIT ONE -0.2952
-1.3424 WALK ALL -0.1047
-1.3424 WALK BACK -0.2924
-1.0414 WALK IN -0.2856
-1.0414 WALK INTO -0.1076
-1.3424 WALK OUT -0.1549
-1.3424 WALK PAST -0.2156
-1.0414 WALK STRAIGHT -0.2218
-1.3424 WALK WALK -0.2596
-0.6021 WALKED IN -0.2338
-1.0000 WALKED INTO -0.0969
-1.3010 WALKED PAST -0.2852
-1.3010 WALKED STRAIGHT -0.2863
-1.3010 WALKED THROUGH -0.1717
-0.6021 WALKING BACK -0.2467
-1.0792 WALKING I'M -0.2977
-1.0792 WALKING STRAIGHT -0.2218
-1.0792 WALKING TO -0.1832
-1.0414 WALL </s> -0.3010
-1.6435 WALL ABOUT -0.2840
-1.6435 WALL AND -0.2861
-1.6435 WALL BUT -0.2632
-1.1663 WALL ON -0.1441
-1.6435 WALL OR -0.2935
-1.6435 WALL STRAIGHT -0.2041
-1.3424 WALL THAT -0.2880
-1.1663 WALL THERE'S -0.1540
-1.3424 WALL UM -0.2931
-1.6435 WALL UNDERNEATH 0.0000
-1.6435 WALL WHERE -0.2201
-1.6435 WALL YOU -0.2934
-1.3010 WANNA DO -0.2844
-1.0000 WANNA GO -0.1946
-1.3010 WANNA HANG -0.2218
-1.3010 WANNA HEAD -0.2688
-1.3010 WANNA MAKE -0.1761
-1.3010 WANNA OPEN -0.2840
-1.3010 WANNA PASS 0.0000
-1.3010 WANNA START -0.2218
-1.3010 WANNA WALK -0.2808
-1.2553 WANT </s> -0.3010
-0.5563 WANT ME -0.2071
-0.9542 WANT THOSE -0.2430
-1.2553 WANT TO -0.2948
-1.0580 WAS </s> -0.3010
-1.0000 WAS A -0.2184
-1.9031 WAS ALRRIGHT 0.0000
-1.9031 WAS BUSY 0.0000
-1.9031 WAS FOUR -0.2341
-1.9031 WAS IN -0.2993
-1.9031 WAS IT -0.1901
-1.6021 WAS JUST -0.2711
-1.9031 WAS NUMBER -0.2784
-1.4260 WAS ON -0.1407
-1.9031 WAS ONE -0.2458
-1.9031 WAS STRAIGHT -0.2863
-1.9031 WAS THAT -0.2913
-1.0580 WAS THE -0.2939
-1.9031 WAS THERE'S -0.1804
-1.6021 WAS TWO -0.2591
-1.9031 WAS WHEN -0.2553
-1.2553 WAY BACK -0.2515
-1.2553 WAY I'M -0.2840
-1.2553 WAY IF -0.1829
-1.2553 WAY THAT -0.2945
-0.6532 WAY TO -0.1604
-1.2553 WAY YOU -0.2947
-1.4314 WE CAN -0.2499
-1.7324 WE GO -0.2256
-1.0334 WE GOT -0.2656
-0.8293 WE HAVE -0.2148
-1.7324 WE HAVEN'T -0.2218
-0.8873 WE NEED -0.1326
-1.7324 WE NOW -0.2944
-1.7324 WE NUMBER -0.2822
-1.7324 WE ONLY -0.2688
-0.6021 WE'LL COME -0.1761
-0.6021 WE'LL HEAD -0.0580
-1.3010 WE'RE DONE -0.1761
-1.3010 WE'RE GETTING -0.1249
-0.6990 WE'RE GONNA -0.2511
-1.3010 WE'RE JUST -0.2937
-1.0000 WE'RE NOT -0.2711
-1.3010 WE'RE OUT -0.2798
-0.6021 WE'VE GOT -0.2792
-0.9031 WE'VE GOTTA -0.2632
-0.9031 WE'VE ONLY -0.2688
-1.0000 WELL </s> -0.3010
-1.4771 WELL AS -0.2825
-1.1761 WELL I -0.2897
-1.4771 WELL I'M -0.2977
-1.4771 WELL IT'S -0.2802
-1.4771 WELL LET'S -0.1761
-1.4771 WELL NOT -0.2863
-1.4771 WELL OKAY -0.2975
-1.4771 WELL THEN -0.2913
-1.4771 WELL THERE'S -0.2989
-1.4771 WELL UH -0.2871
-1.4771 WELL WHAT -0.2775
-1.0792 WENT BACK -0.2792
-1.0792 WENT OUT -0.2688
-0.6021 WENT THROUGH -0.1627
-1.0792 WENT TO -0.1832
-1.1461 WERE </s> -0.3010
-1.1461 WERE IN -0.2874
-1.1461 WERE IT'S -0.2976
-1.1461 WERE JUST -0.2863
-1.1461 WERE THREE -0.2657
-0.8451 WERE TO -0.2979
-0.6021 WH WHAT -0.2527
-0.6021 WH WHERE -0.2923
-0.9777 WHAT </s> -0.3010
-1.5798 WHAT BOX -0.2854
-1.5798 WHAT COLOR 0.0000
-1.5798 WHAT I -0.2996
-1.5798 WHAT I'M -0.2734
-1.5798 WHAT IS -0.2653
-1.5798 WHAT NEXT -0.2944
-0.9777 WHAT NUMBER -0.2822
-1.5798 WHAT TO -0.2964
-1.2788 WHAT WAS -0.2900
-1.5798 WHAT YOU -0.2909
-1.5798 WHAT YOU'RE -0.1984
-0.3010 WHAT'S THE -0.2997
-0.3010 WHATEVER YOU -0.2883
-1.0000 WHEN I -0.2940
-1.3010 WHEN WE -0.2929
-0.4559 WHEN YOU -0.2778
-1.5229 WHERE </s> -0.3010
-1.5229 WHERE ALL -0.1047
-1.6990 WHERE ARE -0.1614
-2.0000 WHERE ELSE 0.0000
-1.6990 WHERE I -0.2854
-2.0000 WHERE IN -0.2075
-1.0969 WHERE IS -0.2331
-2.0000 WHERE NOW -0.2944
-2.0000 WHERE NUMBER -0.2745
-2.0000 WHERE TH -0.2730
-0.7696 WHERE THE -0.2545
-1.6990 WHERE THERE -0.2778
-1.0969 WHERE YOU -0.2752
-1.2041 WHERE'S EIGHT -0.1165
-0.9031 WHERE'S NUMBER -0.2666
-1.2041 WHERE'S SIX -0.1996
-0.6021 WHERE'S THE -0.2905
-0.6021 WHICH IS -0.2924
-1.0792 WHICH SHOULD -0.1027
-0.7782 WHICH SIDE -0.2775
-0.3010 WHILE BLAH -0.1761
-0.3010 WHOLE TIME -0.2430
-0.3010 WILL SOUND 0.0000
-0.6021 WINDOW </s> -0.3010
-0.9031 WINDOW ON -0.2766
-0.9031 WINDOW THERE'S -0.1804
-1.1249 WITH A -0.2409
-1.3010 WITH ALL -0.1047
-1.6021 WITH DESKS -0.2553
-1.6021 WITH IT -0.2918
-1.6021 WITH SOME -0.2430
-0.6021 WITH THE -0.2840
-1.3010 WITH TWO -0.2835
-0.3010 WONDERFUL ALRIGHT -0.2730
-0.3010 WOODEN PLATFORM -0.1761
-0.3010 WORTH OF -0.2953
-0.6021 WOULD BE -0.2737
-0.9031 WOULD IT -0.2949
-0.9031 WOULD YOU -0.2998
-0.3010 WOW OKAY -0.2813
-0.3010 WRITE THIS -0.2863
-0.3010 WRONG FIVE -0.2775
-0.3010 Y ARE -0.1614
-0.3010 YA S -0.1761
-1.3010 YAH </s> -0.3010
-1.3010 YAH I -0.2954
-1.3010 YAH WHERE -0.2201
-0.4559 YAH YAH 0.0000
-0.6021 YE </s> -0.3010
-0.6021 YE EACH -0.2218
-1.2041 YEAH </s> -0.3010
-2.0492 YEAH DO -0.1538
-2.0492 YEAH FIVE -0.2775
-1.7482 YEAH GO -0.1986
-2.0492 YEAH GOIN -0.2218
-2.0492 YEAH GREAT 0.0000
-2.0492 YEAH HEAD -0.0580
-1.0950 YEAH I -0.2218
-1.7482 YEAH I'VE -0.0969
-2.0492 YEAH IT -0.2918
-1.7482 YEAH OKAY -0.2886
-1.7482 YEAH ON -0.1689
-2.0492 YEAH PUT -0.2730
-1.5721 YEAH SO -0.2440
-2.0492 YEAH THAT -0.2913
-1.7482 YEAH THAT'S -0.2688
-1.7482 YEAH THE -0.2822
-1.7482 YEAH THERE -0.2081
-1.7482 YEAH THERE'S -0.1775
-2.0492 YEAH UH -0.2983
-2.0492 YEAH UM -0.2849
-2.0492 YEAH WE'VE -0.2430
-2.0492 YEAH WELL -0.2863
-2.0492 YEAH WHERE -0.2878
-1.7482 YEAH WITH -0.1614
-1.7482 YEAH YAH -0.1139
-1.5721 YEAH YEAH -0.2561
-2.0492 YEAH YOU'RE -0.1984
-1.6021 YELLOW </s> -0.3010
-1.1249 YELLOW BLOCK -0.0792
-0.7570 YELLOW BLOCKS -0.1703
-1.6021 YELLOW BO -0.1761
-1.6021 YELLOW BOX -0.2999
-1.3010 YELLOW CHIP -0.1249
-1.3010 YELLOW ONE -0.2773
-1.3010 YELLOW ONES -0.2499
-1.6021 YELLOW UH -0.2983
-1.3010 YEP </s> -0.3010
-1.3010 YEP AND -0.2936
-1.3010 YEP GOT -0.2609
-1.3010 YEP GOTCHA -0.1461
-0.8239 YEP I -0.2602
-1.3010 YEP I'VE -0.0969
-1.3010 YEP IN -0.2075
-1.3010 YEP SO -0.2805
-1.4771 YES </s> -0.3010
-1.4771 YES EACH -0.2218
-1.4771 YES GET -0.2304
-0.8751 YES I -0.2285
-1.4771 YES IT'S -0.2802
-0.7782 YES THERE -0.2081
-1.1761 YES THERE'S -0.1804
-0.9031 YET </s> -0.3010
-0.9031 YET AND -0.2876
-0.9031 YET I'VE -0.2825
-0.9031 YET SO -0.2840
-1.7609 YOU </s> -0.3010
-2.5391 YOU A -0.2978
-2.5391 YOU ABOUT -0.2663
-2.0620 YOU ARE -0.2430
-2.0620 YOU AT -0.0817
-2.5391 YOU BASICALLY -0.2688
-2.5391 YOU BEFORE -0.2109
-1.8401 YOU CAME -0.1597
-2.0620 YOU CAN -0.1919
-2.2380 YOU COME -0.1383
-2.2380 YOU DO -0.1538
-2.0620 YOU DON'T -0.1871
-2.5391 YOU DOWN -0.2688
-2.2380 YOU ENTER -0.1461
-2.2380 YOU FOUND -0.1938
-1.6940 YOU GET -0.1461
-2.5391 YOU GIVE 0.0000
-1.6940 YOU GO -0.1655
-1.7609 YOU GOT -0.1732
-2.5391 YOU GOTTA -0.2632
-1.6360 YOU HAVE -0.1584
-2.5391 YOU HEAD -0.0580
-2.5391 YOU HEAR -0.2041
-2.5391 YOU IN -0.2605
-2.5391 YOU INDICATED 0.0000
-2.5391 YOU JUS 0.0000
-2.0620 YOU JUST -0.2788
-1.6940 YOU KNOW -0.1165
-2.5391 YOU LEAVE -0.0969
-2.5391 YOU LISTENING 0.0000
-2.2380 YOU LOOK -0.2341
-2.5391 YOU NEED -0.2852
-2.5391 YOU NOT -0.2711
-2.5391 YOU NOW -0.2739
-2.5391 YOU OPEN -0.2840
-2.5391 YOU PICKED 0.0000
-2.2380 YOU REACH 0.0000
-2.2380 YOU REALLY -0.1249
-2.5391 YOU REMEMBER -0.1761
-2.5391 YOU RIGHT -0.2935
-1.5848 YOU SAID 0.0000
-2.5391 YOU SAY -0.1761
-1.4251 YOU SEE -0.1195
-2.5391 YOU SH -0.1761
-1.7609 YOU SHOULD -0.0628
-2.5391 YOU SLIGHTLY 0.0000
-2.5391 YOU SPOT -0.1761
-2.5391 YOU STEPPED 0.0000
-2.0620 YOU STILL -0.1963
-2.2380 YOU TAKE -0.1015
-2.2380 YOU THERE -0.2352
-2.5391 YOU THROUGH -0.1717
-2.0620 YOU TO -0.1688
-2.5391 YOU TOLD -0.1761
-1.9370 YOU TURN -0.1249
-2.5391 YOU UH -0.2983
-2.5391 YOU UNDERSTAND 0.0000
-2.5391 YOU WALK -0.2808
-2.0620 YOU WALKED -0.1761
-1.6940 YOU WANNA -0.0792
-1.6360 YOU WANT 0.0000
-2.5391 YOU WENT -0.2632
-2.0620 YOU WERE -0.1549
-2.5391 YOU WITH -0.2672
-2.2380 YOU YOU -0.2934
-0.3010 YOU'LL SEE -0.2304
-1.5798 YOU'RE </s> -0.3010
-1.5798 YOU'RE A -0.3000
-1.5798 YOU'RE FACING -0.1383
-1.5798 YOU'RE GOING -0.2808
-0.6767 YOU'RE GONNA -0.1946
-1.5798 YOU'RE IN -0.2993
-1.5798 YOU'RE LOOKING -0.2632
-1.5798 YOU'RE STANDING -0.2430
-1.5798 YOU'RE STARTED 0.0000
-1.5798 YOU'RE THINK -0.2341
-1.5798 YOU'RE WALKING -0.1761
-1.5798 YOU'RE YOU'RE -0.1984
-0.3010 YOU'VE TAKEN 0.0000
-0.3010 YOULL COME -0.2730
-1.1663 YOUR EYES 0.0000
-1.6435 YOUR FIRST -0.2906
-0.8653 YOUR LEFT -0.1780
-1.6435 YOUR MAP -0.2632
-0.6435 YOUR RIGHT -0.2051
-1.6435 YOUR UH -0.2813

\3-grams:
-0.9031 <s> A CART
-0.9031 <s> A DOOR
-0.9031 <s> A RIGHT
-0.9031 <s> A WHAT
-0.3010 <s> ABOUT MAYBE
-0.3010 <s> ACTUALLY I
-0.3010 <s> AH WE'RE
-0.3010 <s> ALL THE
-0.3010 <s> ALMOST ALL
-2.0492 <s> ALRIGHT </s>
-2.0492 <s> ALRIGHT AN
-1.5721 <s> ALRIGHT AND
-2.0492 <s> ALRIGHT AS
-2.0492 <s> ALRIGHT CONTINUE
-2.0492 <s> ALRIGHT GET
-2.0492 <s> ALRIGHT GO
-2.0492 <s> ALRIGHT HEAD
-2.0492 <s> ALRIGHT HOLD
-2.0492 <s> ALRIGHT HOW
-1.2041 <s> ALRIGHT I
-2.0492 <s> ALRIGHT I'LL
-1.5721 <s> ALRIGHT I'M
-2.0492 <s> ALRIGHT I'VE
-1.7482 <s> ALRIGHT IF
-2.0492 <s> ALRIGHT LET'S
-1.2711 <s> ALRIGHT NOW
-2.0492 <s> ALRIGHT NUMBER
-2.0492 <s> ALRIGHT ON
-2.0492 <s> ALRIGHT OUR
-1.2711 <s> ALRIGHT SO
-2.0492 <s> ALRIGHT START
-2.0492 <s> ALRIGHT THE
-2.0492 <s> ALRIGHT THEN
-1.7482 <s> ALRIGHT THERE'S
-2.0492 <s> ALRIGHT UH
-2.0492 <s> ALRIGHT UM
-2.0492 <s> ALRIGHT WE'LL
-2.0492 <s> ALRIGHT WE'VE
-2.0492 <s> ALRIGHT WELL
-2.0492 <s> ALRIGHT WHERE
-1.5721 <s> ALRIGHT YOU
-0.7782 <s> AN IT'S
-0.7782 <s> AN PUT
-0.7782 <s> AN THERE
-2.0086 <s> AND </s>
-2.0086 <s> AND AND
-1.7076 <s> AND AS
-2.0086 <s> AND BL
-2.0086 <s> AND CONTINUE
-2.0086 <s> AND DO
-2.0086 <s> AND EMPTY
-2.0086 <s> AND GO
-1.4065 <s> AND I
-1.5315 <s> AND I'M
-2.0086 <s> AND I'VE
-2.0086 <s> AND IN
-2.0086 <s> AND IS
-2.0086 <s> AND IT
-1.7076 <s> AND IT'S
-2.0086 <s> AND ON
-1.7076 <s> AND SO
-1.7076 <s> AND THE
-1.0544 <s> AND THEN
-1.7076 <s> AND THERE
-1.3096 <s> AND THERE'S
-1.7076 <s> AND UH
-1.7076 <s> AND WE
-1.4065 <s> AND YOU
-0.3010 <s> ANY PINK
-0.3010 <s> AP THERE'S
-0.3010 <s> ARE YOU
-0.3010 <s> ARIGHT </s>
-0.6021 <s> AT THE
-0.6021 <s> AT THIS
-0.3010 <s> BE SURE
-0.3010 <s> BEHIND THE
-0.3010 <s> BIG CARDBOARD
-0.6021 <s> BLUE </s>
-0.6021 <s> BLUE BOX
-0.3010 <s> BOX SEVEN
-0.7782 <s> BUT INSTEAD
-0.7782 <s> BUT RIGHT
-0.7782 <s> BUT WHERE
-0.3010 <s> BY THE
-0.3010 <s> CAN YOU
-0.3010 <s> CART </s>
-0.3010 <s> D'YA HEAR
-0.3010 <s> D'YOU GET
-0.3010 <s> DID YOU
-0.9700 <s> DO I
-1.4472 <s> DO WE
-0.4472 <s> DO YOU
-0.6021 <s> DON'T ACTUALLY
-0.6021 <s> DON'T HAVE
-0.3010 <s> DUMP DUMP
-0.3010 <s> E DUH
-0.3010 <s> EACH PINK
-0.3010 <s> EH </s>
-0.3010 <s> EM </s>
-0.6021 <s> ENTER THAT
-0.6021 <s> ENTER THE
-0.3010 <s> EXIT EXIT
-0.3010 <s> FILING CABINET
-0.3010 <s> FINDING THE
-0.3010 <s> FIVE S
-0.7782 <s> FOUND ANOTHER
-0.7782 <s> FOUND NUMBER
-0.7782 <s> FOUND THE
-0.7782 <s> FOUR </s>
-0.7782 <s> FOUR SIX
-0.7782 <s> FOUR WAS
-0.6021 <s> GO BACK
-0.9031 <s> GO STRAIGHT
-0.9031 <s> GO THROUGH
-1.1461 <s> GOT A
-1.1461 <s> GOT ANOTHER
-0.8451 <s> GOT IT
-0.8451 <s> GOT THAT
-1.1461 <s> GOT TO
-0.6021 <s> GOTCHA </s>
-0.6021 <s> GOTCHA OKAY
-0.3010 <s> GRAB THE
-0.3010 <s> GREEN BOX
-0.3010 <s> HALLWAY </s>
-0.3010 <s> HANG ON
-0.3010 <s> HELLO </s>
-0.3010 <s> HHH </s>
-0.3010 <s> HM </s>
-0.3010 <s> HOLD ON
-0.3010 <s> HOW MANY
-0.6021 <s> HUH ALRIGHT
-0.6021 <s> HUH THAT'S
-1.6812 <s> I </s>
-1.6812 <s> I AM
-1.6812 <s> I DID
-1.6812 <s> I DO
-1.3802 <s> I DON'T
-1.6812 <s> I FOUND
-1.3802 <s> I GOT
-1.6812 <s> I GRAB
-1.2041 <s> I GUESS
-1.6812 <s> I ITS
-0.9823 <s> I SEE
-1.6812 <s> I STILL
-1.3802 <s> I THINK
-1.6812 <s> I WALK
-1.6812 <s> I WALKED
-0.3010 <s> I'LL LOOK
-1.4150 <s> I'M BACK
-1.4150 <s> I'M FACING
-0.9379 <s> I'M GONNA
-1.4150 <s> I'M NOT
-1.4150 <s> I'M OUTTA
-1.4150 <s> I'M PUTTING
-1.4150 <s> I'M SEEING
-1.1139 <s> I'M TAKING
-1.4150 <s> I'M TRYIN
-1.4150 <s> I'M WALKING
-0.3010 <s> I'VE GOT
-0.6021 <s> IF SO
-0.6021 <s> IF YOU
-0.3010 <s> IGNORE </s>
-0.3010 <s> IMMEDIATELY I
-1.2041 <s> IN EACH
-1.2041 <s> IN THAT
-0.5051 <s> IN THE
-1.2041 <s> IN THIS
-0.6532 <s> IS IT
-1.2553 <s> IS THAT
-0.7782 <s> IS THERE
-1.2553 <s> IS WHERE
-0.4771 <s> IT IS
-0.7782 <s> IT THERE'S
-1.3222 <s> IT'S A
-1.6232 <s> IT'S ACTUALLY
-1.6232 <s> IT'S CLOSED
-1.3222 <s> IT'S IN
-1.6232 <s> IT'S LIKE
-1.3222 <s> IT'S NUMBER
-1.6232 <s> IT'S OH
-0.8451 <s> IT'S ON
-1.6232 <s> IT'S RIGHT
-1.3222 <s> IT'S THE
-1.6232 <s> IT'S TUH
-1.6232 <s> IT'S UH
-0.9031 <s> JUST PAST
-0.9031 <s> JUST PICK
-0.9031 <s> JUST THE
-0.9031 <s> JUST WELL
-1.3802 <s> KAY </s>
-1.0792 <s> KAY DO
-1.3802 <s> KAY JUST
-1.3802 <s> KAY KEEP
-1.3802 <s> KAY NOW
-1.0792 <s> KAY ONCE
-1.3802 <s> KAY PINK
-1.3802 <s> KAY THAT
-1.3802 <s> KAY THERE'S
-1.3802 <s> KAY UM
-0.3010 <s> KEEP YOUR
-0.6021 <s> LEFT </s>
-0.6021 <s> LEFT WALL
-0.3010 <s> LEFTHAND ROOM
-0.3010 <s> LET ME
-0.3010 <s> LET'S SEE
-0.6021 <s> LIKE BIG
-0.6021 <s> LIKE RIGHT
-0.3010 <s> LOOK BACK
-0.3010 <s> LOOKS LIKE
-0.3010 <s> LOT FASTER
-0.3010 <s> MAYBE MY
-0.3010 <s> MHM </s>
-0.3010 <s> MHMM </s>
-0.6021 <s> MKAY </s>
-0.6021 <s> MKAY WHERE'S
-0.7782 <s> MM ALRIGHT
-0.7782 <s> MM CART
-0.7782 <s> MM THE
-0.3010 <s> MMM WELL
-0.3010 <s> NEED TO
-1.3010 <s> NO </s>
-1.3010 <s> NO GREEN
-1.3010 <s> NO IT'S
-1.0000 <s> NO NO
-0.8239 <s> NO THERE'S
-1.3010 <s> NO WE
-1.3010 <s> NO YOU'RE
-0.7782 <s> NOT IN
-0.7782 <s> NOT INT
-0.7782 <s> NOT THAT
-0.9031 <s> NOW GO
-0.9031 <s> NOW TH
-0.9031 <s> NOW THAT'S
-0.9031 <s> NOW YOU
-0.9031 <s> NUMBER EIGHT
-1.2041 <s> NUMBER FIVE
-0.9031 <s> NUMBER ONE
-1.2041 <s> NUMBER SEVEN
-1.2041 <s> NUMBER SIX
