Language model created by QuickLM on Fri Mar  6 14:30:46 EST 2009
Copyright (c) 1996-2000
Carnegie Mellon University and Alexander I. Rudnicky

This model based on a corpus of 814 sentences and 571 words
The (fixed) discount mass is 0.5


\data\
ngram 1=571
ngram 2=3205
ngram 3=5358

\1-grams:
-1.3527 </s> -0.3010
-1.3527 <s> -0.1581
-1.9516 A -0.2383
-3.1494 ABOUT -0.2728
-4.2634 ACCORDING -0.2975
-3.5644 ACROSS -0.2818
-3.4183 ACTUALLY -0.2927
-3.7862 AFTER -0.2978
-3.6613 AGAIN -0.2781
-3.3091 AGAINST -0.2849
-3.7862 AH -0.2955
-3.0592 AHEAD -0.2638
-4.2634 ALARM -0.3010
-2.9209 ALL -0.2785
-3.9623 ALMOST -0.2998
-4.2634 ALOT -0.2982
-3.9623 ALREADY -0.2810
-2.4060 ALRIGHT -0.2183
-4.2634 ALRIGHTY -0.2813
-4.2634 ALRRIGHT -0.3007
-3.2634 ALSO -0.2575
-3.4852 AM -0.2775
-3.3091 AN -0.2759
-4.2634 AN' -0.2813
-2.0730 AND -0.1830
-2.7319 ANOTHER -0.2849
-3.5644 ANY -0.2954
-4.2634 ANYMORE -0.2994
-3.7862 ANYTHING -0.2783
-4.2634 ANYWAY -0.2813
-3.9623 ANYWHERE -0.2808
-4.2634 AP -0.2986
-2.9623 ARE -0.2675
-4.2634 ARIGHT -0.2813
-3.0329 AROUND -0.2582
-2.8831 AS -0.2737
-2.7720 AT -0.2573
-4.2634 ATTACHMENT -0.2813
-3.4852 AWAY -0.3004
-4.2634 B -0.2813
-2.5558 BACK -0.2609
-4.2634 BACKTRACK -0.2813
-3.9623 BARRIER -0.2644
-4.2634 BASE -0.2982
-3.4183 BASICALLY -0.2850
-2.6506 BE -0.2370
-4.2634 BECAUSE -0.2986
-3.9623 BEEN -0.3002
-3.3603 BEFORE -0.2746
-3.4852 BEHIND -0.2815
-4.2634 BELIEVE -0.3010
-3.9623 BEND -0.2781
-4.2634 BETWEEN -0.2849
-3.6613 BIG -0.2980
-4.2634 BIGGER -0.2986
-3.9623 BIT -0.2812
-3.9623 BL -0.2773
-3.9623 BLAH -0.2995
-3.2634 BLOCK -0.2741
-2.8654 BLOCKS -0.2705
-2.3443 BLUE -0.2681
-3.9623 BO -0.2964
-3.9623 BOOK -0.2968
-3.0873 BOOKSHELF -0.2706
-4.2634 BOOKSHELFS -0.3008
-4.2634 BOOKSHELVES -0.2978
-3.7862 BOTH -0.2981
-3.7862 BOTTOM -0.3007
-1.9667 BOX -0.1882
-2.6199 BOXES -0.2556
-3.4852 BROWN -0.2956
-4.2634 BUNCH -0.2982
-4.2634 BUSY -0.3010
-3.0081 BUT -0.2673
-3.1842 BY -0.2835
-3.2220 CABINET -0.2691
-3.3603 CABINETS -0.2744
-3.3091 CAME -0.2720
-3.3091 CAN -0.2949
-3.9623 CAN'T -0.3008
-3.9623 CARBOARD -0.2764
-2.8654 CARDBOARD -0.2746
-4.2634 CARE -0.2982
-2.9846 CART -0.2611
-2.9016 CHAIR -0.2648
-2.8484 CHAIRS -0.2595
-4.2634 CHANGED -0.2961
-4.2634 CHART -0.3007
-3.7862 CHECK -0.2849
-3.7862 CHIP -0.2781
-4.2634 CHIPS -0.3005
-3.9623 CLOSE -0.2927
-4.2634 CLOSED -0.2813
-4.2634 CLOSEST -0.2995
-3.5644 CLOSET -0.2727
-4.2634 CLOSETS -0.2968
-3.9623 COLLECTING -0.2843
-4.2634 COLOR -0.2963
-3.3603 COME -0.2729
-4.2634 COMIN' -0.2998
-4.2634 COMING -0.3002
-4.2634 COMPLETE -0.3009
-4.2634 COMPLETELY -0.2968
-3.9623 COMPUTER -0.3006
-3.9623 COMPUTERS -0.2972
-3.6613 CONTINUE -0.2769
-4.2634 CORDER -0.2813
-2.7582 CORNER -0.2576
-4.2634 CREEPY -0.3010
-3.9623 CURVE -0.2807
-4.2634 CUZ -0.3003
-4.2634 D'YA -0.3009
-4.2634 D'YOU -0.3006
-4.2634 DA -0.2978
-3.9623 DE -0.2644
-3.4852 DEAD -0.3003
-4.2634 DEGREE -0.2990
-4.2634 DEGREES -0.3004
-3.2634 DESK -0.2744
-3.5644 DESKS -0.2767
-4.2634 DIAGRAM -0.2982
-3.5644 DID -0.2938
-3.4852 DIRECTLY -0.2894
-4.2634 DISTANCE -0.3010
-2.6613 DO -0.2627
-3.6613 DOES -0.2814
-3.1494 DON'T -0.2965
-3.9623 DONE -0.2808
-2.4572 DOOR -0.2321
-4.2634 DOOR'S -0.3010
-3.9623 DOORPOST -0.2806
-2.9623 DOORWAY -0.2577
-3.9623 DOUBLE -0.2998
-3.4183 DOWN -0.2571
-4.2634 DUH -0.2813
-3.7862 DUMP -0.2848
-4.2634 E -0.3010
-3.1842 EACH -0.2754
-4.2634 EASY -0.3010
-4.2634 EBERHARD -0.2849
-3.9623 EDGE -0.2783
-3.9623 EH -0.2813
-3.1494 EIGHT -0.2761
-3.9623 EIGHTH -0.2963
-4.2634 EITHER -0.3009
-4.2634 ELECTRODE -0.3010
-4.2634 ELSE -0.3001
-3.7862 EM -0.2806
-4.2634 EMERGENC -0.2986
-4.2634 EMPTY -0.2849
-2.8010 END -0.2549
-3.7862 ENDS -0.2808
-4.2634 ENOUGH -0.2813
-3.5644 ENTER -0.2807
-4.2634 ENTERED -0.2849
-4.2634 ENTERING -0.2979
-4.2634 ENTIRE -0.2997
-3.4183 ER -0.2703
-4.2634 EVERY -0.3010
-4.2634 EXIST -0.2813
-3.2220 EXIT -0.2665
-4.2634 EYE -0.3005
-3.7862 EYES -0.2813
-3.7862 F -0.2899
-3.3603 FACING -0.2789
-4.2634 FACT -0.2995
-4.2634 FALSE -0.3008
-3.4183 FAR -0.2979
-4.2634 FARTHEST -0.2975
-4.2634 FASTER -0.2813
-3.7862 FEET -0.2966
-4.2634 FER -0.2849
-4.2634 FI -0.3008
-3.9623 FIFTH -0.2963
-3.0081 FILING -0.3006
-3.6613 FILL -0.2805
-4.2634 FILLING -0.2995
-3.5644 FIND -0.2639
-4.2634 FINDIN' -0.2849
-4.2634 FINDING -0.2849
-3.6613 FINE -0.2730
-4.2634 FINISH -0.3009
-3.5644 FIRE -0.3008
-2.9209 FIRST -0.2798
-2.9846 FIVE -0.2759
-3.5644 FLOOR -0.2775
-4.2634 FOLLOW -0.2849
-3.9623 FOOT -0.3004
-4.2634 FOOTS -0.3010
-3.0873 FOR -0.2700
-3.9623 FORTY -0.3006
-3.4852 FORWARD -0.2757
-3.0592 FOUND -0.2723
-2.9411 FOUR -0.2602
-4.2634 FOUR'S -0.2961
-3.9623 FOURTH -0.2963
-3.9623 FRAME -0.2964
-2.8654 FROM -0.2536
-3.4852 FRONT -0.2982
-3.9623 FURTHER -0.3008
-3.9623 FURTHEST -0.2973
-4.2634 G -0.3009
-4.2634 GEEN -0.2963
-2.9623 GET -0.2635
-4.2634 GETTIN -0.2849
-3.7862 GETTING -0.3002
-4.2634 GIVE -0.3006
-2.3825 GO -0.2544
-4.2634 GOAL -0.3010
-3.7862 GOIN -0.2760
-4.2634 GOIN' -0.2979
-3.2220 GOING -0.2938
-2.9016 GONNA -0.2920
-3.5644 GOOD -0.2812
-2.5558 GOT -0.2376
-3.5644 GOTCHA -0.2766
-3.4852 GOTTA -0.2955
-4.2634 GR -0.3010
-3.4852 GRAB -0.2797
-4.2634 GREAT -0.2813
-2.4308 GREEN -0.2691
-3.0329 GUESS -0.2684
-4.2634 HALF -0.3007
-3.7862 HALL -0.2776
-2.5310 HALLWAY -0.2446
-3.3603 HAND -0.3004
-3.7862 HANG -0.2917
-3.7862 HAS -0.2961
-2.7582 HAVE -0.2350
-3.7862 HAVEN'T -0.3006
-3.4183 HEAD -0.2998
-4.2634 HEADING -0.2998
-3.5644 HEAR -0.2963
-4.2634 HELLO -0.2813
-3.0592 HERE -0.2485
-4.2634 HERE'S -0.3009
-4.2634 HEY -0.3006
-3.9623 HHH -0.2808
-3.7862 HIDDEN -0.2987
-4.2634 HM -0.2813
-4.2634 HMM -0.3005
-3.0873 HOLD -0.2966
-3.4852 HOW -0.2989
-4.2634 HUGE -0.3008
-3.7862 HUH -0.2788
-3.9623 HURRY -0.3006
-3.9623 HUSTLING -0.2971
-2.0512 I -0.2548
-3.4852 I'LL -0.3001
-2.4308 I'M -0.2779
-3.1842 I'VE -0.2995
-2.9411 IF -0.2862
-4.2634 IGNORE -0.2849
-3.4852 IMMEDIATELY -0.2891
-2.1494 IN -0.2262
-4.2634 INCHES -0.3009
-4.2634 INCLUDES -0.2849
-4.2634 INDICATED -0.2813
-4.2634 INS -0.3009
-3.4852 INSIDE -0.2956
-4.2634 INSTEAD -0.2982
-3.7862 INSTRUCTIONS -0.2809
-4.2634 INT -0.3007
-2.7582 INTO -0.2751
-2.3825 IS -0.2109
-2.4121 IT -0.2443
-2.4572 IT'S -0.2225
-4.2634 ITS -0.2975
-4.2634 JUS -0.2995
-2.7862 JUST -0.2648
-3.1842 KAY -0.2692
-3.3091 KEEP -0.2950
-4.2634 KINDA -0.3010
-4.2634 KINDS -0.2991
-3.1494 KNOW -0.2531
-4.2634 L -0.3006
-3.3603 LADDER -0.2683
-3.9623 LADDERS -0.2809
-4.2634 LATER -0.2813
-4.2634 LEAD -0.2968
-3.9623 LEADING -0.2969
-4.2634 LEADS -0.2975
-3.6613 LEAVE -0.2961
-4.2634 LEF -0.2995
-2.3339 LEFT -0.2161
-3.9623 LEFTHAND -0.2982
-3.6613 LET -0.3006
-3.6613 LET'S -0.2979
-2.9846 LIKE -0.2451
-4.2634 LINTEL -0.2982
-4.2634 LISTEN -0.2813
-4.2634 LISTENING -0.2813
-2.9846 LITTLE -0.2907
-3.9623 LOCATED -0.2975
-3.4183 LOOK -0.2983
-3.4852 LOOKING -0.2951
-4.2634 LOOKS -0.3006
-4.2634 LOT -0.3010
-4.2634 M -0.3009
-3.9623 MAKE -0.2953
-3.6613 MANY -0.2989
-3.4183 MAP -0.2804
-4.2634 MARK -0.3010
-3.9623 MARKED -0.2966
-4.2634 MAY -0.3003
-3.7862 MAYBE -0.2993
-4.2634 MBOOKSHELVES -0.3010
-3.0081 ME -0.2545
-4.2634 MEAN -0.2813
-4.2634 METAL -0.3007
-4.2634 MHM -0.2813
-4.2634 MHMM -0.2813
-3.9623 MIDDLE -0.3005
-4.2634 MIGHT -0.3001
-3.5644 MINUTE -0.2990
-3.0873 MINUTES -0.2706
-4.2634 MIRROR -0.2973
-3.9623 MKAY -0.2811
-3.7862 MM -0.2826
-4.2634 MMM -0.3007
-3.5644 MORE -0.2978
-4.2634 MOVE -0.2992
-4.2634 MUCH -0.3009
-2.8010 MY -0.2960
-3.9623 N -0.2990
-4.2634 NE -0.3003
-3.7862 NEAR -0.2849
-3.1172 NEED -0.2671
-3.9623 NEEDS -0.2983
-2.7448 NEXT -0.2715
-2.9209 NO -0.2662
-3.0873 NOT -0.2673
-2.7319 NOW -0.2563
-2.4925 NUMBER -0.2666
-4.2634 NUMBERS -0.2966
-3.7862 O -0.2643
-2.1806 OF -0.2567
-3.7862 OFF -0.2816
-3.4852 OFFICE -0.2727
-3.7862 OFFICES -0.2925
-3.0329 OH -0.2561
-3.9623 OK -0.2971
-2.1699 OKAY -0.2033
-3.6613 OLD -0.2973
-1.9962 ON -0.2372
-3.7862 ONCE -0.2929
-2.1952 ONE -0.2276
-3.9623 ONE'S -0.2813
-3.3091 ONES -0.2684
-3.4183 ONLY -0.2935
-4.2634 OOR -0.2813
-3.1172 OPEN -0.2744
-4.2634 OPENS -0.2813
-3.9623 OPPOSITE -0.2843
-2.8010 OR -0.2342
-3.0329 OTHER -0.2601
-3.6613 OUR -0.3000
-2.9411 OUT -0.2527
-3.5644 OUTTA -0.2792
-3.9623 OVER -0.2984
-3.6613 PAIR -0.2783
-4.2634 PART -0.2982
-4.2634 PASS -0.2849
-3.1172 PAST -0.2565
-3.9623 PEELED -0.3007
-3.4852 PICK -0.2973
-4.2634 PICKED -0.3006
-4.2634 PIECES -0.3009
-2.4504 PINK -0.2639
-3.3091 PLATFORM -0.2714
-4.2634 PLATFORMS -0.3003
-4.2634 PLENTY -0.2982
-3.7862 POINT -0.2767
-4.2634 POINTED -0.3005
-4.2634 POST -0.2813
-4.2634 PRETTY -0.3010
-4.2634 PROFESSOR -0.3010
-4.2634 PULL -0.2849
-4.2634 PUSHED -0.3006
-3.0592 PUT -0.2685
-4.2634 PUTTING -0.3002
-4.2634 QUESTIONS -0.3007
-4.2634 QUICK -0.3003
-3.9623 QUICKLY -0.2809
-3.9623 REACH -0.2849
-3.7862 REALLY -0.3008
-4.2634 RECEIVING -0.3010
-4.2634 RELATION -0.2975
-4.2634 REMAINING -0.3009
-3.6613 REMEMBER -0.2636
-4.2634 REST -0.2982
-2.1989 RIGHT -0.2401
-4.2634 RIGHTSIDE -0.2982
-2.2590 ROOM -0.2109
-3.9623 RYAN -0.2967
-3.9623 S -0.2991
-3.2634 SAID -0.2661
-4.2634 SAME -0.3008
-3.9623 SAY -0.2967
-3.9623 SAYS -0.2996
-4.2634 SE -0.3000
-2.7070 SECOND -0.2607
-4.2634 SECONDS -0.2813
-2.4852 SEE -0.2420
-3.7862 SEEING -0.2963
-4.2634 SEEN -0.3010
-3.9623 SEND -0.2968
-3.9623 SET -0.2982
-3.1172 SEVEN -0.2682
-4.2634 SEVEN'S -0.2966
-3.7862 SEVENTH -0.2764
-3.6613 SH -0.2811
-4.2634 SHE -0.3008
-3.1172 SHELF -0.2703
-3.9623 SHELVES -0.3008
-4.2634 SHIT -0.2986
-2.6101 SHOULD -0.2900
-4.2634 SHOULD'VE -0.3010
-4.2634 SHOWIN -0.2961
-2.9846 SIDE -0.2480
-3.9623 SINGLE -0.2975
-3.7862 SITTING -0.2966
-3.1842 SIX -0.2762
-3.4852 SIXTH -0.2727
-3.6613 SLIGHT -0.2983
-4.2634 SLIGHTLY -0.2975
-3.4852 SMALL -0.2986
-4.2634 SNAGGED -0.3008
-4.2634 SNAGGING -0.2978
-2.4438 SO -0.2199
-3.6613 SOME -0.2955
-4.2634 SOMETHIN -0.2813
-4.2634 SOMETHING -0.2978
-3.9623 SON -0.2783
-3.9623 SOON -0.3005
-4.2634 SORRY -0.2963
-3.9623 SORT -0.2783
-4.2634 SOUND -0.3010
-3.9623 SPOT -0.2993
-3.2220 STACK -0.2932
-3.7862 STACKS -0.2982
-4.2634 STAIR -0.2966
-3.7862 STAIRS -0.2813
-4.2634 STAND -0.2975
-4.2634 STANDARD -0.3010
-3.6613 STANDING -0.2945
-3.7862 START -0.3009
-4.2634 STARTED -0.2988
-3.9623 STARTING -0.2979
-3.9623 STAY -0.2983
-3.5644 STEP -0.2754
-4.2634 STEPPED -0.3005
-3.2634 STEPS -0.2686
-4.2634 STI -0.2813
-3.3603 STILL -0.2970
-4.2634 STOP -0.2973
-2.7862 STRAIGHT -0.2746
-4.2634 STUFF -0.2813
-3.6613 SUPPOSED -0.2975
-3.9623 SURE -0.2969
-3.6613 T -0.2790
-3.5644 TABLE -0.2764
-4.2634 TABLES -0.2966
-2.9846 TAKE -0.2746
-4.2634 TAKEN -0.2849
-3.5644 TAKING -0.2793
-4.2634 TALKING -0.2975
-4.2634 TAS -0.2978
-3.6613 TASK -0.2802
-3.7862 TESTING -0.2986
-3.3603 TH -0.2558
-2.1298 THAT -0.2151
-2.8162 THAT'S -0.2642
-1.4373 THE -0.1807
-3.5644 THEM -0.2671
-2.6006 THEN -0.2222
-2.2811 THERE -0.2491
-2.2590 THERE'S -0.2336
-4.2634 THEY -0.3009
-4.2634 THING -0.3006
-3.4183 THINK -0.2793
-3.9623 THIRD -0.2991
-3.0873 THIS -0.2650
-3.3603 THOSE -0.2713
-3.7862 THOUGH -0.2964
-4.2634 THR -0.3003
-2.7582 THREE -0.2628
-2.7448 THROUGH -0.2483
-4.2634 THROUGHOUT -0.2849
-3.6613 TIME -0.2916
-3.7862 TIME'S -0.3005
-2.0873 TO -0.2294
-3.6613 TOLD -0.2959
-3.6613 TOO -0.2813
-3.9623 TOOK -0.2961
-3.4852 TOP -0.2783
-4.2634 TOTAL -0.2813
-3.9623 TOWARD -0.2815
-3.7862 TOWARDS -0.2836
-4.2634 TRY -0.2975
-4.2634 TRYIN -0.2975
-4.2634 TUH -0.2849
-2.8654 TURN -0.2700
-3.7862 TURNED -0.2983
-3.9623 TURNING -0.2990
-3.5644 TURNS -0.2583
-2.6836 TWO -0.2632
-2.3443 UH -0.2090
-4.2634 UHF -0.2997
-4.2634 UHUH -0.2813
-2.4572 UM -0.2146
-4.2634 UNDER -0.2983
-4.2634 UNDERNEATH -0.2849
-4.2634 UNDERSTAND -0.2998
-4.2634 UNLESS -0.2968
-3.6613 UNTIL -0.2769
-3.0081 UP -0.2621
-4.2634 UUM -0.2813
-3.6613 VERY -0.3002
-4.2634 W -0.2998
-3.6613 WAIT -0.2890
-3.2220 WALK -0.2936
-3.2634 WALKED -0.2953
-3.4852 WALKING -0.2939
-2.9209 WALL -0.2568
-3.2634 WANNA -0.2973
-3.3091 WANT -0.2769
-2.6613 WAS -0.2341
-3.3091 WAY -0.2865
-2.8010 WE -0.2942
-3.9623 WE'LL -0.3007
-3.2634 WE'RE -0.2988
-3.6613 WE'VE -0.2995
-3.0873 WELL -0.2633
-3.4852 WENT -0.2949
-3.4183 WERE -0.2711
-3.9623 WH -0.2994
-2.9846 WHAT -0.2562
-4.2634 WHAT'S -0.2849
-3.9623 WHATEVER -0.2968
-3.2634 WHEN -0.2922
-2.5644 WHERE -0.2436
-3.3603 WHERE'S -0.2828
-3.4852 WHICH -0.2977
-4.2634 WHILE -0.3010
-4.2634 WHOLE -0.3009
-4.2634 WILL -0.3010
-3.6613 WINDOW -0.2742
-2.9411 WITH -0.2763
-4.2634 WONDERFUL -0.2993
-3.9623 WOODEN -0.3008
-4.2634 WORTH -0.2982
-3.6613 WOULD -0.2941
-4.2634 WOW -0.2981
-4.2634 WRITE -0.3007
-3.9623 WRONG -0.2962
-3.9623 Y -0.3006
-4.2634 YA -0.3010
-3.2634 YAH -0.2757
-3.9623 YE -0.2810
-2.5152 YEAH -0.2249
-2.9623 YELLOW -0.2701
-3.2634 YEP -0.2666
-3.0873 YES -0.2699
-3.6613 YET -0.2755
-2.0105 YOU -0.2349
-3.7862 YOU'LL -0.2996
-2.9846 YOU'RE -0.2708
-4.2634 YOU'VE -0.3010
-4.2634 YOULL -0.3008
-2.9209 YOUR -0.2935

\2-grams:
-2.6096 <s> A -0.2714
-3.2117 <s> ABOUT -0.2663
-3.2117 <s> ACTUALLY -0.2688
-3.2117 <s> AH -0.2218
-3.2117 <s> ALL -0.1047
-3.2117 <s> ALMOST -0.1761
-1.4635 <s> ALRIGHT -0.0235
-2.7345 <s> AN -0.2218
-1.5041 <s> AND -0.1172
-3.2117 <s> ANY -0.2553
-3.2117 <s> AP 0.0000
-2.6096 <s> ARE -0.1614
-3.2117 <s> ARIGHT 0.0000
-2.9106 <s> AT -0.0997
-3.2117 <s> BE -0.2957
-3.2117 <s> BEHIND -0.0669
-3.2117 <s> BIG -0.1761
-2.9106 <s> BLUE -0.1021
-3.2117 <s> BOX -0.2999
-2.7345 <s> BUT -0.2632
-2.9106 <s> BY -0.0669
-2.9106 <s> CAN -0.2499
-3.2117 <s> CART -0.2126
-3.2117 <s> D'YA 0.0000
-3.2117 <s> D'YOU 0.0000
-2.9106 <s> DID -0.0792
-2.0655 <s> DO -0.1055
-2.9106 <s> DON'T -0.2083
-3.2117 <s> DUMP -0.2218
-3.2117 <s> E 0.0000
-3.2117 <s> EACH -0.2218
-3.2117 <s> EH -0.1761
-3.2117 <s> EM -0.2218
-2.9106 <s> ENTER -0.0792
-3.2117 <s> EXIT -0.2808
-3.2117 <s> FILING -0.1597
-3.2117 <s> FINDING 0.0000
-3.2117 <s> FIVE -0.2894
-2.7345 <s> FOUND -0.0746
-2.7345 <s> FOUR -0.1829
-2.6096 <s> GO -0.1836
-2.3666 <s> GOT -0.1845
-2.9106 <s> GOTCHA -0.0792
-3.2117 <s> GRAB -0.1761
-2.7345 <s> GREEN -0.1265
-3.2117 <s> HALLWAY -0.1814
-3.2117 <s> HANG -0.1249
-3.2117 <s> HELLO 0.0000
-3.2117 <s> HHH -0.1761
-3.2117 <s> HM 0.0000
-2.6096 <s> HOLD 0.0000
-3.2117 <s> HOW -0.1249
-2.9106 <s> HUH -0.1249
-1.7645 <s> I -0.1438
-3.2117 <s> I'LL -0.2632
-2.0356 <s> I'M -0.1761
-2.9106 <s> I'VE -0.0969
-2.9106 <s> IF -0.1691
-3.2117 <s> IMMEDIATELY -0.2632
-2.3086 <s> IN -0.1389
-2.2574 <s> IS -0.2196
-2.7345 <s> IT -0.2918
-1.8894 <s> IT'S -0.1181
-2.6096 <s> JUST -0.2389
-2.1325 <s> KAY 0.0000
-2.9106 <s> KEEP -0.2218
-2.9106 <s> LEFT -0.1744
-3.2117 <s> LEFTHAND -0.1761
-2.9106 <s> LET 0.0000
-3.2117 <s> LET'S -0.1761
-2.9106 <s> LIKE -0.2775
-3.2117 <s> LOOK -0.2688
-3.2117 <s> LOOKS 0.0000
-3.2117 <s> LOT 0.0000
-3.2117 <s> MAYBE -0.2218
-3.2117 <s> MHM 0.0000
-3.2117 <s> MHMM 0.0000
-2.9106 <s> MKAY 0.0000
-2.7345 <s> MM 0.0000
-3.2117 <s> MMM 0.0000
-3.2117 <s> NEED -0.1549
-2.2117 <s> NO -0.1047
-2.7345 <s> NOT -0.2389
-2.6096 <s> NOW -0.2244
-2.3086 <s> NUMBER -0.1430
-2.9106 <s> O -0.1249
-2.0356 <s> OH -0.0248
-3.2117 <s> OK -0.1761
-1.2031 <s> OKAY -0.0138
-1.9564 <s> ON -0.1130
-2.6096 <s> ONE -0.2285
-3.2117 <s> OPEN -0.2852
-2.9106 <s> OR -0.2780
-2.9106 <s> PICK -0.1761
-3.2117 <s> PUT -0.2272
-2.9106 <s> QUICKLY 0.0000
-3.2117 <s> REMEMBER -0.2430
-2.2117 <s> RIGHT -0.1884
-3.2117 <s> SAY -0.1761
-3.2117 <s> SEE -0.2863
-3.2117 <s> SEVEN -0.2156
-3.2117 <s> SH -0.2430
-3.2117 <s> SHIT 0.0000
-2.9106 <s> SHOULD -0.0628
-3.2117 <s> SIXTH -0.2632
-3.2117 <s> SNAGGING 0.0000
-1.8894 <s> SO -0.1536
-3.2117 <s> SON -0.1761
-3.2117 <s> STAY 0.0000
-3.2117 <s> STRAIGHT -0.2937
-2.9106 <s> TH -0.2430
-2.9106 <s> THAT -0.2848
-2.3666 <s> THAT'S -0.1656
-2.0655 <s> THE -0.2624
-2.3086 <s> THEN -0.1761
-2.4335 <s> THERE -0.1880
-1.8894 <s> THERE'S -0.0712
-2.7345 <s> THREE -0.2024
-3.2117 <s> THROUGHOUT 0.0000
-3.2117 <s> TIME'S -0.2218
-2.6096 <s> TO -0.1722
-2.9106 <s> TWO -0.2653
-1.6676 <s> UH -0.0895
-3.2117 <s> UHF 0.0000
-3.2117 <s> UHUH 0.0000
-1.6206 <s> UM -0.0689
-3.2117 <s> UUM 0.0000
-3.2117 <s> WAIT -0.2430
-3.2117 <s> WALK -0.2596
-2.4335 <s> WE -0.0939
-2.9106 <s> WE'RE -0.2304
-2.7345 <s> WELL -0.2553
-3.2117 <s> WH -0.1761
-2.9106 <s> WHAT -0.2264
-2.9106 <s> WHEN -0.0414
-2.3666 <s> WHERE -0.1523
-2.9106 <s> WHERE'S -0.0969
-3.2117 <s> WHICH -0.2218
-3.2117 <s> WITH -0.2906
-3.2117 <s> WRITE 0.0000
-3.2117 <s> YE -0.1761
-1.6319 <s> YEAH -0.0077
-2.2117 <s> YEP 0.0000
-2.1325 <s> YES -0.0280
-1.9812 <s> YOU -0.2199
-3.2117 <s> YOULL 0.0000
-3.2117 <s> YOUR -0.1891
-2.1357 A </s> -0.3010
-2.6128 A ALRIGHT -0.2980
-2.6128 A B 0.0000
-2.6128 A BIT -0.1761
-1.8346 A BLOCK -0.1139
-1.1214 A BLUE -0.1143
-2.3118 A BOOKSHELF -0.2553
-2.1357 A BOX -0.2750
-2.6128 A BROWN -0.0669
-2.6128 A BUNCH 0.0000
-2.6128 A CAME -0.2762
-2.6128 A CARBOARD -0.1761
-1.9138 A CART -0.1684
-1.6585 A CHAIR -0.0185
-2.6128 A CHAIRS -0.2926
-2.0107 A DESK -0.1761
-2.6128 A DISTANCE 0.0000
-1.6128 A DOOR -0.1761
-2.6128 A DOORWAY -0.2553
-2.6128 A F -0.2218
-2.6128 A FIRST -0.2910
-2.6128 A GEEN 0.0000
-1.2511 A GREEN -0.0651
-2.6128 A HALF 0.0000
-2.1357 A HALLWAY -0.1652
-2.6128 A HIDDEN -0.2218
-2.6128 A IF -0.1829
-2.0107 A IT'S -0.2232
-2.6128 A KINDA 0.0000
-2.1357 A LADDER -0.1761
-2.0107 A LEFT -0.1744
-2.0107 A LITTLE -0.1836
-2.6128 A MIRROR 0.0000
-2.6128 A NUMBER -0.2973
-2.6128 A ONE -0.2821
-2.0107 A PAIR 0.0000
-1.2906 A PINK -0.0902
-2.3118 A PLATFORM -0.2499
-2.6128 A QUICK 0.0000
-1.6128 A RIGHT -0.2097
-2.6128 A ROOM -0.2767
-1.8346 A SECOND -0.2566
-2.3118 A SET 0.0000
-2.3118 A SHELF -0.1549
-2.6128 A SINGLE -0.1761
-2.6128 A SLIGHT 0.0000
-2.6128 A SMALL 0.0000
-1.8346 A STACK -0.0378
-2.6128 A STANDARD 0.0000
-2.3118 A TABLE -0.2041
-2.6128 A TAKE -0.1684
-2.6128 A THERE'S -0.1804
-2.6128 A TURN -0.2355
-2.3118 A WHAT -0.2398
-2.6128 A WOODEN 0.0000
-2.0107 A YELLOW -0.2553
-1.1139 ABOUT </s> -0.3010
-1.4150 ABOUT FORTY 0.0000
-1.1139 ABOUT MAYBE -0.1249
-1.4150 ABOUT ONE -0.2973
-1.4150 ABOUT THREE -0.2430
-1.1139 ABOUT TO -0.2952
-0.8129 ABOUT TWO -0.2653
-0.3010 ACCORDING TO -0.1799
-0.5229 ACROSS FROM -0.1072
-1.0000 ACROSS THE -0.2929
-1.0000 ACROSS THERE'S -0.2923
-0.8451 ACTUALLY GO -0.2953
-1.1461 ACTUALLY I -0.2635
-1.1461 ACTUALLY NOT -0.2863
-1.1461 ACTUALLY SEE -0.2937
-1.1461 ACTUALLY SITTING 0.0000
-1.1461 ACTUALLY THREE -0.2872
-0.7782 AFTER COMING 0.0000
-0.4771 AFTER THAT -0.2764
-0.9031 AGAIN </s> -0.3010
-0.9031 AGAIN GREEN -0.1265
-0.9031 AGAIN INTO -0.1076
-0.9031 AGAIN STRAIGHT -0.2218
-0.3010 AGAINST THE -0.2912
-0.7782 AH ALRIGHT -0.2857
-0.7782 AH TO -0.1799
-0.7782 AH WE'RE -0.2788
-0.9031 AHEAD </s> -0.3010
-1.0280 AHEAD AND -0.2795
-1.5051 AHEAD FINDIN' 0.0000
-1.5051 AHEAD I -0.2635
-0.8062 AHEAD OF -0.2808
-1.5051 AHEAD THERE'S -0.2989
-1.5051 AHEAD TO -0.2967
-0.3010 ALARM WILL 0.0000
-1.6435 ALL KINDS 0.0000
-1.0414 ALL OF -0.1676
-1.6435 ALL THAT -0.2994
-0.4393 ALL THE -0.2715
-0.6021 ALMOST ALL -0.2596
-0.6021 ALMOST STRAIGHT -0.2863
-0.3010 ALOT OF -0.1773
-0.6021 ALREADY </s> -0.3010
-0.6021 ALREADY OPEN -0.2852
-1.4594 ALRIGHT </s> -0.3010
-2.1584 ALRIGHT ALRIGHT -0.2857
-2.1584 ALRIGHT AN -0.2762
-1.5563 ALRIGHT AND -0.2537
-2.1584 ALRIGHT AS -0.2825
-2.1584 ALRIGHT CONTINUE -0.2430
-2.1584 ALRIGHT GET -0.2304
-2.1584 ALRIGHT GO -0.2865
-2.1584 ALRIGHT HEAD -0.0580
-2.1584 ALRIGHT HEY 0.0000
-1.8573 ALRIGHT HOLD 0.0000
-2.1584 ALRIGHT HOW -0.2632
-1.2041 ALRIGHT I -0.1926
-2.1584 ALRIGHT I'LL -0.2632
-1.6812 ALRIGHT I'M -0.2913
-1.8573 ALRIGHT I'VE -0.0669
-1.8573 ALRIGHT IF -0.1249
-2.1584 ALRIGHT LET'S -0.2430
-1.3802 ALRIGHT NOW -0.2244
-2.1584 ALRIGHT NUMBER -0.2705
-2.1584 ALRIGHT ON -0.1690
-2.1584 ALRIGHT OUR -0.2430
-1.2041 ALRIGHT SO -0.2297
-2.1584 ALRIGHT START -0.2218
-2.1584 ALRIGHT T -0.2430
-2.1584 ALRIGHT THAT -0.2764
-2.1584 ALRIGHT THE -0.2994
-2.1584 ALRIGHT THEN -0.2768
-1.8573 ALRIGHT THERE'S -0.1747
-2.1584 ALRIGHT UH -0.2904
-2.1584 ALRIGHT UM -0.2976
-2.1584 ALRIGHT WE'LL -0.1761
-2.1584 ALRIGHT WE'VE -0.1761
-2.1584 ALRIGHT WELL -0.2863
-2.1584 ALRIGHT WHERE -0.2967
-1.6812 ALRIGHT YOU -0.2761
-0.3010 ALRIGHTY </s> -0.3010
-0.3010 ALRRIGHT HOLD 0.0000
-1.3010 ALSO </s> -0.3010
-0.6990 ALSO A -0.2397
-1.0000 ALSO ANOTHER -0.1761
-1.3010 ALSO IF -0.2906
-1.3010 ALSO SUPPOSED 0.0000
-1.3010 ALSO THE -0.2938
-1.0792 AM </s> -0.3010
-1.0792 AM AT -0.1214
-0.7782 AM HUSTLING 0.0000
-1.0792 AM RIGHT -0.2935
-1.0792 AM SEEING -0.1249
-1.2553 AN </s> -0.3010
-1.2553 AN EIGHT -0.1165
-1.2553 AN EMERGENC 0.0000
-1.2553 AN EXIT -0.2808
-1.2553 AN EYE 0.0000
-1.2553 AN IT'S -0.2976
-1.2553 AN OPEN -0.1761
-1.2553 AN PUT -0.2583
-1.2553 AN THERE -0.2988
-0.3010 AN' </s> -0.3010
-2.4914 AND </s> -0.3010
-1.7132 AND A -0.2107
-2.4914 AND AND -0.2911
-2.1903 AND AS -0.2109
-2.4914 AND AT -0.1214
-2.4914 AND BL -0.1761
-2.4914 AND BOX -0.2854
-2.4914 AND CHECK 0.0000
-2.4914 AND CONTINUE -0.2430
-2.4914 AND DO -0.1538
-2.4914 AND EMPTY 0.0000
-2.4914 AND EXIT -0.2139
-2.4914 AND FIVE -0.2126
-2.0142 AND GET -0.1139
-1.5371 AND GO -0.1566
-2.4914 AND GREEN -0.2747
-1.5371 AND I -0.2334
-2.4914 AND I'LL -0.2218
-1.7924 AND I'M -0.2781
-2.4914 AND I'VE -0.2825
-2.4914 AND IN -0.2062
-2.4914 AND IS -0.2775
-2.4914 AND IT -0.2886
-1.8893 AND IT'S -0.2507
-2.4914 AND KEEP -0.2762
-2.4914 AND LET 0.0000
-2.1903 AND LOOK -0.1963
-2.4914 AND LOOKING -0.2218
-2.4914 AND NOW -0.2609
-2.4914 AND NUMBER -0.2973
-2.4914 AND ON -0.1690
-2.4914 AND ONE -0.2782
-2.4914 AND OPEN -0.2852
-1.7924 AND PUT -0.1576
-2.4914 AND SAYS -0.1761
-2.1903 AND SO -0.2632
-2.0142 AND TAKE -0.1526
-2.1903 AND THAT'S -0.2430
-1.3774 AND THE -0.2659
-1.0934 AND THEN -0.0615
-1.7924 AND THERE -0.2052
-1.4914 AND THERE'S -0.1387
-2.4914 AND THROUGH -0.2944
-2.1903 AND TO -0.1799
-2.4914 AND TOWARDS -0.1249
-2.1903 AND TURN -0.2041
-2.4914 AND TWO -0.2715
-2.0142 AND UH -0.2740
-2.0142 AND UM -0.2657
-2.1903 AND WE -0.2004
-2.1903 AND WHAT -0.2398
-1.6463 AND YOU -0.2550
-0.8325 ANOTHER BLUE -0.0980
-1.5315 ANOTHER CLOSET -0.1461
-1.8325 ANOTHER DOORWAY -0.2553
-1.3554 ANOTHER GREEN -0.1265
-1.8325 ANOTHER HALLWAY -0.2970
-1.3554 ANOTHER ONE -0.2263
-1.5315 ANOTHER OPEN -0.1761
-0.9874 ANOTHER PINK -0.1062
-1.8325 ANOTHER RIGHT -0.2473
-1.5315 ANOTHER ROOM -0.2132
-1.8325 ANOTHER STEP -0.2553
-1.8325 ANOTHER YELLOW -0.2788
-1.0000 ANY BLUE -0.2656
-1.0000 ANY GREEN -0.1265
-1.0000 ANY MORE -0.2041
-1.0000 ANY OTHER -0.2881
-1.0000 ANY PINK -0.2553
-0.3010 ANYMORE GREEN -0.2747
-0.4771 ANYTHING </s> -0.3010
-0.7782 ANYTHING OF -0.1773
-0.3010 ANYWAY </s> -0.3010
-0.6021 ANYWHERE </s> -0.3010
-0.6021 ANYWHERE LIKE -0.2894
-0.3010 AP THERE'S -0.1804
-1.0000 ARE </s> -0.3010
-1.6021 ARE ENTERING 0.0000
-1.6021 ARE ONE -0.2935
-1.6021 ARE RIGHT -0.2954
-1.6021 ARE THERE -0.2988
-1.6021 ARE TWO -0.2953
-0.5607 ARE YOU -0.2837
-0.3010 ARIGHT </s> -0.3010
-1.2304 AROUND </s> -0.3010
-0.5772 AROUND AND -0.2394
-1.5315 AROUND HERE -0.1938
-1.5315 AROUND SO -0.2977
-0.9294 AROUND THE -0.2938
-1.0792 AS I -0.2792
-0.9031 AS I'M -0.2128
-1.3802 AS SOON 0.0000
-1.3802 AS THE -0.2872
-1.0792 AS WELL -0.2389
-1.2041 AS YOU -0.2862
-1.3802 AS YOU'RE -0.2775
-1.6812 AS YOU'VE 0.0000
-1.4914 AT </s> -0.3010
-1.7924 AT I'M -0.2848
-1.7924 AT NOW -0.2747
-1.7924 AT RIGHT -0.2973
-1.7924 AT TH -0.2730
-0.4702 AT THE -0.2642
-1.4914 AT THIS -0.2711
-1.7924 AT WHEN -0.1139
-1.7924 AT YOUR -0.2374
-0.3010 ATTACHMENT </s> -0.3010
-0.3010 AWAY FROM -0.0934
-0.3010 B </s> -0.3010
-1.1055 BACK </s> -0.3010
-2.0086 BACK ACROSS -0.2553
-2.0086 BACK ALRIGHT -0.2857
-1.4065 BACK AND -0.2882
-2.0086 BACK ANYWAY 0.0000
-2.0086 BACK AROUND -0.2881
-1.7076 BACK DOWN -0.1549
-2.0086 BACK HERE -0.2872
-1.7076 BACK IN -0.1827
-1.3096 BACK INTO -0.1076
-1.5315 BACK OUT -0.1402
-2.0086 BACK STEP -0.2553
-2.0086 BACK T -0.2430
-2.0086 BACK THEN -0.2817
-1.5315 BACK THROUGH -0.1627
-0.9672 BACK TO -0.1663
-2.0086 BACK TOWARD -0.1761
-2.0086 BACK TOWARDS -0.2218
-2.0086 BACK UH -0.2768
-2.0086 BACK UNTIL -0.0969
-2.0086 BACK UP -0.2361
-0.3010 BACKTRACK </s> -0.3010
-0.6021 BARRIER </s> -0.3010
-0.6021 BARRIER THE -0.2994
-0.3010 BASE OF -0.1773
-1.1461 BASICALLY ALL -0.1047
-1.1461 BASICALLY IF -0.2798
-1.1461 BASICALLY IN -0.2608
-1.1461 BASICALLY ON -0.1690
-1.1461 BASICALLY RIGHT -0.2992
-1.1461 BASICALLY WANNA -0.2788
-1.1461 BASICALLY YOU -0.2925
-1.9138 BE </s> -0.3010
-0.7097 BE A -0.2184
-1.6128 BE ANOTHER -0.2167
-1.9138 BE BOX -0.2999
-1.9138 BE BY -0.0669
-1.9138 BE COLLECTING -0.1761
-1.9138 BE IN -0.2926
-1.9138 BE LIKE -0.2527
-1.6128 BE ON -0.2867
-1.2148 BE ONE -0.2218
-1.9138 BE SH -0.2430
-1.9138 BE STAND 0.0000
-1.9138 BE SURE -0.1761
-1.4367 BE THE -0.2835
-1.6128 BE TWO -0.2775
-1.6128 BE UH -0.2684
-0.3010 BECAUSE THERE'S -0.2989
-0.6021 BEEN NEXT -0.1150
-0.6021 BEEN TOLD -0.2430
-0.7270 BEFORE I -0.2889
-1.2041 BEFORE IT -0.2949
-0.7270 BEFORE THE -0.2975
-1.2041 BEFORE YOU -0.2925
-1.0792 BEHIND THAT -0.2946
-0.3802 BEHIND THE -0.2889
-0.3010 BELIEVE SHE 0.0000
-0.6021 BEND </s> -0.3010
-0.6021 BEND IN -0.2062
-0.3010 BETWEEN THE -0.3001
-0.6021 BIG CARDBOARD -0.2833
-0.6021 BIG ROOM -0.2879
-0.3010 BIGGER ROOM -0.2767
-0.6021 BIT </s> -0.3010
-0.6021 BIT OFF -0.2218
-0.6021 BL </s> -0.3010
-0.6021 BL I -0.2902
-0.6021 BLAH BLAH -0.1761
-0.6021 BLAH IT'S -0.2942
-1.3010 BLOCK </s> -0.3010
-1.3010 BLOCK FOR -0.2711
-1.3010 BLOCK FROM -0.2923
-0.5229 BLOCK IN -0.2225
-1.3010 BLOCK ONE -0.2935
-0.7959 BLOCKS </s> -0.3010
-1.3979 BLOCKS DO -0.1538
-1.6990 BLOCKS ER -0.2688
-1.6990 BLOCKS FROM -0.2923
-1.3979 BLOCKS IN -0.1827
-1.6990 BLOCKS INSIDE -0.2632
-1.6990 BLOCKS OR -0.2935
-1.0000 BLOCKS OUT -0.1549
-1.6990 BLOCKS OUTTA -0.2041
-1.6990 BLOCKS PICK -0.2218
-1.6990 BLOCKS RIGHT -0.2473
-1.6990 BLOCKS THEN -0.2817
-1.6180 BLUE </s> -0.3010
-2.2201 BLUE AND -0.2925
-0.4642 BLUE BOX -0.1249
-1.1062 BLUE BOXES -0.1047
-2.2201 BLUE DUMP -0.1249
-1.5211 BLUE ONE -0.2436
-1.9191 BLUE ONES -0.2218
-0.6021 BO IN -0.2062
-0.6021 BO PINK -0.2553
-0.6021 BOOK I -0.2970
-0.6021 BOOK SHELF -0.1761
-0.6990 BOOKSHELF </s> -0.3010
-1.1761 BOOKSHELF AND -0.2537
-1.4771 BOOKSHELF BUT -0.2632
-1.1761 BOOKSHELF IN -0.2020
-1.4771 BOOKSHELF SIX -0.2632
-1.4771 BOOKSHELF WAS -0.2613
-1.4771 BOOKSHELF WHERE -0.2201
-1.4771 BOOKSHELF WITH -0.2688
-0.3010 BOOKSHELFS WHEN -0.2788
-0.3010 BOOKSHELVES THAT -0.2978
-0.7782 BOTH ACCORDING 0.0000
-0.4771 BOTH OF -0.2901
-0.3010 BOTTOM SHELF -0.2518
-0.8817 BOX </s> -0.3010
-2.5977 BOX A -0.2760
-1.9956 BOX AND -0.2660
-2.5977 BOX AROUND -0.2467
-2.2967 BOX AT -0.1214
-2.5977 BOX BEHIND -0.0669
-2.5977 BOX BOXES -0.2139
-2.2967 BOX BUT -0.2632
-2.5977 BOX BY -0.0669
-2.5977 BOX DIRECTLY -0.2632
-2.5977 BOX EITHER 0.0000
-2.5977 BOX FIVE -0.2894
-2.5977 BOX FOR -0.2863
-2.5977 BOX GO -0.2331
-2.5977 BOX HAS -0.2218
-2.2967 BOX HERE -0.2583
-2.5977 BOX HIDDEN -0.2218
-2.5977 BOX HOW -0.1249
-2.5977 BOX I -0.2635
-2.5977 BOX IMMEDIATELY -0.2218
-1.5977 BOX IN -0.1165
-2.5977 BOX INCLUDES 0.0000
-2.5977 BOX INTO -0.1076
-1.5563 BOX IS -0.2365
-2.2967 BOX IT'S -0.2430
-2.5977 BOX LET 0.0000
-2.5977 BOX LIKE -0.2894
-2.5977 BOX N 0.0000
-2.2967 BOX NEEDS 0.0000
-1.8987 BOX NEXT -0.1150
-2.5977 BOX NOW -0.2946
-1.4516 BOX NUMBER -0.1156
-2.5977 BOX O -0.2218
-2.5977 BOX OKAY -0.2813
-1.2755 BOX ON -0.0753
-2.5977 BOX OR -0.2935
-1.9956 BOX RIGHT -0.2680
-2.5977 BOX SAYS -0.1761
-2.5977 BOX SEVEN -0.2688
-2.5977 BOX SO -0.2977
-2.5977 BOX STACK -0.2808
-2.1206 BOX THAT -0.2814
-2.2967 BOX THAT'S -0.2249
-2.2967 BOX THE -0.2958
-2.2967 BOX THEN -0.2563
-1.6435 BOX THERE -0.1448
-2.2967 BOX THERE'S -0.1689
-2.5977 BOX THOUGH -0.2218
-2.5977 BOX THREE -0.2942
-1.9956 BOX TO -0.1563
-2.5977 BOX UNDER 0.0000
-2.1206 BOX WAS -0.2613
-2.5977 BOX WE'RE -0.2041
-2.5977 BOX WHERE -0.2201
-2.2967 BOX WHICH -0.1249
-2.5977 BOX WITH -0.2688
-2.1206 BOX YET -0.0969
-2.5977 BOX YOU -0.2837
-0.7404 BOXES </s> -0.3010
-1.9445 BOXES AFTER -0.1249
-1.3424 BOXES AND -0.2553
-1.6435 BOXES ARE -0.2553
-1.4674 BOXES AS -0.1880
-1.9445 BOXES BUT -0.2632
-1.9445 BOXES DO -0.1538
-1.9445 BOXES FOR -0.2711
-1.6435 BOXES HERE -0.2730
-1.9445 BOXES I -0.2984
-1.4674 BOXES IN -0.2534
-1.9445 BOXES NEXT -0.1150
-1.9445 BOXES ON -0.2975
-1.9445 BOXES OR -0.2858
-1.6435 BOXES THERE -0.1576
-1.9445 BOXES THREE -0.2942
-1.9445 BOXES WE -0.2452
-1.9445 BOXES YES -0.2863
-1.9445 BOXES YET -0.2430
-0.3802 BROWN BOX -0.2933
-1.0792 BROWN OR -0.2935
-0.3010 BUNCH OF -0.2992
-0.3010 BUSY TALKING 0.0000
-1.0792 BUT I -0.2861
-1.5563 BUT IN -0.2608
-1.5563 BUT INSTEAD 0.0000
-1.2553 BUT INTO -0.2583
-1.0792 BUT IT'S -0.2837
-1.5563 BUT KEEP -0.2762
-1.2553 BUT NO -0.2596
-1.5563 BUT OPEN -0.2852
-1.5563 BUT RIGHT -0.2935
-1.5563 BUT THE -0.2929
-1.5563 BUT THERE'S -0.2923
-1.5563 BUT WHERE -0.2648
-0.3802 BY THE -0.2774
-1.3802 BY WALKING -0.2632
-1.3802 BY WHERE -0.2648
-0.7404 CABINET </s> -0.3010
-1.3424 CABINET OK -0.1761
-1.0414 CABINET ON -0.1690
-1.3424 CABINET ROOM -0.2158
-1.3424 CABINET THERE -0.2326
-1.3424 CABINET THERE'S -0.2989
-1.3424 CABINET THING 0.0000
-0.6021 CABINETS </s> -0.3010
-1.2041 CABINETS FOUR -0.2688
-1.2041 CABINETS IF -0.1829
-1.2041 CABINETS ON -0.1690
-1.2041 CABINETS WHERE -0.2201
-1.2553 CAME </s> -0.3010
-1.2553 CAME AND -0.2996
-1.2553 CAME CAME -0.2762
-0.9542 CAME FROM -0.2742
-0.9542 CAME IN -0.2857
-1.2553 CAME OUT -0.1549
-1.2553 CAME THROUGH -0.2944
-1.2553 CAN BACKTRACK 0.0000
-0.9542 CAN FIND -0.2041
-1.2553 CAN HEAR -0.1461
-1.2553 CAN ONLY -0.2688
-1.2553 CAN SEE -0.2389
-1.2553 CAN STOP 0.0000
-0.9542 CAN YOU -0.2986
-0.6021 CAN'T HEAR -0.1461
-0.6021 CAN'T REALLY -0.2218
-0.6021 CARBOARD </s> -0.3010
-0.6021 CARBOARD BOX -0.2399
-1.6990 CARDBOARD </s> -0.3010
-1.6990 CARDBOARD BLOCKS -0.2923
-0.3768 CARDBOARD BOX -0.2016
-1.3979 CARDBOARD BOXES -0.2139
-0.3010 CARE OF -0.2974
-0.7347 CART </s> -0.3010
-1.2788 CART AND -0.2691
-1.5798 CART COMPLETELY 0.0000
-1.5798 CART DIRECTLY -0.2632
-1.5798 CART GO -0.2982
-1.5798 CART IN -0.2909
-1.5798 CART IS -0.2806
-1.5798 CART OKAY -0.2813
-1.2788 CART ON -0.1495
-1.5798 CART STRAIGHT -0.2041
-1.5798 CART YES -0.2218
-0.5166 CHAIR </s> -0.3010
-1.6628 CHAIR IN -0.2823
-1.6628 CHAIR IS -0.2982
-1.1856 CHAIR ON -0.1220
-1.6628 CHAIR THERE -0.2378
-1.3617 CHAIR THERE'S -0.1540
-1.6628 CHAIR UM -0.2872
-0.6746 CHAIRS </s> -0.3010
-1.7160 CHAIRS AGAINST 0.0000
-1.2389 CHAIRS AND -0.2736
-1.7160 CHAIRS GOTCHA -0.1461
-1.7160 CHAIRS JUST -0.2863
-1.7160 CHAIRS NEXT -0.1150
-1.4150 CHAIRS ON -0.1674
-1.4150 CHAIRS OR -0.2700
-1.7160 CHAIRS RIGHT -0.2780
-1.7160 CHAIRS THEN -0.2963
-1.7160 CHAIRS THERE'S -0.2989
-1.7160 CHAIRS TO -0.2848
-0.3010 CHANGED A -0.3000
-0.3010 CHART HERE -0.1938
-0.3010 CHECK THE -0.2955
-0.4771 CHIP </s> -0.3010
-0.7782 CHIP IN -0.2994
-0.3010 CHIPS OUT -0.1549
-0.6021 CLOSE BOX -0.2399
-0.6021 CLOSE TO -0.1799
-0.3010 CLOSED </s> -0.3010
-0.3010 CLOSEST PINK -0.1694
-0.6990 CLOSET </s> -0.3010
-1.0000 CLOSET IN -0.2823
-1.0000 CLOSET IT'S -0.2976
-1.0000 CLOSET TO -0.1799
-0.3010 CLOSETS YOU -0.2925
-0.6021 COLLECTING ALL -0.1047
-0.6021 COLLECTING THE -0.2938
-0.3010 COLOR BOX -0.2399
-1.2041 COME </s> -0.3010
-0.6021 COME BACK -0.2467
-1.2041 COME IN -0.2994
-1.2041 COME OUTTA -0.2041
-1.2041 COME TO -0.2937
-0.3010 COMIN' BACK -0.2968
-0.3010 COMING THROUGH -0.1717
-0.3010 COMPLETE OUR -0.2430
-0.3010 COMPLETELY YOU -0.2925
-0.6021 COMPUTER CART -0.2894
-0.6021 COMPUTER STUFF 0.0000
-0.6021 COMPUTERS AND -0.2824
-0.6021 COMPUTERS WERE -0.2688
-0.9031 CONTINUE </s> -0.3010
-0.9031 CONTINUE AROUND -0.2747
-0.9031 CONTINUE IN -0.2994
-0.9031 CONTINUE INTO -0.1076
-0.3010 CORDER </s> -0.3010
-0.7648 CORNER </s> -0.3010
-1.8062 CORNER AS -0.2632
-1.8062 CORNER BUT -0.2632
-1.8062 CORNER DOES -0.1761
-1.8062 CORNER FACING -0.1383
-1.5051 CORNER FROM -0.1206
-1.8062 CORNER IN -0.2608
-1.8062 CORNER LEFT -0.1778
-1.8062 CORNER LOOKING -0.2218
-1.2041 CORNER OF -0.1773
-1.5051 CORNER ON -0.1674
-1.8062 CORNER OPPOSITE -0.1761
-1.8062 CORNER SHOULD'VE 0.0000
-1.8062 CORNER THAT'S -0.2932
-1.8062 CORNER UM -0.2942
-1.8062 CORNER WHERE -0.2201
-1.8062 CORNER YOU -0.2925
-0.3010 CREEPY DIAGRAM 0.0000
-0.6021 CURVE </s> -0.3010
-0.6021 CURVE FROM -0.2923
-0.3010 CUZ WE -0.2452
-0.3010 D'YA HEAR -0.2041
-0.3010 D'YOU GET -0.2304
-0.3010 DA THAT -0.2913
-0.6021 DE </s> -0.3010
-0.6021 DE THE -0.2929
-0.3802 DEAD END -0.2536
-1.0792 DEAD ENDS -0.2218
-0.3010 DEGREE LEFT -0.1778
-0.3010 DEGREES FROM -0.1206
-0.8239 DESK </s> -0.3010
-1.3010 DESK IS -0.2806
-1.0000 DESK OR -0.2858
-1.3010 DESK THERE -0.2326
-1.0000 DESK WITH -0.2798
-1.3010 DESK YEAH -0.2932
-1.0000 DESKS </s> -0.3010
-1.0000 DESKS AN' 0.0000
-0.6990 DESKS AND -0.2824
-1.0000 DESKS OR -0.2935
-0.3010 DIAGRAM OF -0.2992
-1.0000 DID OKAY -0.2922
-0.3979 DID YOU -0.2837
-0.7782 DIRECTLY ACROSS -0.0792
-1.0792 DIRECTLY AHEAD -0.2272
-1.0792 DIRECTLY IN -0.2909
-1.0792 DIRECTLY ON -0.2818
-1.0792 DIRECTLY TO -0.2967
-0.3010 DISTANCE BETWEEN 0.0000
-1.6021 DO </s> -0.3010
-1.9031 DO DO -0.1538
-1.4260 DO I -0.2957
-1.6021 DO IS -0.2953
-1.9031 DO IT -0.1901
-1.9031 DO THAT -0.2994
-1.9031 DO THIS -0.2711
-1.9031 DO THOUGH -0.2218
-1.4260 DO WE -0.2097
-1.9031 DO WITH -0.1691
-1.9031 DO YA 0.0000
-0.5414 DO YOU -0.2385
-0.9031 DOES NOT -0.2863
-0.9031 DOES OKAY -0.2975
-0.6021 DOES THE -0.2815
-1.1139 DON'T ACTUALLY -0.2341
-1.4150 DON'T GO -0.2982
-0.9379 DON'T HAVE -0.2507
-1.4150 DON'T MOVE 0.0000
-1.4150 DON'T NEED -0.2852
-0.7160 DON'T SEE -0.2086
-0.6021 DONE </s> -0.3010
-0.6021 DONE ALL -0.1047
-0.8062 DOOR </s> -0.3010
-1.6301 DOOR AND -0.2925
-2.1072 DOOR AT -0.1214
-1.8062 DOOR FRAME 0.0000
-2.1072 DOOR I -0.2957
-2.1072 DOOR I'M -0.2814
-2.1072 DOOR IMMEDIATELY -0.1761
-2.1072 DOOR IN -0.2994
-2.1072 DOOR INTO -0.1076
-1.8062 DOOR IS -0.2775
-2.1072 DOOR IT'S -0.2976
-2.1072 DOOR LEADING -0.1761
-2.1072 DOOR LIKE -0.2527
-2.1072 DOOR ON -0.2867
-2.1072 DOOR ONE -0.2992
-2.1072 DOOR OPENS 0.0000
-1.6301 DOOR OR -0.2619
-2.1072 DOOR OUT -0.2906
-2.1072 DOOR POST 0.0000
-1.2041 DOOR STRAIGHT -0.1856
-2.1072 DOOR THAT -0.2881
-1.8062 DOOR THAT'S -0.2852
-1.8062 DOOR THERE -0.2326
-1.8062 DOOR THERE'S -0.1804
-1.8062 DOOR TO -0.2848
-2.1072 DOOR WHERE -0.2923
-2.1072 DOOR WOULD -0.2430
-2.1072 DOOR YOU -0.2925
-0.3010 DOOR'S ALREADY -0.1761
-0.6021 DOORPOST </s> -0.3010
-0.6021 DOORPOST THAT'S -0.2932
-0.8239 DOORWAY </s> -0.3010
-1.6021 DOORWAY AND -0.2940
-1.6021 DOORWAY GREEN -0.2747
-1.6021 DOORWAY I -0.2778
-1.6021 DOORWAY I'M -0.2848
-1.6021 DOORWAY IN -0.2062
-1.6021 DOORWAY LEADING -0.1761
-1.6021 DOORWAY LIKE -0.2894
-1.0000 DOORWAY ON -0.1428
-1.3010 DOORWAY THAT -0.2930
-1.6021 DOORWAY TOOK 0.0000
-0.3010 DOUBLE BACK -0.2837
-1.1461 DOWN </s> -0.3010
-1.1461 DOWN IN -0.2062
-0.5441 DOWN THE -0.2889
-1.1461 DOWN TO -0.1799
-0.3010 DUH </s> -0.3010
-0.7782 DUMP DUMP -0.1249
-0.4771 DUMP THE -0.2942
-0.3010 E DUH 0.0000
-1.0792 EACH </s> -0.3010
-1.3802 EACH CORNER -0.2942
-0.9031 EACH OF -0.1773
-1.0792 EACH OTHER -0.2609
-0.7782 EACH PINK -0.1694
-0.3010 EASY ENOUGH 0.0000
-0.3010 EBERHARD THE -0.2997
-0.6021 EDGE </s> -0.3010
-0.6021 EDGE OF -0.1773
-0.6021 EH </s> -0.3010
-0.6021 EH DA 0.0000
-0.4607 EIGHT </s> -0.3010
-1.4150 EIGHT OKAY -0.2975
-1.4150 EIGHT PINK -0.2805
-1.1139 EIGHT YELLOW -0.2175
-0.3010 EIGHTH BOX -0.2843
-0.3010 EITHER BEHIND -0.0669
-0.3010 ELECTRODE ATTACHMENT 0.0000
-0.3010 ELSE DO -0.1538
-0.7782 EM </s> -0.3010
-0.7782 EM UP -0.2218
-0.7782 EM WE'RE -0.2553
-0.3010 EMERGENC THERE'S -0.1804
-0.3010 EMPTY THE -0.2965
-1.0645 END </s> -0.3010
-1.7634 END BY -0.2825
-0.4847 END OF -0.1321
-1.7634 END RIGHT -0.2473
-1.7634 END SO -0.2977
-1.7634 END THE -0.2935
-1.7634 END WHERE -0.2648
-0.7782 ENDS </s> -0.3010
-0.7782 ENDS DEAD -0.2632
-0.7782 ENDS HERE -0.1938
-0.3010 ENOUGH </s> -0.3010
-0.6990 ENTER THAT -0.2913
-0.6990 ENTER THE -0.2997
-1.0000 ENTER THROUGH -0.1717
-0.3010 ENTERED THE -0.2958
-0.3010 ENTERING IN -0.2875
-0.3010 ENTIRE HALLWAY -0.1814
-1.1461 ER </s> -0.3010
-1.1461 ER FOR -0.2863
-0.8451 ER ONE -0.2916
-1.1461 ER THAT -0.2962
-1.1461 ER TO -0.1799
-1.1461 ER YOUR -0.2374
-0.3010 EVERY SINGLE -0.1761
-0.3010 EXIST </s> -0.3010
-0.8653 EXIT </s> -0.3010
-1.3424 EXIT AND -0.2996
-1.3424 EXIT EXIT -0.2139
-1.3424 EXIT ON -0.1690
-0.7404 EXIT THAT -0.2627
-1.3424 EXIT THERE'S -0.2812
-0.3010 EYE OUT -0.2906
-0.7782 EYES </s> -0.3010
-0.4771 EYES PEELED 0.0000
-0.7782 F IN -0.2062
-0.7782 F ON -0.1690
-0.7782 F TO -0.1799
-1.2041 FACING FORWARD -0.2632
-1.2041 FACING THAT -0.2994
-0.5051 FACING THE -0.2815
-1.2041 FACING THERE'S -0.1804
-0.3010 FACT IT'S -0.2976
-0.3010 FALSE ONES -0.2499
-1.1461 FAR CORNER -0.2191
-1.1461 FAR END -0.2935
-1.1461 FAR SIDE -0.2894
-0.6690 FAR WALL -0.2139
-1.1461 FAR WE -0.2278
-0.3010 FARTHEST TO -0.1799
-0.3010 FASTER </s> -0.3010
-0.7782 FEET AWAY 0.0000
-0.7782 FEET INTO -0.1076
-0.7782 FEET TO -0.2848
-0.3010 FER THE -0.2955
-0.3010 FI WHERE'S -0.1761
-0.3010 FIFTH BOX -0.2399
-0.5563 FILING CABINET -0.0378
-0.6532 FILING CABINETS 0.0000
-0.9031 FILL </s> -0.3010
-0.9031 FILL EACH -0.2218
-0.9031 FILL EIGHT -0.2840
-0.9031 FILL THOSE -0.2730
-0.3010 FILLING PINK -0.2553
-0.6990 FIND </s> -0.3010
-0.6990 FIND THE -0.2935
-1.0000 FIND YELLOW -0.2175
-0.3010 FINDIN' THE -0.2981
-0.3010 FINDING THE -0.2955
-0.9031 FINE </s> -0.3010
-0.9031 FINE OKAY -0.2993
-0.9031 FINE THAT'S -0.2688
-0.9031 FINE YOU -0.2974
-0.3010 FINISH OUR -0.2430
-0.3010 FIRE EXIT -0.1891
-1.6435 FIRST BO -0.1761
-1.6435 FIRST BOX -0.2399
-1.6435 FIRST CORNER -0.2942
-1.6435 FIRST DOOR -0.2272
-1.6435 FIRST DOORWAY -0.2900
-1.6435 FIRST GREEN -0.1265
-1.6435 FIRST I -0.2943
-1.3424 FIRST ONE -0.2897
-0.6892 FIRST ROOM -0.1718
-1.6435 FIRST SMALL 0.0000
-1.6435 FIRST UH -0.2984
-1.6435 FIRST WALK -0.2596
-1.6435 FIRST WHEN -0.1139
-0.7347 FIVE </s> -0.3010
-1.5798 FIVE DEGREE 0.0000
-1.5798 FIVE DEGREES 0.0000
-1.5798 FIVE I'VE -0.0969
-1.2788 FIVE IS -0.2622
-1.5798 FIVE S -0.1761
-1.5798 FIVE SEVEN -0.2852
-1.5798 FIVE SH -0.1761
-1.5798 FIVE SIX -0.2825
-1.2788 FIVE WAS -0.2613
-1.5798 FIVE YEAH -0.2730
-0.3979 FLOOR </s> -0.3010
-1.0000 FLOOR AND -0.2925
-0.3010 FOLLOW THE -0.2889
-0.3010 FOOT FROM -0.1206
-0.3010 FOOTS WORTH 0.0000
-1.4771 FOR ANY -0.2553
-1.4771 FOR BLUE -0.2656
-1.4771 FOR COLLECTING -0.1761
-1.4771 FOR FOR -0.2553
-1.4771 FOR G 0.0000
-1.4771 FOR GREEN -0.2747
-1.1761 FOR IT -0.1862
-1.1761 FOR NOW -0.2881
-1.4771 FOR THAT -0.2764
-1.0000 FOR THE -0.2948
-1.4771 FOR YOU -0.2998
-0.3010 FORTY FIVE -0.2775
-0.4771 FORWARD </s> -0.3010
-1.0792 FORWARD AND -0.2645
-1.0792 FORWARD GREEN -0.1265
-1.5051 FOUND A -0.2760
-0.8062 FOUND ANOTHER -0.1761
-1.5051 FOUND IT -0.2980
-1.2041 FOUND NUMBER -0.2585
-1.5051 FOUND THAT -0.2978
-0.7270 FOUND THE -0.2740
-0.8451 FOUR </s> -0.3010
-1.6232 FOUR AND -0.2996
-1.6232 FOUR FEET -0.2218
-1.3222 FOUR FIVE -0.1984
-1.1461 FOUR GREEN -0.1217
-1.6232 FOUR I -0.2957
-1.6232 FOUR IS -0.2775
-1.6232 FOUR RIGHT -0.2877
-1.6232 FOUR SIX -0.2825
-1.1461 FOUR WAS -0.2613
-1.6232 FOUR YOU -0.2900
-0.3010 FOUR'S A -0.3000
-0.6021 FOURTH BOOK -0.1761
-0.6021 FOURTH BOX -0.2888
-0.6021 FRAME IN -0.2062
-0.6021 FRAME IT'S -0.2802
-1.3979 FROM </s> -0.3010
-1.6990 FROM ALL -0.2596
-1.6990 FROM EACH -0.2430
-1.6990 FROM PAST -0.2156
-1.6990 FROM THAT -0.2978
-0.4685 FROM THE -0.2342
-1.6990 FROM WHERE -0.2648
-1.6990 FROM YOU -0.2937
-0.3010 FRONT OF -0.2732
-0.6021 FURTHER AWAY 0.0000
-0.6021 FURTHER INSTRUCTIONS -0.2218
-0.6021 FURTHEST AWAY 0.0000
-0.6021 FURTHEST TO -0.1799
-0.3010 G WAIT -0.2430
-0.3010 GEEN BOX -0.2854
-1.6021 GET A -0.2978
-1.6021 GET BOTH -0.1249
-1.6021 GET IT -0.2980
-0.8239 GET THAT -0.2556
-0.7570 GET THE -0.2805
-1.6021 GET THERE -0.2378
-1.6021 GET THOSE -0.2730
-1.6021 GET TO -0.2967
-1.6021 GET YOU -0.2974
-0.3010 GETTIN THE -0.3007
-0.7782 GETTING INTO -0.1076
-0.4771 GETTING MORE -0.2041
-0.3010 GIVE ME -0.2888
-1.8808 GO </s> -0.3010
-1.7047 GO AHEAD -0.2583
-2.1818 GO ALL -0.1047
-2.1818 GO ALRIGHT -0.2980
-0.8394 GO BACK -0.0848
-2.1818 GO DOWN -0.1549
-2.1818 GO ER -0.2688
-2.1818 GO GRAB -0.2218
-2.1818 GO HEAD -0.0580
-2.1818 GO I -0.2778
-2.1818 GO IN -0.2608
-1.4829 GO INTO -0.0859
-2.1818 GO OUT -0.1549
-1.3367 GO PAST -0.0300
-1.2788 GO STRAIGHT -0.0911
-1.8808 GO THERE -0.2326
-1.4037 GO THROUGH -0.1047
-1.2276 GO TO -0.1683
-1.8808 GO UP -0.2361
-2.1818 GO YOU -0.2998
-0.3010 GOAL HAS -0.2218
-0.7782 GOIN </s> -0.3010
-0.7782 GOIN ON -0.2963
-0.7782 GOIN STRAIGHT -0.2218
-0.3010 GOIN' IN -0.2875
-1.3424 GOING ALL -0.1047
-1.3424 GOING BACK -0.2792
-1.0414 GOING DOWN -0.1091
-1.0414 GOING FORWARD -0.0669
-1.3424 GOING STRAIGHT -0.2937
-1.0414 GOING THROUGH -0.2449
-1.3424 GOING TO -0.2937
-1.3424 GOING YOU'LL 0.0000
-1.1856 GONNA BE -0.1725
-1.6628 GONNA CHECK 0.0000
-1.3617 GONNA DO -0.2844
-1.6628 GONNA DOUBLE 0.0000
-1.6628 GONNA FIND -0.2041
-1.6628 GONNA GET -0.2175
-1.1856 GONNA GO -0.2091
-1.6628 GONNA HAVE -0.2802
-1.6628 GONNA I'M -0.2978
-1.6628 GONNA LEAVE -0.2430
-1.6628 GONNA START -0.2218
-1.6628 GONNA TAKE -0.2775
-1.3617 GONNA TURN -0.2041
-1.3617 GONNA WANNA -0.2304
-1.6628 GONNA WE'RE -0.2041
-1.6628 GONNA YOU'RE -0.1984
-0.3979 GOOD </s> -0.3010
-1.0000 GOOD GOOD -0.0792
-1.7076 GOT </s> -0.3010
-1.4065 GOT A -0.2714
-1.4065 GOT ABOUT -0.1648
-1.7076 GOT ALL -0.0889
-1.4065 GOT ANOTHER -0.1761
-2.0086 GOT EIGHT -0.2663
-1.7076 GOT FIVE -0.2775
-1.0544 GOT IT -0.1822
-2.0086 GOT ONE -0.2916
-2.0086 GOT SOME -0.2430
-2.0086 GOT TH -0.2730
-1.2304 GOT THAT -0.2539
-1.1635 GOT THE -0.2855
-1.5315 GOT THREE -0.2352
-2.0086 GOT TO -0.1799
-2.0086 GOT TWO -0.2953
-2.0086 GOT UH -0.2984
-2.0086 GOT UM -0.2942
-0.5229 GOTCHA </s> -0.3010
-1.0000 GOTCHA OKAY -0.2813
-1.0000 GOTCHA SO -0.2977
-1.0792 GOTTA BLOCK -0.2788
-1.0792 GOTTA DOUBLE 0.0000
-1.0792 GOTTA LOOK -0.2688
-1.0792 GOTTA PUT -0.2872
-1.0792 GOTTA TAKE -0.1684
-1.0792 GOTTA YOU -0.2986
-0.3010 GR EH -0.1761
-1.0792 GRAB IT -0.1901
-0.7782 GRAB THAT -0.2696
-0.6021 GRAB THE -0.2909
-0.3010 GREAT </s> -0.3010
-1.5315 GREEN </s> -0.3010
-0.4803 GREEN BOX -0.1249
-1.2304 GREEN BOXES -0.1559
-2.1335 GREEN IS -0.2806
-1.2304 GREEN ONE -0.2083
-2.1335 GREEN ONES -0.2499
-2.1335 GREEN WAS -0.2613
-0.9294 GUESS </s> -0.3010
-1.5315 GUESS COME -0.1761
-1.5315 GUESS KEEP -0.2499
-1.5315 GUESS THAT'S -0.2852
-1.2304 GUESS TO -0.1799
-1.2304 GUESS TURN -0.2041
-1.5315 GUESS UH -0.2823
-1.5315 GUESS WE -0.2935
-1.5315 GUESS WE'LL -0.1761
-1.0544 GUESS YOU -0.2837
-0.3010 HALF MINUTES -0.2218
-0.4771 HALL </s> -0.3010
-0.7782 HALL TO -0.1799
-0.6185 HALLWAY </s> -0.3010
-1.5563 HALLWAY AND -0.2615
-2.0334 HALLWAY AROUND -0.2467
-2.0334 HALLWAY AS -0.2825
-2.0334 HALLWAY BACK -0.2792
-2.0334 HALLWAY CUZ 0.0000
-2.0334 HALLWAY ER -0.2688
-2.0334 HALLWAY GO -0.2924
-2.0334 HALLWAY I -0.2635
-2.0334 HALLWAY IN -0.2062
-2.0334 HALLWAY JUST -0.2937
-2.0334 HALLWAY ON -0.1690
-2.0334 HALLWAY THAT -0.2994
-1.7324 HALLWAY THERE -0.2326
-2.0334 HALLWAY TURN -0.2923
-1.5563 HALLWAY TURNS -0.1461
-2.0334 HALLWAY UM -0.2976
-2.0334 HALLWAY UNTIL -0.0969
-1.5563 HALLWAY WHERE -0.1761
-2.0334 HALLWAY WITH -0.1691
-1.7324 HALLWAY YOU -0.2925
-1.2041 HAND ER -0.2688
-0.3590 HAND SIDE -0.1984
-0.7782 HANG A -0.2968
-0.4771 HANG ON -0.2757
-0.7782 HAS A -0.2968
-0.7782 HAS ALOT 0.0000
-0.7782 HAS CHANGED 0.0000
-1.5051 HAVE </s> -0.3010
-1.1072 HAVE A -0.2235
-1.8062 HAVE ABOUT -0.2285
-1.8062 HAVE ANOTHER -0.2319
-1.8062 HAVE EIGHT -0.2663
-1.5051 HAVE ER -0.2341
-1.8062 HAVE LEFT -0.1778
-1.3291 HAVE ONE -0.2840
-1.8062 HAVE RIGHT -0.2473
-1.5051 HAVE SEVEN -0.2518
-1.5051 HAVE THE -0.2872
-1.8062 HAVE THIS -0.2863
-1.8062 HAVE THR 0.0000
-1.3291 HAVE THREE -0.2430
-1.3291 HAVE TO -0.2893
-1.8062 HAVE TWO -0.2953
-1.8062 HAVE UH -0.2984
-1.8062 HAVE YOU -0.2986
-0.7782 HAVEN'T BEEN -0.1761
-0.4771 HAVEN'T FOUND -0.2109
-0.3680 HEAD BACK -0.2009
-1.1461 HEAD TOWARD -0.1761
-0.3010 HEADING BACK -0.2968
-0.6990 HEAR ME -0.2632
-0.5229 HEAR YOU -0.2925
-0.3010 HELLO </s> -0.3010
-0.6601 HERE </s> -0.3010
-1.5051 HERE AND -0.2996
-1.2041 HERE AT -0.1214
-1.5051 HERE IN -0.2062
-1.5051 HERE ON -0.2769
-1.5051 HERE ONCE -0.2218
-1.5051 HERE STARTING 0.0000
-1.5051 HERE THE -0.3007
-1.5051 HERE THERE'S -0.2812
-0.3010 HERE'S OUR -0.2430
-0.3010 HEY ARE -0.1614
-0.6021 HHH </s> -0.3010
-0.6021 HHH SIDE -0.2264
-0.7782 HIDDEN BEHIND -0.2632
-0.7782 HIDDEN BLUE -0.1183
-0.7782 HIDDEN ONES -0.2762
-0.3010 HM </s> -0.3010
-0.3010 HMM NO -0.2486
-0.3010 HOLD ON -0.2592
-0.4771 HOW MANY 0.0000
-1.0792 HOW MUCH 0.0000
-1.0792 HOW UH -0.2984
-0.3010 HUGE STACK -0.0378
-0.7782 HUH </s> -0.3010
-0.7782 HUH ALRIGHT -0.2888
-0.7782 HUH THAT'S -0.2932
-0.6021 HURRY RYAN -0.1761
-0.6021 HURRY UP -0.2218
-0.6021 HUSTLING I -0.2930
-0.6021 HUSTLING SON -0.1761
-2.5132 I </s> -0.3010
-2.5132 I ACTUALLY -0.2688
-1.7351 I AM 0.0000
-2.5132 I BELIEVE 0.0000
-2.2122 I CAME -0.2499
-2.2122 I CAN -0.2218
-2.2122 I CAN'T 0.0000
-2.2122 I COME -0.1383
-2.5132 I DID -0.2553
-2.2122 I DO -0.2900
-1.8142 I DON'T -0.1413
-1.6101 I FOUND -0.0512
-1.8142 I GO -0.1606
-1.3993 I GOT -0.1498
-2.5132 I GOTCHA -0.2553
-2.2122 I GOTTA -0.2218
-2.5132 I GRAB -0.1761
-1.2828 I GUESS 0.0000
-2.5132 I HAVE -0.2942
-1.9112 I I -0.2806
-2.5132 I I'M -0.2978
-2.5132 I IMMEDIATELY -0.1761
-2.5132 I ITS 0.0000
-1.9112 I JUST -0.2711
-1.9112 I KNOW -0.1648
-2.5132 I LEAVE -0.0969
-2.5132 I MEAN 0.0000
-2.2122 I NEED -0.2688
-2.5132 I ONLY -0.2688
-2.5132 I PICK -0.2218
-2.2122 I PUT -0.2109
-2.5132 I SE 0.0000
-1.0819 I SEE -0.0607
-2.5132 I SEND 0.0000
-2.5132 I SHOULD -0.2762
-2.5132 I SNAGGED 0.0000
-2.5132 I STI 0.0000
-2.0361 I STILL -0.2109
-2.5132 I TAKE -0.2894
-1.8142 I THINK -0.1091
-2.5132 I TO -0.2952
-2.5132 I TOOK 0.0000
-2.0361 I TURN -0.2253
-2.2122 I TURNED 0.0000
-1.9112 I WALK -0.1891
-1.8142 I WALKED -0.0414
-1.8142 I WAS -0.2304
-1.9112 I WENT -0.1249
-2.5132 I WERE -0.2341
-1.0792 I'LL I'LL -0.2632
-1.0792 I'LL KEEP -0.2762
-1.0792 I'LL LEAD 0.0000
-1.0792 I'LL LOOK -0.2341
-0.7782 I'LL PUT -0.2583
-2.1335 I'M ABOUT -0.2663
-2.1335 I'M ALSO -0.2788
-1.4346 I'M AT -0.1107
-2.1335 I'M BACK -0.2924
-2.1335 I'M COMIN' 0.0000
-1.4346 I'M FACING -0.0512
-2.1335 I'M GETTIN 0.0000
-1.8325 I'M GETTING 0.0000
-2.1335 I'M GOIN -0.2218
-2.1335 I'M GOIN' 0.0000
-1.4346 I'M GOING -0.1347
-1.2304 I'M GONNA -0.1698
-2.1335 I'M I'M -0.2848
-1.3554 I'M IN -0.1461
-2.1335 I'M INTO -0.1076
-2.1335 I'M JUST -0.2937
-2.1335 I'M NOT -0.2863
-2.1335 I'M ON -0.1690
-1.8325 I'M OUTTA -0.2041
-2.1335 I'M PRETTY 0.0000
-2.1335 I'M PUTTING 0.0000
-2.1335 I'M RECEIVING 0.0000
-2.1335 I'M RIGHT -0.2992
-2.1335 I'M SEEING -0.2218
-2.1335 I'M SHOULD -0.2762
-2.1335 I'M SHOWIN 0.0000
-2.1335 I'M SORRY 0.0000
-2.1335 I'M STANDING -0.2430
-2.1335 I'M STILL -0.2430
-1.5315 I'M TAKING 0.0000
-2.1335 I'M THERE'S -0.1804
-2.1335 I'M THROUGH -0.1717
-2.1335 I'M TRYIN 0.0000
-1.8325 I'M TURNING 0.0000
-1.5315 I'M WALKING -0.0669
-1.3802 I'VE DONE -0.1761
-0.4260 I'VE GOT -0.2009
-1.3802 I'VE SEEN 0.0000
-1.3802 I'VE WALKED -0.1761
-1.3222 IF I -0.2943
-1.6232 IF I'M -0.2814
-1.3222 IF IF -0.1691
-1.6232 IF SO -0.2977
-1.6232 IF THERE'S -0.2989
-0.6232 IF YOU -0.2482
-1.0212 IF YOU'RE -0.2527
-0.3010 IGNORE THE -0.2955
-1.0792 IMMEDIATELY I -0.2984
-0.7782 IMMEDIATELY ON -0.1495
-0.6021 IMMEDIATELY TO -0.1584
-1.5119 IN </s> -0.3010
-1.7160 IN A -0.2397
-2.4150 IN ALL -0.1047
-2.4150 IN ANOTHER -0.2881
-1.9379 IN EACH -0.2218
-2.4150 IN FACT 0.0000
-1.6368 IN FRONT 0.0000
-1.9379 IN HERE -0.1576
-2.4150 IN I -0.2943
-2.1139 IN IN -0.2062
-2.4150 IN IT -0.1901
-2.4150 IN NOW -0.2747
-2.4150 IN RELATION 0.0000
-1.0532 IN THAT -0.2167
-0.7074 IN THE -0.2196
-2.4150 IN THEN -0.2866
-1.3736 IN THERE -0.2024
-2.4150 IN THERE'S -0.2812
-1.8129 IN THIS -0.2218
-2.4150 IN THROUGH -0.2523
-2.4150 IN TO -0.2996
-2.1139 IN UH -0.2656
-2.4150 IN UM -0.2942
-0.3010 INCHES AWAY 0.0000
-0.3010 INCLUDES THE -0.2991
-0.3010 INDICATED </s> -0.3010
-0.3010 INS INSIDE -0.2218
-0.7782 INSIDE CURVE 0.0000
-1.0792 INSIDE INSIDE -0.2218
-1.0792 INSIDE OF -0.1773
-1.0792 INSIDE T -0.2430
-1.0792 INSIDE THERE -0.2378
-0.3010 INSTEAD OF -0.2992
-0.7782 INSTRUCTIONS </s> -0.3010
-0.7782 INSTRUCTIONS HERE -0.1938
-0.7782 INSTRUCTIONS RYAN -0.1761
-0.3010 INT NOT -0.2711
-1.2041 INTO A -0.2925
-1.5051 INTO ANOTHER -0.2814
-1.8062 INTO BUT -0.2888
-1.5051 INTO THAT -0.2609
-0.4445 INTO THE -0.2354
-1.3367 IS </s> -0.3010
-1.4829 IS A -0.2068
-2.1818 IS ABOUT -0.2285
-2.1818 IS AND -0.2645
-2.1818 IS ANOTHER -0.2881
-2.1818 IS BASICALLY -0.2688
-2.1818 IS DOES -0.1761
-2.1818 IS EVERY 0.0000
-2.1818 IS GO -0.2806
-2.1818 IS GONNA -0.2717
-1.8808 IS IF -0.2576
-2.1818 IS IN -0.2062
-2.1818 IS IS -0.2982
-1.1027 IS IT -0.1355
-2.1818 IS IT'S -0.2907
-2.1818 IS NOT -0.2863
-1.8808 IS NUMBER -0.2462
-2.1818 IS OKAY -0.2957
-1.1818 IS ON -0.0983
-2.1818 IS ONE -0.2782
-2.1818 IS SITTING 0.0000
-1.7047 IS THAT -0.2946
-1.4829 IS THE -0.2935
-1.2788 IS THERE -0.1967
-2.1818 IS THERE'S -0.2812
-2.1818 IS TO -0.1799
-2.1818 IS UP -0.2218
-1.7047 IS WHERE -0.2833
-2.1818 IS YOU'RE -0.1984
-0.6471 IT </s> -0.3010
-2.1523 IT A -0.2989
-1.5502 IT AND -0.2615
-2.1523 IT AS -0.2825
-2.1523 IT BASICALLY -0.2688
-2.1523 IT DOES -0.2430
-2.1523 IT HOLD 0.0000
-2.1523 IT I'M -0.2747
-1.5502 IT IN -0.2304
-1.8513 IT IS -0.2653
-2.1523 IT NUMBER -0.2666
-1.5502 IT ON -0.1690
-1.6752 IT SHOULD -0.1027
-1.6752 IT SO -0.2843
-1.8513 IT THERE -0.2352
-2.1523 IT THERE'S -0.1804
-1.8513 IT TURNS -0.2041
-2.1523 IT UH -0.2823
-2.1523 IT UM -0.2976
-1.8513 IT WAS -0.2430
-2.1523 IT WONDERFUL 0.0000
-1.8513 IT WOULD -0.0969
-2.1072 IT'S </s> -0.3010
-1.3291 IT'S A -0.2815
-2.1072 IT'S ABOUT -0.2663
-2.1072 IT'S ACTUALLY -0.2688
-2.1072 IT'S AGAINST 0.0000
-1.8062 IT'S AN -0.2499
-2.1072 IT'S AWAY 0.0000
-2.1072 IT'S BASICALLY -0.2688
-2.1072 IT'S CLOSED 0.0000
-2.1072 IT'S DIRECTLY -0.2632
-2.1072 IT'S GOT -0.2924
-2.1072 IT'S I -0.2997
-1.8062 IT'S IN -0.2020
-2.1072 IT'S IT -0.2980
-1.8062 IT'S IT'S -0.2312
-1.6301 IT'S LIKE -0.2264
-2.1072 IT'S LOCATED -0.1761
-2.1072 IT'S NOT -0.2711
-1.6301 IT'S NUMBER -0.2114
-2.1072 IT'S OH -0.2881
-0.9933 IT'S ON -0.1255
-2.1072 IT'S PAST -0.2341
-2.1072 IT'S PINK -0.2805
-1.3291 IT'S RIGHT -0.2720
-1.3291 IT'S THE -0.2899
-2.1072 IT'S TO -0.1799
-2.1072 IT'S TUH 0.0000
-2.1072 IT'S UH -0.2904
-2.1072 IT'S UM -0.2872
-2.1072 IT'S UP -0.2632
-0.3010 ITS TO -0.1799
-0.3010 JUS SO -0.2774
-1.3010 JUST A -0.2714
-1.7782 JUST ABOUT -0.2663
-1.7782 JUST ANYWHERE -0.1761
-1.7782 JUST DO -0.2956
-1.7782 JUST ENTERED 0.0000
-1.7782 JUST FOUND -0.2872
-1.7782 JUST GOT -0.2968
-1.7782 JUST GRAB -0.1761
-1.4771 JUST IN -0.2875
-1.7782 JUST LOOKING -0.2218
-1.7782 JUST MAKE -0.1761
-1.7782 JUST ONE -0.2992
-1.4771 JUST PAST -0.2341
-1.7782 JUST PICK -0.1761
-1.7782 JUST POINT -0.2218
-1.7782 JUST POINTED 0.0000
-1.7782 JUST SUPPOSED 0.0000
-1.1761 JUST THE -0.2889
-1.4771 JUST TO -0.1584
-1.7782 JUST TOLD -0.2430
-1.7782 JUST WALKED -0.2788
-1.7782 JUST WELL -0.2863
-1.3802 KAY </s> -0.3010
-1.0792 KAY DO -0.1461
-1.3802 KAY JUST -0.2937
-1.3802 KAY KEEP -0.2499
-1.3802 KAY NOW -0.2609
-1.0792 KAY ONCE -0.1249
-1.3802 KAY PINK -0.1694
-1.3802 KAY THAT -0.2994
-1.3802 KAY THERE'S -0.2812
-1.3802 KAY UM -0.2802
-1.2553 KEEP AN -0.2762
-0.9542 KEEP GOING -0.2596
-1.2553 KEEP LOOKING -0.2218
-1.2553 KEEP ON -0.2999
-1.2553 KEEP TAKE -0.2527
-0.7782 KEEP YOUR -0.2704
-0.3010 KINDA CREEPY 0.0000
-0.3010 KINDS UH -0.2984
-0.9379 KNOW </s> -0.3010
-1.4150 KNOW HOW -0.1249
-1.4150 KNOW I -0.2957
-1.4150 KNOW I'M -0.2978
-1.1139 KNOW THAT -0.2503
-1.4150 KNOW THE -0.2929
-1.1139 KNOW WHEN -0.1139
-1.1139 KNOW WHERE -0.2148
-0.3010 L LIKE -0.2775
-0.7270 LADDER </s> -0.3010
-0.9031 LADDER AND -0.2630
-0.9031 LADDER ON -0.1495
-1.2041 LADDER YOU -0.2937
-0.6021 LADDERS </s> -0.3010
-0.6021 LADDERS HERE -0.1938
-0.3010 LATER </s> -0.3010
-0.3010 LEAD YOU -0.2986
-0.6021 LEADING FROM -0.1206
-0.6021 LEADING TO -0.1799
-0.3010 LEADS TO -0.1799
-0.4260 LEAVE IT -0.1822
-0.9031 LEAVE THAT -0.2994
-0.3010 LEF DOOR -0.2976
-0.6072 LEFT </s> -0.3010
-2.2304 LEFT ABOUT -0.2840
-1.6284 LEFT AND -0.2780
-1.9294 LEFT AT -0.0997
-2.2304 LEFT CORNER -0.2191
-2.2304 LEFT DO -0.1538
-2.2304 LEFT GO -0.2982
-1.7533 LEFT HAND -0.0512
-2.2304 LEFT I -0.2635
-2.2304 LEFT IN -0.2062
-2.2304 LEFT IT -0.2918
-1.7533 LEFT OF -0.1773
-2.2304 LEFT OKAY -0.2975
-1.7533 LEFT ON -0.1690
-1.9294 LEFT ONE -0.2436
-1.6284 LEFT OR -0.2536
-2.2304 LEFT RIGHT -0.2780
-1.9294 LEFT SIDE -0.2126
-1.9294 LEFT SO -0.2910
-2.2304 LEFT TAKE -0.2775
-2.2304 LEFT THE -0.3007
-2.2304 LEFT THERE -0.2326
-1.9294 LEFT THERE'S -0.1804
-2.2304 LEFT THROUGH -0.1717
-2.2304 LEFT TOO 0.0000
-2.2304 LEFT WALL -0.2910
-2.2304 LEFT YOU'LL 0.0000
-0.6021 LEFTHAND ROOM -0.2989
-0.6021 LEFTHAND SIDE -0.2894
-0.3010 LET ME -0.2499
-0.9031 LET'S DO -0.2956
-0.9031 LET'S JUST -0.2937
-0.6021 LET'S SEE -0.2788
-1.5798 LIKE </s> -0.3010
-0.9777 LIKE A -0.2936
-1.5798 LIKE BIG -0.1761
-1.5798 LIKE BOOKSHELF -0.2041
-1.5798 LIKE CLOSE -0.1761
-1.5798 LIKE FOUR -0.2341
-1.5798 LIKE I -0.2834
-1.5798 LIKE IF -0.1829
-1.5798 LIKE NOT -0.2711
-1.5798 LIKE ONE -0.2973
-1.5798 LIKE RIGHT -0.2954
-1.5798 LIKE STARTING 0.0000
-1.2788 LIKE THE -0.3001
-1.5798 LIKE THREE -0.2942
-1.5798 LIKE WHAT -0.2527
-0.3010 LINTEL OF -0.1773
-0.3010 LISTEN </s> -0.3010
-0.3010 LISTENING </s> -0.3010
-1.5798 LITTLE BIT -0.1761
-1.5798 LITTLE CHIP -0.2218
-1.5798 LITTLE DOOR -0.2976
-1.2788 LITTLE GREEN -0.1265
-1.5798 LITTLE HALLWAY -0.2888
-1.5798 LITTLE IN -0.2608
-1.2788 LITTLE OFFICE -0.1761
-0.7347 LITTLE ROOM -0.2629
-1.1027 LITTLE TESTING 0.0000
-0.6021 LOCATED AT -0.2868
-0.6021 LOCATED RIGHT -0.2780
-1.1461 LOOK AROUND -0.2881
-1.1461 LOOK BACK -0.2968
-1.1461 LOOK BEHIND -0.0669
-0.8451 LOOK FOR -0.2389
-0.8451 LOOK FROM -0.1072
-1.0792 LOOKING AT -0.1214
-1.0792 LOOKING BACK -0.2924
-0.7782 LOOKING FOR -0.2389
-0.7782 LOOKING TO -0.1780
-0.3010 LOOKS LIKE -0.2527
-0.3010 LOT FASTER 0.0000
-0.3010 M THINK -0.2341
-0.6021 MAKE A -0.2903
-0.6021 MAKE ANOTHER -0.2946
-0.9031 MANY FEET -0.2218
-0.9031 MANY PINK -0.2553
-0.6021 MANY YELLOW -0.2041
-0.6690 MAP </s> -0.3010
-1.1461 MAP ER -0.2688
-1.1461 MAP GRAB -0.2632
-1.1461 MAP HAS -0.2218
-1.1461 MAP IF -0.2576
-0.3010 MARK EM -0.2218
-0.6021 MARKED ON -0.1690
-0.6021 MARKED WRONG -0.1761
-0.3010 MAY HAVE -0.2657
-0.7782 MAYBE MY -0.2935
-0.7782 MAYBE SIX -0.2825
-0.7782 MAYBE THREE -0.2942
-0.3010 MBOOKSHELVES OVER -0.1761
-1.0792 ME </s> -0.3010
-1.5563 ME ALRIGHT -0.2980
-1.5563 ME GOING -0.2596
-1.5563 ME I'M -0.2848
-1.2553 ME KNOW -0.2663
-1.5563 ME SEE -0.2937
-1.5563 ME T -0.2430
-1.5563 ME THE -0.3007
-0.7112 ME TO -0.1543
-0.3010 MEAN </s> -0.3010
-0.3010 METAL SHELF -0.2852
-0.3010 MHM </s> -0.3010
-0.3010 MHMM </s> -0.3010
-0.3010 MIDDLE CHAIR -0.1434
-0.3010 MIGHT BE -0.2068
-0.3010 MINUTE LEFT -0.1778
-0.7782 MINUTES </s> -0.3010
-1.4771 MINUTES AND -0.2982
-0.6990 MINUTES LEFT -0.1710
-1.1761 MINUTES TO -0.2952
-1.4771 MINUTES TWO -0.2835
-0.3010 MIRROR AND -0.2925
-0.6021 MKAY </s> -0.3010
-0.6021 MKAY WHERE'S -0.2730
-0.7782 MM ALRIGHT -0.2730
-0.7782 MM CART -0.2894
-0.7782 MM THE -0.3007
-0.3010 MMM WELL -0.2863
-0.6990 MORE GREEN -0.2747
-0.6990 MORE INSTRUCTIONS -0.1249
-1.0000 MORE PINK -0.1694
-0.3010 MOVE IS -0.2775
-0.3010 MUCH TIME -0.2430
-1.7634 MY FOOTS 0.0000
-1.7634 MY FORTY 0.0000
-1.7634 MY L 0.0000
-0.6495 MY LEFT -0.1313
-1.4624 MY MAP -0.1549
-0.7220 MY RIGHT -0.2188
-0.3010 N LEFT -0.2854
-0.3010 NE AT -0.1214
-0.3010 NEAR THE -0.2872
-1.4472 NEED A -0.3000
-1.4472 NEED ALL -0.2596
-1.4472 NEED BLUE -0.2656
-1.4472 NEED GREEN -0.2747
-1.4472 NEED THE -0.2945
-0.5441 NEED TO -0.2833
-1.4472 NEED YOU -0.2974
-0.3010 NEEDS ONE -0.2954
-1.8195 NEXT </s> -0.3010
-1.8195 NEXT GREEN -0.1265
-1.8195 NEXT PINK -0.1694
-1.0414 NEXT ROOM -0.1916
-1.8195 NEXT SMALL 0.0000
-0.4578 NEXT TO -0.1644
-0.9445 NO </s> -0.3010
-1.6435 NO AH -0.2218
-1.3424 NO BLUE -0.1183
-1.6435 NO CHAIRS -0.2840
-1.3424 NO GREEN -0.2609
-1.6435 NO IT'S -0.2976
-1.1663 NO NO -0.2486
-1.1663 NO THERE'S -0.1747
-1.6435 NO WE -0.2935
-1.6435 NO WE'VE -0.2430
-1.6435 NO YOU -0.2998
-1.6435 NO YOU'RE -0.2894
-1.4771 NOT A -0.2989
-1.4771 NOT EXIST 0.0000
-1.1761 NOT IN -0.1556
-1.4771 NOT INT 0.0000
-1.1761 NOT INTO -0.2730
-1.4771 NOT MARKED -0.1761
-1.4771 NOT ON -0.1690
-1.4771 NOT SEEING -0.1249
-1.1761 NOT SUPPOSED 0.0000
-1.4771 NOT THAT -0.2946
-1.1761 NOT THE -0.2885
-1.2304 NOW </s> -0.3010
-1.8325 NOW AND -0.2968
-1.8325 NOW BECAUSE 0.0000
-1.1335 NOW GO -0.1684
-1.8325 NOW HAVE -0.2802
-1.0544 NOW I'M -0.2574
-1.8325 NOW I'VE -0.0969
-1.8325 NOW IN -0.2994
-1.8325 NOW OR -0.2935
-1.8325 NOW PAST -0.2156
-1.8325 NOW SO -0.2977
-1.8325 NOW TH -0.2730
-1.8325 NOW THAT -0.2978
-1.8325 NOW THAT'S -0.2932
-1.8325 NOW TOO 0.0000
-1.5315 NOW TURN -0.2041
-1.8325 NOW WHAT -0.2894
-1.2304 NOW YOU -0.2799
-1.7709 NUMBER </s> -0.3010
-1.2268 NUMBER EIGHT -0.0902
-1.2937 NUMBER FIVE -0.1836
-2.0719 NUMBER FOR -0.2863
-1.1176 NUMBER FOUR -0.1402
-1.7709 NUMBER IS -0.2559
-1.7709 NUMBER ON -0.1690
-1.4698 NUMBER ONE -0.2436
-1.1688 NUMBER SEVEN -0.1091
-2.0719 NUMBER SEVEN'S 0.0000
-1.2268 NUMBER SIX -0.0969
-1.3729 NUMBER THREE -0.2583
-1.4698 NUMBER TWO -0.2591
-2.0719 NUMBER WAS -0.2956
-0.3010 NUMBERS ON -0.2999
-0.7782 O </s> -0.3010
-0.7782 O DID -0.0792
-0.7782 O THE -0.2981
-1.9067 OF A -0.2925
-2.3838 OF BLUE -0.2656
-1.6848 OF BOXES -0.1695
-1.4296 OF CHAIRS -0.1532
-2.3838 OF ELECTRODE 0.0000
-2.3838 OF GOING -0.2596
-2.3838 OF IN -0.2062
-1.7818 OF IT -0.1616
-2.0828 OF LADDERS 0.0000
-2.3838 OF M 0.0000
-1.7818 OF ME -0.1249
-2.3838 OF PINK -0.2977
-2.3838 OF STAIRS 0.0000
-2.3838 OF STEPS -0.2788
-1.3838 OF THAT -0.2069
-0.6057 OF THE -0.1943
-1.7818 OF THEM -0.0792
-2.0828 OF THERE -0.2378
-2.3838 OF THIS -0.2863
-2.0828 OF THOSE -0.2109
-1.5387 OF YOU -0.2862
-0.7782 OFF BY -0.2825
-0.7782 OFF OF -0.2827
-0.7782 OFF THE -0.2958
-0.7782 OFFICE </s> -0.3010
-1.0792 OFFICE AND -0.2982
-1.0792 OFFICE OFF -0.2218
-1.0792 OFFICE ON -0.1690
-1.0792 OFFICE W 0.0000
-0.7782 OFFICES ON -0.2867
-0.7782 OFFICES RIGHT -0.2473
-0.7782 OFFICES YEAH -0.2730
-1.2304 OH </s> -0.3010
-1.5315 OH AND -0.2645
-1.5315 OH GO -0.2806
-1.5315 OH I -0.2834
-1.5315 OH IT -0.2980
-1.0544 OH OKAY -0.2721
-1.5315 OH SO -0.2843
-1.5315 OH TH -0.2730
-1.5315 OH THERE'S -0.2812
-1.5315 OH TO -0.1799
-1.5315 OH VERY -0.1761
-1.5315 OH WELL -0.2863
-1.5315 OH WOW 0.0000
-1.5315 OH YEAH -0.2730
-0.6021 OK I -0.2834
-0.6021 OK WHAT'S 0.0000
-1.3531 OKAY </s> -0.3010
-1.9173 OKAY ALRIGHT -0.2396
-2.3945 OKAY ALRIGHTY 0.0000
-1.6955 OKAY AND -0.2458
-2.3945 OKAY AS -0.2430
-2.3945 OKAY AT -0.1214
-2.3945 OKAY BEFORE -0.2730
-2.3945 OKAY DID -0.0792
-2.3945 OKAY DON'T -0.2840
-2.3945 OKAY DOOR -0.2730
-2.3945 OKAY EXIT -0.2139
-2.3945 OKAY FIRST -0.2910
-1.4402 OKAY GO -0.1723
-2.0934 OKAY GOOD 0.0000
-2.0934 OKAY GOT -0.2609
-2.3945 OKAY GRAB -0.2218
-2.0934 OKAY HOLD 0.0000
-1.6955 OKAY I -0.2334
-2.3945 OKAY I'LL -0.2632
-1.6955 OKAY I'M -0.2282
-1.9173 OKAY IF -0.0928
-1.9173 OKAY IN -0.1556
-2.3945 OKAY IS -0.2653
-2.3945 OKAY JUST -0.2711
-2.3945 OKAY KEEP -0.2762
-2.3945 OKAY LEFT -0.2907
-2.3945 OKAY LET'S -0.2430
-2.3945 OKAY LIKE -0.2894
-2.3945 OKAY LOOKING -0.2632
-2.3945 OKAY NEAR 0.0000
-1.6955 OKAY NOW -0.2089
-2.3945 OKAY OKAY -0.2813
-1.5494 OKAY SO -0.2596
-2.3945 OKAY TAKE -0.1684
-2.3945 OKAY THAT'S -0.2932
-2.0934 OKAY THE -0.2971
-2.3945 OKAY THEN -0.2915
-1.7924 OKAY THERE -0.2052
-1.9173 OKAY THERE'S -0.1630
-2.3945 OKAY TIME -0.2430
-2.0934 OKAY UH -0.2713
-2.3945 OKAY UM -0.2907
-2.3945 OKAY VERY -0.1761
-1.6955 OKAY WE -0.1397
-2.3945 OKAY WE'VE -0.1761
-2.0934 OKAY WELL -0.2711
-2.3945 OKAY WH -0.1761
-1.9173 OKAY WHAT -0.2264
-1.6955 OKAY WHERE -0.2504
-1.9173 OKAY WHERE'S -0.1383
-1.7924 OKAY YEAH -0.2109
-2.3945 OKAY YOU -0.2937
-0.6021 OLD HALLWAY -0.1761
-0.6021 OLD ROOM -0.2105
-1.9661 ON </s> -0.3010
-1.2672 ON A -0.2600
-2.5682 ON BY -0.0669
-2.5682 ON FOUR'S 0.0000
-2.5682 ON GOIN -0.2218
-2.5682 ON HOLD 0.0000
-2.0911 ON I -0.2957
-1.8692 ON IT -0.1781
-2.2672 ON JUST -0.2788
-2.5682 ON LISTEN 0.0000
-1.3641 ON MY -0.0290
-2.2672 ON ONE -0.2954
-1.7901 ON THAT -0.2609
-0.5814 ON THE -0.2025
-2.5682 ON THERE -0.2378
-2.0911 ON THIS -0.2553
-2.5682 ON THOSE -0.2730
-1.8692 ON TOP 0.0000
-2.5682 ON UH -0.2958
-2.5682 ON WAIT -0.2430
-2.5682 ON WHICH -0.2218
-1.4890 ON YOUR -0.0726
-0.7782 ONCE I -0.2984
-0.4771 ONCE YOU -0.2937
-0.9379 ONE </s> -0.3010
-2.3692 ONE ALRIGHT -0.2950
-2.0682 ONE AND -0.2925
-2.3692 ONE ANYWHERE -0.1761
-2.3692 ONE AROUND -0.2467
-2.0682 ONE AT -0.1214
-2.3692 ONE BEFORE -0.2109
-2.3692 ONE BEHIND -0.0669
-2.3692 ONE BLUE -0.1183
-2.3692 ONE BOOKSHELF -0.2041
-2.3692 ONE BOOKSHELFS 0.0000
-1.8921 ONE BY -0.0669
-2.3692 ONE CLOSE -0.1761
-2.3692 ONE DOES -0.2430
-2.0682 ONE EACH -0.2632
-2.0682 ONE FOOT 0.0000
-1.8921 ONE GOT -0.2562
-2.3692 ONE HALLWAY -0.2888
-2.3692 ONE I -0.2970
-2.3692 ONE IMMEDIATELY -0.1761
-1.2900 ONE IN -0.1461
-2.0682 ONE IS -0.2953
-1.6702 ONE MINUTE 0.0000
-2.3692 ONE MORE -0.2553
-2.3692 ONE NUMBER -0.2745
-1.5911 ONE OF -0.1773
-2.3692 ONE OKAY -0.2813
-1.3692 ONE ON -0.1255
-2.3692 ONE PUT -0.2272
-1.8921 ONE SECOND -0.2698
-2.3692 ONE SHOULD -0.1027
-2.3692 ONE SO -0.2977
-2.3692 ONE THAT -0.2946
-2.3692 ONE THAT'S -0.2932
-2.3692 ONE THERE -0.2965
-2.0682 ONE TOO 0.0000
-1.7672 ONE TWO -0.2775
-2.3692 ONE UH -0.2984
-1.6702 ONE WAS -0.2730
-2.3692 ONE WE -0.2278
-1.8921 ONE YELLOW -0.2553
-0.6021 ONE'S </s> -0.3010
-0.6021 ONE'S MARKED -0.1761
-1.2553 ONES </s> -0.3010
-1.2553 ONES AS -0.2825
-1.2553 ONES I -0.2778
-0.9542 ONES ON -0.1642
-1.2553 ONES OUT -0.2906
-1.2553 ONES RIGHT -0.2473
-0.9542 ONES UNTIL 0.0000
-0.8451 ONLY BLUE -0.1183
-1.1461 ONLY GOT -0.2881
-1.1461 ONLY HAVE -0.2657
-1.1461 ONLY NEED -0.2852
-1.1461 ONLY ONE -0.2992
-1.1461 ONLY TAKE -0.1684
-0.3010 OOR </s> -0.3010
-1.4472 OPEN BUT -0.2888
-0.6021 OPEN DOOR -0.1981
-1.4472 OPEN FOR -0.2711
-1.4472 OPEN IT -0.2886
-1.4472 OPEN ONE -0.2897
-1.4472 OPEN PULL 0.0000
-1.4472 OPEN THAT -0.2962
-1.4472 OPEN THE -0.2889
-0.3010 OPENS </s> -0.3010
-0.6021 OPPOSITE THE -0.2981
-0.6021 OPPOSITE WALL -0.2704
-1.7634 OR </s> -0.3010
-1.7634 OR A -0.2914
-1.7634 OR ANYTHING -0.1249
-1.7634 OR BOTH -0.2218
-1.7634 OR DESKS -0.2553
-1.7634 OR DO -0.1538
-1.4624 OR FOUR -0.2576
-1.7634 OR GO -0.2331
-1.7634 OR IT'S -0.2802
-1.7634 OR JUST -0.2711
-1.7634 OR LEAVE -0.0969
-1.7634 OR LEFT -0.2933
-1.4624 OR LIKE -0.2653
-1.4624 OR ON -0.1690
-1.2863 OR RIGHT -0.2344
-1.7634 OR SOMETHIN 0.0000
-1.7634 OR SOMETHING 0.0000
-1.7634 OR TH -0.2730
-1.2863 OR THE -0.2932
-1.7634 OR TWO -0.2835
-1.7634 OR WHERE -0.2201
-1.7634 OR YOU -0.2974
-1.2304 OTHER </s> -0.3010
-1.5315 OTHER BLUE -0.2877
-1.5315 OTHER BOX -0.2774
-1.5315 OTHER CORNER -0.2191
-1.5315 OTHER DOOR -0.2942
-1.5315 OTHER GREEN -0.2747
-1.5315 OTHER OFFICE -0.2218
-1.5315 OTHER ON -0.1690
-1.5315 OTHER ONES -0.2762
-1.5315 OTHER PIECES 0.0000
-1.2304 OTHER PINK -0.1694
-1.0544 OTHER ROOM -0.2158
-1.5315 OTHER WALL -0.2910
-0.9031 OUR SECOND -0.2950
-0.9031 OUR TAS 0.0000
-0.9031 OUR TASK -0.1761
-0.9031 OUR TIME -0.2430
-1.3222 OUT </s> -0.3010
-1.6232 OUT AND -0.2940
-1.6232 OUT FOR -0.2711
-1.6232 OUT INTO -0.1076
-0.5441 OUT OF -0.1347
-1.6232 OUT OKAY -0.2957
-1.1461 OUT THE -0.2801
-1.0000 OUTTA BLOCKS -0.2253
-1.0000 OUTTA I'M -0.2946
-0.6990 OUTTA THAT -0.2357
-1.0000 OUTTA THE -0.2945
-0.6021 OVER HERE -0.2872
-0.6021 OVER THERE -0.2378
-0.9031 PAIR </s> -0.3010
-0.4260 PAIR OF -0.2827
-0.3010 PART OF -0.1773
-0.3010 PASS THE -0.2981
-1.4472 PAST </s> -0.3010
-1.4472 PAST BOTH -0.1249
-1.4472 PAST IT -0.2886
-0.7482 PAST THAT -0.2913
-0.8451 PAST THE -0.2828
-1.4472 PAST TWO -0.2953
-1.4472 PAST YEAH -0.2932
-0.3010 PEELED FOR -0.2711
-1.0792 PICK EM -0.2218
-0.7782 PICK THAT -0.2978
-0.6021 PICK UP -0.2071
-0.3010 PICKED UP -0.2361
-0.3010 PIECES OUTTA -0.2553
-1.3358 PINK </s> -0.3010
-2.1139 PINK AND -0.2925
-0.5825 PINK BOX -0.1331
-1.0000 PINK BOXES -0.1489
-2.1139 PINK BUT -0.2762
-1.2688 PINK ONE -0.2393
-2.1139 PINK OR -0.2935
-2.1139 PINK RIGHT -0.2780
-2.1139 PINK YAH -0.1139
-0.6532 PLATFORM </s> -0.3010
-1.2553 PLATFORM AT -0.2940
-0.9542 PLATFORM ON -0.1428
-1.2553 PLATFORM OR -0.2858
-1.2553 PLATFORM TO -0.2967
-0.3010 PLATFORMS AT -0.2940
-0.3010 PLENTY OF -0.2992
-0.7782 POINT </s> -0.3010
-0.7782 POINT I -0.2984
-0.7782 POINT OUT -0.2688
-0.3010 POINTED OUT -0.2798
-0.3010 POST </s> -0.3010
-0.3010 PRETTY SURE -0.1761
-0.3010 PROFESSOR EBERHARD 0.0000
-0.3010 PULL THE -0.2889
-0.3010 PUSHED UP -0.2632
-1.5051 PUT A -0.2946
-1.5051 PUT ALL -0.1047
-1.5051 PUT HOLD 0.0000
-1.0280 PUT IT -0.2758
-0.8062 PUT ONE -0.2581
-1.5051 PUT THAT -0.2994
-1.2041 PUT THE -0.2988
-1.5051 PUT THEM -0.2553
-1.5051 PUT UH -0.2877
-0.3010 PUTTING ANOTHER -0.2946
-0.3010 QUESTIONS FOR -0.2863
-0.3010 QUICK THREE -0.2430
-0.6021 QUICKLY </s> -0.3010
-0.6021 QUICKLY OH -0.2747
-0.3010 REACH THE -0.2935
-0.4771 REALLY GOTTA -0.2218
-0.7782 REALLY HEAR -0.1461
-0.3010 RECEIVING FURTHER -0.1761
-0.3010 RELATION TO -0.2996
-0.3010 REMAINING TASK -0.2430
-0.9031 REMEMBER </s> -0.3010
-0.9031 REMEMBER MY -0.2858
-0.6021 REMEMBER THE -0.2895
-0.3010 REST OF -0.1773
-0.9341 RIGHT </s> -0.3010
-2.0645 RIGHT ACROSS -0.1461
-2.3655 RIGHT AFTER -0.2218
-2.3655 RIGHT AGAINST 0.0000
-1.6665 RIGHT AND -0.2296
-2.3655 RIGHT AROUND -0.2467
-2.3655 RIGHT AS -0.2632
-2.0645 RIGHT AT -0.2868
-1.7634 RIGHT BEFORE -0.0512
-2.3655 RIGHT BUT -0.2632
-2.3655 RIGHT DON'T -0.2840
-2.3655 RIGHT FOLLOW 0.0000
-2.0645 RIGHT FROM -0.1206
-1.6665 RIGHT HAND 0.0000
-2.3655 RIGHT HERE -0.1938
-1.8884 RIGHT IN -0.1936
-2.3655 RIGHT INSIDE -0.2632
-1.8884 RIGHT INTO -0.0631
-2.3655 RIGHT IS -0.2982
-2.3655 RIGHT IT'S -0.2976
-2.3655 RIGHT JUST -0.2711
-2.3655 RIGHT LIKE -0.2894
-2.3655 RIGHT NE 0.0000
-2.0645 RIGHT NEAR 0.0000
-1.2863 RIGHT NEXT -0.1150
-1.7634 RIGHT NOW -0.2167
-1.5873 RIGHT OF -0.1773
-1.5204 RIGHT ON -0.1593
-2.3655 RIGHT OR -0.2935
-2.3655 RIGHT RIGHT -0.2877
-1.7634 RIGHT SIDE -0.2264
-2.3655 RIGHT SO -0.2944
-1.7634 RIGHT THERE -0.1544
-1.8884 RIGHT THERE'S -0.1630
-2.3655 RIGHT UP -0.2632
-2.3655 RIGHT WENT -0.2632
-2.3655 RIGHT WHERE -0.2648
-2.3655 RIGHT YOU'RE -0.1984
-0.3010 RIGHTSIDE OF -0.2827
-0.7490 ROOM </s> -0.3010
-2.3054 ROOM AGAIN -0.2430
-2.3054 ROOM ALREADY -0.1761
-1.6064 ROOM AND -0.2736
-2.3054 ROOM ARE -0.1614
-2.3054 ROOM AWAY 0.0000
-2.0043 ROOM BUT -0.2762
-2.3054 ROOM BY -0.0669
-2.0043 ROOM DIRECTLY -0.1761
-2.3054 ROOM GO -0.2331
-1.8282 ROOM I -0.2303
-2.3054 ROOM IS -0.2924
-2.3054 ROOM IT'S -0.2976
-2.3054 ROOM JUST -0.2863
-2.3054 ROOM NEXT -0.1150
-2.3054 ROOM NO -0.2486
-2.0043 ROOM ON -0.1428
-2.3054 ROOM OR -0.2935
-2.3054 ROOM RIGHT -0.2916
-1.6064 ROOM THAT -0.2713
-2.3054 ROOM THAT'S -0.2932
-2.0043 ROOM THE -0.2899
-1.7033 ROOM THERE -0.1576
-2.3054 ROOM THERE'S -0.1804
-2.3054 ROOM THEY 0.0000
-2.3054 ROOM THOUGH -0.2218
-2.3054 ROOM TO -0.1799
-1.8282 ROOM UH -0.2570
-2.0043 ROOM UM -0.2907
-2.0043 ROOM WHERE -0.2041
-2.3054 ROOM WHICH -0.1761
-1.2640 ROOM WITH -0.1249
-2.0043 ROOM YOU -0.2974
-2.3054 ROOM YOU'RE -0.2894
-0.6021 RYAN FER 0.0000
-0.6021 RYAN YOU -0.2998
-0.6021 S DO -0.1538
-0.6021 S WAS -0.2613
-1.3010 SAID </s> -0.3010
-1.3010 SAID AS -0.2825
-1.3010 SAID I'M -0.2978
-1.0000 SAID IT -0.2949
-1.3010 SAID THAT -0.2994
-1.3010 SAID THAT'S -0.2430
-1.0000 SAID THERE -0.2849
-1.3010 SAID YOU -0.2974
-0.3010 SAME WAY -0.2762
-0.6021 SAY AGAIN -0.2430
-0.6021 SAY YOU -0.2974
-0.6021 SAYS ALARM 0.0000
-0.6021 SAYS NUMBER -0.2822
-0.3010 SE SHOULD -0.2762
-1.3802 SECOND </s> -0.3010
-1.5563 SECOND BOX -0.2843
-1.5563 SECOND CHAIR -0.1434
-1.8573 SECOND CLOSET -0.2041
-1.5563 SECOND FILING -0.1597
-1.8573 SECOND GREEN -0.1265
-1.8573 SECOND I -0.2957
-1.5563 SECOND I'M -0.2913
-1.5563 SECOND NOW -0.2679
-1.0792 SECOND ONE -0.2106
-1.0792 SECOND ROOM -0.1998
-1.5563 SECOND SMALL 0.0000
-1.8573 SECOND STAIR 0.0000
-1.8573 SECOND STAY 0.0000
-1.3802 SECOND STEP -0.1461
-1.8573 SECOND TASK -0.2430
-0.3010 SECONDS </s> -0.3010
-1.4771 SEE </s> -0.3010
-0.8751 SEE A -0.1852
-2.0792 SEE ANOTHER -0.2814
-1.7782 SEE ANY -0.2041
-1.7782 SEE ANYTHING 0.0000
-2.0792 SEE HMM 0.0000
-1.6021 SEE I -0.2319
-1.6021 SEE IT -0.1901
-1.7782 SEE LIKE -0.2775
-1.6021 SEE ONE -0.2683
-1.7782 SEE THAT -0.2881
-0.9331 SEE THE -0.2614
-1.7782 SEE THREE -0.2583
-1.7782 SEE TWO -0.2775
-1.7782 SEE WHAT -0.2775
-2.0792 SEE WHATEVER 0.0000
-0.4771 SEEING ONE -0.2762
-0.7782 SEEING UH -0.2877
-0.3010 SEEN PLENTY 0.0000
-0.3010 SEND YOU -0.2949
-0.3010 SET OF -0.2956
-0.7482 SEVEN </s> -0.3010
-1.4472 SEVEN AN -0.2762
-0.9700 SEVEN MINUTES -0.2041
-1.1461 SEVEN OKAY -0.2813
-1.4472 SEVEN ON -0.1690
-1.4472 SEVEN TO -0.2848
-1.4472 SEVEN WAS -0.2956
-0.3010 SEVEN'S ON -0.1690
-0.4771 SEVENTH </s> -0.3010
-0.7782 SEVENTH BOX -0.2888
-0.6021 SH </s> -0.3010
-0.9031 SH HOW -0.2632
-0.9031 SH OOR 0.0000
-0.3010 SHE SAID -0.2553
-0.6021 SHELF </s> -0.3010
-1.4472 SHELF AS -0.2632
-1.4472 SHELF IS -0.2865
-1.4472 SHELF NUMBER -0.2784
-1.4472 SHELF ON -0.1690
-1.4472 SHELF PUSHED 0.0000
-1.4472 SHELF THAT'S -0.2932
-1.4472 SHELF UM -0.2976
-0.6021 SHELVES OVER -0.1761
-0.6021 SHELVES WERE -0.2688
-0.3010 SHIT THERE'S -0.2812
-0.4357 SHOULD BE -0.0207
-1.2553 SHOULD I -0.2889
-1.9542 SHOULD I'VE -0.0969
-1.9542 SHOULD ON -0.2867
-1.2553 SHOULD SEE -0.1663
-0.3010 SHOULD'VE BEEN -0.1761
-0.3010 SHOWIN A -0.2669
-0.7347 SIDE </s> -0.3010
-1.5798 SIDE IN -0.2062
-1.5798 SIDE LEFT -0.2907
-1.5798 SIDE N 0.0000
-0.8016 SIDE OF -0.1527
-1.5798 SIDE ON -0.1690
-1.5798 SIDE THE -0.2984
-1.5798 SIDE THERE'S -0.1804
-0.6021 SINGLE BLUE -0.1183
-0.6021 SINGLE DOOR -0.2730
-0.3010 SITTING ON -0.1273
-0.6812 SIX </s> -0.3010
-1.3802 SIX EIGHT -0.1165
-1.3802 SIX GREEN -0.2881
-1.3802 SIX INCHES 0.0000
-1.3802 SIX TOTAL 0.0000
-1.3802 SIX UH -0.2984
-1.0792 SIX WAS -0.2175
-0.7782 SIXTH </s> -0.3010
-1.0792 SIXTH BOX -0.2888
-1.0792 SIXTH IT -0.2949
-1.0792 SIXTH OR -0.2935
-1.0792 SIXTH THEN -0.2817
-0.3010 SLIGHT RIGHT -0.2233
-0.3010 SLIGHTLY TO -0.1799
-0.3010 SMALL ROOM -0.2025
-0.3010 SNAGGED THOSE -0.2430
-0.3010 SNAGGING THAT -0.2764
-1.6435 SO </s> -0.3010
-1.6435 SO AS -0.1996
-2.1206 SO BASICALLY -0.2688
-2.1206 SO DO -0.2844
-2.1206 SO DON'T -0.2663
-2.1206 SO EXIT -0.2139
-2.1206 SO FAR -0.2688
-2.1206 SO GET -0.2175
-2.1206 SO GO -0.2924
-2.1206 SO HANG -0.1249
-2.1206 SO HEAD -0.0580
-2.1206 SO HERE'S 0.0000
-1.3424 SO I -0.2649
-2.1206 SO I'LL -0.2218
-1.4216 SO I'M -0.2319
-2.1206 SO IS -0.2653
-1.8195 SO IT'S -0.2942
-2.1206 SO JUST -0.2937
-2.1206 SO NOW -0.2609
-2.1206 SO RIGHT -0.2935
-2.1206 SO SEE -0.2974
-2.1206 SO SHOULD -0.2762
-2.1206 SO THAT -0.2881
-2.1206 SO THAT'S -0.2932
-1.5185 SO THE -0.2835
-1.6435 SO THEN -0.2817
-2.1206 SO THERE'S -0.1804
-1.8195 SO THIS -0.2711
-2.1206 SO TURN -0.2041
-2.1206 SO UH -0.2823
-1.8195 SO WE'RE -0.2041
-2.1206 SO WHAT -0.2894
-2.1206 SO WHERE -0.2923
-2.1206 SO Y 0.0000
-2.1206 SO YEAH -0.2892
-1.2755 SO YOU -0.2670
-1.6435 SO YOU'RE -0.1684
-0.9031 SOME COMPUTER -0.1761
-0.9031 SOME I -0.2957
-0.9031 SOME PINK -0.2553
-0.9031 SOME SHELVES -0.1761
-0.3010 SOMETHIN </s> -0.3010
-0.3010 SOMETHING THAT -0.2994
-0.6021 SON </s> -0.3010
-0.6021 SON OF -0.2956
-0.3010 SOON AS -0.2109
-0.3010 SORRY BOX -0.2854
-0.6021 SORT </s> -0.3010
-0.6021 SORT OF -0.2992
-0.3010 SOUND WHILE 0.0000
-0.6021 SPOT ALRIGHT -0.2857
-0.6021 SPOT ANYMORE 0.0000
-1.3424 STACK A -0.3000
-0.3424 STACK OF -0.2713
-0.3010 STACKS OF -0.2751
-0.3010 STAIR ON -0.1690
-0.3010 STAIRS </s> -0.3010
-0.3010 STAND TO -0.2937
-0.3010 STANDARD METAL 0.0000
-0.9031 STANDING BY -0.0669
-0.9031 STANDING HERE -0.2730
-0.9031 STANDING IN -0.2994
-0.9031 STANDING RIGHT -0.2780
-0.7782 START FILLING 0.0000
-0.7782 START HEADING 0.0000
-0.7782 START OFF -0.2218
-0.3010 STARTED THERE -0.2378
-0.3010 STARTING IN -0.2770
-0.3010 STAY RIGHT -0.2916
-0.6990 STEP </s> -0.3010
-1.0000 STEP BACK -0.2881
-1.0000 STEP IT'S -0.2942
-1.0000 STEP OF -0.1773
-0.3010 STEPPED OUT -0.1549
-0.6990 STEPS </s> -0.3010
-1.3010 STEPS FORWARD -0.1249
-1.3010 STEPS IT'S -0.2545
-1.3010 STEPS TAKE -0.1684
-1.3010 STEPS THAT -0.2994
-1.3010 STEPS THERE'S -0.1804
-1.3010 STEPS YOU -0.2986
-0.3010 STI </s> -0.3010
-1.2041 STILL FACING -0.2730
-0.9031 STILL HAVEN'T -0.1249
-0.9031 STILL IN -0.2062
-1.2041 STILL NEED -0.1549
-1.2041 STILL STANDING -0.2430
-1.2041 STILL WANT -0.1597
-0.3010 STOP AND -0.2968
-1.7782 STRAIGHT </s> -0.3010
-0.6990 STRAIGHT AHEAD -0.0746
-1.7782 STRAIGHT BACK -0.2968
-1.4771 STRAIGHT FORWARD -0.1249
-1.4771 STRAIGHT IN -0.2909
-1.7782 STRAIGHT INTO -0.2872
-0.7782 STRAIGHT THROUGH -0.0613
-1.7782 STRAIGHT UNLESS 0.0000
-0.3010 STUFF </s> -0.3010
-0.3010 SUPPOSED TO -0.2908
-0.6021 SURE BLOCKS -0.2253
-0.6021 SURE TO -0.2996
-0.9031 T THE -0.2968
-0.9031 T TO -0.1799
-0.9031 T TWO -0.2953
-0.9031 T WHERE -0.2201
-1.0000 TABLE </s> -0.3010
-1.0000 TABLE BUT -0.2888
-1.0000 TABLE IN -0.2943
-1.0000 TABLE OR -0.2935
-1.0000 TABLE WHAT -0.2527
-0.3010 TABLES ON -0.1690
-0.5798 TAKE A -0.2804
-1.5798 TAKE ANOTHER -0.2946
-1.5798 TAKE CARE 0.0000
-1.2788 TAKE THAT -0.2747
-0.9777 TAKE THE -0.2869
-1.5798 TAKE TWO -0.2953
-0.3010 TAKEN THE -0.2945
-0.6990 TAKING A -0.2903
-1.0000 TAKING OUT -0.2688
-0.6990 TAKING THE -0.2952
-0.3010 TALKING TO -0.2967
-0.3010 TAS THAT -0.2994
-0.6021 TASK </s> -0.3010
-0.9031 TASK HOLD 0.0000
-0.9031 TASK WE -0.2452
-0.3010 TESTING ROOM -0.2835
-1.2041 TH </s> -0.3010
-1.2041 TH AT -0.1214
-1.2041 TH NUMBER -0.2745
-1.2041 TH OR -0.2780
-1.2041 TH THE -0.2971
-1.2041 TH THERE -0.2802
-1.2041 TH THERE'S -0.2967
-1.2041 TH WELL -0.2863
-1.5895 THAT </s> -0.3010
-2.4346 THAT AND -0.2996
-2.4346 THAT ARE -0.2900
-2.4346 THAT BL -0.1761
-1.8325 THAT BLUE -0.0809
-2.4346 THAT BOX -0.2999
-2.1335 THAT CART -0.1836
-2.4346 THAT CHAIRS -0.2752
-1.9574 THAT CORNER -0.2730
-1.8325 THAT DOOR -0.2191
-1.6564 THAT DOORWAY -0.0969
-2.1335 THAT FAR -0.1549
-1.9574 THAT FILING -0.1597
-2.4346 THAT FIRST -0.2910
-2.4346 THAT GR 0.0000
-2.1335 THAT GREEN -0.1265
-2.4346 THAT HALL -0.2218
-1.6564 THAT HALLWAY -0.1484
-1.8325 THAT I -0.2487
-2.4346 THAT IN -0.2608
-2.4346 THAT INTO -0.1076
-2.4346 THAT IS -0.2775
-2.1335 THAT LADDER -0.1761
-2.4346 THAT LEADS 0.0000
-2.4346 THAT LEFT -0.2985
-1.9574 THAT LITTLE -0.1984
-2.4346 THAT LOCATED -0.1761
-2.4346 THAT MAY 0.0000
-2.4346 THAT NOT -0.2711
-2.4346 THAT NOW -0.2747
-2.4346 THAT NUMBER -0.2705
-2.4346 THAT OFFICE -0.2632
-2.4346 THAT ON -0.2951
-1.2585 THAT ONE -0.2218
-2.1335 THAT ONE'S 0.0000
-2.4346 THAT OPEN -0.2852
-2.4346 THAT OTHER -0.2747
-2.4346 THAT PINK -0.1694
-1.0728 THAT ROOM -0.1775
-2.4346 THAT SHELF -0.2852
-2.4346 THAT SIDE -0.2126
-2.4346 THAT SPOT -0.1761
-2.4346 THAT STRAIGHT -0.2218
-2.4346 THAT TASK -0.1761
-2.4346 THAT THAT -0.2627
-2.4346 THAT UH -0.2768
-2.1335 THAT UP -0.2071
-1.8325 THAT WAS -0.2304
-2.4346 THAT WINDOW -0.2430
-2.4346 THAT WOULD -0.1761
-2.4346 THAT WRONG -0.1761
-1.5315 THAT YOU -0.2773
-2.4346 THAT YOU'RE -0.2894
-1.7482 THAT'S ALL -0.2596
-1.7482 THAT'S ALMOST -0.1761
-1.7482 THAT'S ALSO -0.2788
-1.7482 THAT'S BOX -0.2854
-1.7482 THAT'S DIRECTLY -0.2218
-1.7482 THAT'S EASY 0.0000
-1.1461 THAT'S FINE 0.0000
-1.7482 THAT'S FIVE -0.2126
-1.7482 THAT'S FURTHER -0.1761
-1.7482 THAT'S FURTHEST -0.1761
-1.7482 THAT'S IT -0.1901
-0.9031 THAT'S NUMBER -0.1586
-1.7482 THAT'S ON -0.1690
-1.4472 THAT'S ONE -0.2897
-1.7482 THAT'S RIGHT -0.2973
-1.4472 THAT'S THE -0.2929
-1.7482 THAT'S WHERE'S -0.2430
-2.6500 THE </s> -0.3010
-2.8261 THE AND -0.2630
-3.1271 THE BACK -0.2515
-2.8261 THE BARRIER 0.0000
-3.1271 THE BASE 0.0000
-2.8261 THE BEND 0.0000
-2.8261 THE BIG -0.1761
-3.1271 THE BIGGER 0.0000
-1.9810 THE BLOCKS -0.0792
-1.8261 THE BLUE -0.0052
-3.1271 THE BOOK -0.1761
-2.1271 THE BOOKSHELF -0.0280
-3.1271 THE BOOKSHELVES 0.0000
-2.6500 THE BOTTOM 0.0000
-2.1729 THE BOX -0.1933
-2.4281 THE BROWN 0.0000
-3.1271 THE CARBOARD -0.1761
-1.7847 THE CARDBOARD -0.0334
-2.1729 THE CART -0.1015
-2.1271 THE CHAIR -0.0854
-2.3490 THE CHAIRS -0.1291
-3.1271 THE CHIPS 0.0000
-3.1271 THE CLOSEST 0.0000
-2.8261 THE CLOSET -0.2041
-3.1271 THE COMPUTER -0.1761
-2.8261 THE COMPUTERS 0.0000
-3.1271 THE CORDER 0.0000
-1.7847 THE CORNER -0.0631
-2.8261 THE DE 0.0000
-2.4281 THE DEAD -0.0669
-2.3490 THE DESK -0.1139
-2.6500 THE DESKS -0.1461
-1.5589 THE DOOR -0.0631
-3.1271 THE DOOR'S 0.0000
-2.8261 THE DOORPOST 0.0000
-2.0857 THE DOORWAY -0.0792
-2.8261 THE EDGE 0.0000
-2.8261 THE EIGHTH 0.0000
-1.7654 THE END -0.0290
-3.1271 THE ENDS -0.2218
-3.1271 THE ENTIRE 0.0000
-2.8261 THE F -0.1249
-3.1271 THE FALSE 0.0000
-2.5250 THE FAR -0.1091
-3.1271 THE FARTHEST 0.0000
-3.1271 THE FI 0.0000
-2.8261 THE FIFTH 0.0000
-2.1271 THE FILING 0.0000
-2.4281 THE FIRE 0.0000
-1.9230 THE FIRST -0.1047
-2.4281 THE FLOOR 0.0000
-3.1271 THE FOURTH -0.1761
-3.1271 THE FURTHEST -0.1761
-3.1271 THE GOAL 0.0000
-2.0479 THE GREEN -0.0126
-2.8261 THE HALL -0.1249
-1.5589 THE HALLWAY -0.0458
-3.1271 THE HHH -0.1761
-3.1271 THE HIDDEN -0.2218
-3.1271 THE HUGE 0.0000
-3.1271 THE I -0.2635
-2.8261 THE I'M -0.2814
-2.6500 THE IN -0.2062
-3.1271 THE INS 0.0000
-2.8261 THE INSIDE -0.2218
-2.6500 THE IT'S -0.2507
-2.6500 THE LADDER -0.1383
-3.1271 THE LEF 0.0000
-1.6647 THE LEFT -0.0662
-3.1271 THE LEFTHAND -0.1761
-3.1271 THE LINTEL 0.0000
-2.1729 THE LITTLE -0.1015
-2.5250 THE MAP -0.1091
-2.8261 THE MIDDLE 0.0000
-2.0857 THE NEXT -0.0130
-2.5250 THE NUMBER -0.2420
-3.1271 THE NUMBERS 0.0000
-3.1271 THE OF -0.1773
-2.8261 THE OFFICE -0.2218
-2.5250 THE OLD 0.0000
-2.3490 THE ONE -0.2742
-3.1271 THE ONES -0.2499
-2.6500 THE ONLY -0.1963
-2.5250 THE OPEN -0.1761
-3.1271 THE OPPOSITE -0.1761
-2.0132 THE OTHER -0.0483
-3.1271 THE PART 0.0000
-1.8967 THE PINK -0.0322
-2.4281 THE PLATFORM -0.0872
-3.1271 THE PLATFORMS 0.0000
-3.1271 THE REMAINING 0.0000
-3.1271 THE REMEMBER -0.2430
-3.1271 THE REST 0.0000
-1.8261 THE RIGHT -0.1956
-3.1271 THE RIGHTSIDE 0.0000
-1.7292 THE ROOM -0.1260
-3.1271 THE SAME 0.0000
-1.7292 THE SECOND -0.1065
-2.6500 THE SEVENTH 0.0000
-2.4281 THE SHELF -0.1549
-3.1271 THE SHELVES -0.1761
-3.1271 THE SITTING 0.0000
-2.4281 THE SIXTH -0.0669
-2.6500 THE SLIGHT 0.0000
-3.1271 THE SMALL 0.0000
-3.1271 THE SO -0.2808
-3.1271 THE SORT -0.1761
-2.6500 THE STACK -0.0378
-2.8261 THE STAIRS 0.0000
-2.2240 THE STEPS -0.0792
-2.6500 THE TABLE -0.1461
-3.1271 THE TABLES 0.0000
-2.5250 THE THE -0.2885
-2.8261 THE THIRD 0.0000
-2.6500 THE THREE -0.2657
-3.1271 THE TIME'S -0.1249
-2.6500 THE TO -0.1780
-3.1271 THE TOP -0.1249
-2.8261 THE TWO -0.2835
-2.3490 THE UH -0.2628
-2.5250 THE UM -0.2802
-2.8261 THE VERY -0.1761
-1.9230 THE WALL -0.0378
-2.2240 THE WAY -0.0458
-3.1271 THE WHOLE 0.0000
-2.6500 THE WINDOW -0.0969
-3.1271 THE WOODEN 0.0000
-3.1271 THE YE -0.1761
-3.1271 THE YEAH -0.2932
-2.3490 THE YELLOW -0.1761
-1.0000 THEM </s> -0.3010
-1.0000 THEM AND -0.2996
-1.0000 THEM IN -0.2062
-1.0000 THEM ROOM -0.2989
-1.0000 THEM YOU -0.2837
-1.3617 THEN </s> -0.3010
-1.9638 THEN A -0.2903
-1.9638 THEN AFTER -0.1249
-1.9638 THEN ALSO -0.2788
-1.6628 THEN AS -0.1996
-1.9638 THEN ENDS -0.2218
-1.4867 THEN GO -0.2622
-1.2648 THEN I -0.2778
-1.6628 THEN I'M -0.2814
-1.9638 THEN IN -0.2062
-1.9638 THEN IT -0.2949
-1.9638 THEN ONE -0.2992
-1.9638 THEN TAKING -0.2041
-1.6628 THEN THAT -0.2913
-1.3617 THEN THE -0.2845
-1.9638 THEN THERE -0.2988
-1.1187 THEN THERE'S -0.1449
-1.9638 THEN TURN -0.2355
-1.9638 THEN TWO -0.2835
-1.9638 THEN WE -0.2858
-1.9638 THEN WHEN -0.1139
-1.9638 THEN WHERE -0.2648
-1.9638 THEN YOU -0.2998
-1.9638 THEN YOU'LL 0.0000
-1.9638 THEN YOU'RE -0.1984
-0.8683 THERE </s> -0.3010
-1.6812 THERE A -0.2541
-2.2833 THERE AGAINST 0.0000
-2.2833 THERE ALSO -0.2553
-1.9823 THERE AND -0.2868
-1.9823 THERE ANOTHER -0.2319
-1.9823 THERE ARE -0.2788
-2.2833 THERE AS -0.2632
-2.2833 THERE AT -0.1214
-2.2833 THERE BASICALLY -0.2688
-1.9823 THERE BUT -0.2499
-2.2833 THERE GONNA -0.2717
-2.2833 THERE I -0.2957
-1.3291 THERE IS -0.2331
-2.2833 THERE JUST -0.2937
-2.2833 THERE MIGHT 0.0000
-2.2833 THERE OKAY -0.2813
-0.8361 THERE SHOULD -0.0872
-2.2833 THERE THERE -0.2872
-1.9823 THERE THERE'S -0.1689
-2.2833 THERE THREE -0.2872
-1.5051 THERE WAS -0.2553
-2.2833 THERE WERE -0.2688
-2.3054 THERE'S </s> -0.3010
-0.6152 THERE'S A -0.1581
-2.0043 THERE'S ACTUALLY -0.2341
-2.3054 THERE'S ALL -0.2910
-1.5272 THERE'S ALSO -0.1139
-1.3511 THERE'S ANOTHER -0.0918
-2.3054 THERE'S BOX -0.2854
-2.3054 THERE'S GONNA -0.2717
-2.3054 THERE'S IN -0.2062
-2.0043 THERE'S JUST -0.2711
-2.3054 THERE'S MBOOKSHELVES 0.0000
-1.7033 THERE'S NO -0.2139
-2.3054 THERE'S NUMBER -0.2666
-1.3511 THERE'S ONE -0.2663
-2.3054 THERE'S SOME -0.2430
-2.3054 THERE'S STANDING -0.2430
-2.0043 THERE'S THE -0.2892
-2.3054 THERE'S THERE'S -0.2989
-1.7033 THERE'S TWO -0.2653
-1.8282 THERE'S UH -0.2796
-2.3054 THERE'S UM -0.2942
-0.3010 THEY TOLD -0.1761
-0.3010 THING LIKE -0.2894
-0.8451 THINK OF -0.2920
-1.1461 THINK SO -0.2910
-1.1461 THINK THAT'S -0.2852
-1.1461 THINK THE -0.3007
-0.8451 THINK WE'RE -0.2553
-0.6021 THIRD GREEN -0.1265
-0.6021 THIRD SHELF -0.1761
-1.1761 THIS </s> -0.3010
-1.4771 THIS CHART 0.0000
-1.4771 THIS DOWN -0.2688
-1.4771 THIS HALLWAY -0.1814
-1.1761 THIS IS -0.2953
-1.4771 THIS LITTLE -0.2126
-1.4771 THIS ON -0.2975
-1.4771 THIS ONE -0.2992
-1.1761 THIS POINT -0.1249
-1.1761 THIS ROOM -0.2158
-1.4771 THIS UH -0.2984
-0.9031 THOSE </s> -0.3010
-1.2041 THOSE BOXES -0.2139
-1.2041 THOSE LATER 0.0000
-1.2041 THOSE NOW -0.2946
-1.2041 THOSE ON -0.1690
-1.2041 THOSE RIGHT -0.2473
-1.2041 THOSE UP -0.2888
-0.7782 THOUGH IS -0.2953
-0.7782 THOUGH REMEMBER -0.1761
-0.7782 THOUGH RIGHT -0.2992
-0.3010 THR WE -0.2278
-1.3291 THREE </s> -0.3010
-1.8062 THREE BLUE -0.2656
-1.1072 THREE CHAIRS -0.1648
-1.2041 THREE FOUR -0.1963
-1.8062 THREE GREEN -0.1265
-1.8062 THREE IS -0.2865
-0.9031 THREE MINUTES -0.0280
-1.8062 THREE MORE -0.2041
-1.5051 THREE ON -0.1610
-1.8062 THREE OR -0.2858
-1.5051 THREE STACKS 0.0000
-1.8062 THREE TO -0.2996
-1.8062 THREE WAS -0.2844
-1.8062 THREE WE -0.2619
-1.8195 THROUGH </s> -0.3010
-1.8195 THROUGH A -0.3000
-1.5185 THROUGH AGAIN -0.1761
-1.8195 THROUGH ANOTHER -0.2881
-1.8195 THROUGH IT -0.1901
-1.8195 THROUGH KEEP -0.2218
-1.8195 THROUGH SOME -0.2430
-0.9744 THROUGH THAT -0.2430
-0.5891 THROUGH THE -0.2527
-1.8195 THROUGH TO -0.2996
-0.3010 THROUGHOUT THE -0.3007
-0.9031 TIME AH -0.2218
-0.9031 TIME I -0.2834
-0.9031 TIME IS -0.2982
-0.9031 TIME TO -0.2981
-0.7782 TIME'S TIME'S -0.1249
-0.4771 TIME'S UP -0.2218
-2.1761 TO </s> -0.3010
-2.4771 TO AN -0.2762
-2.4771 TO BE -0.2957
-2.4771 TO CHECK 0.0000
-2.4771 TO COME -0.2730
-2.4771 TO COMPLETE 0.0000
-2.4771 TO CONTINUE -0.2430
-2.0000 TO DO -0.2788
-2.1761 TO EACH -0.2632
-2.4771 TO ENTER -0.2041
-1.8751 TO FILL 0.0000
-2.1761 TO FIND -0.1461
-2.4771 TO FINISH 0.0000
-1.7782 TO GET -0.1139
-1.8751 TO GO -0.1984
-2.4771 TO HAVE -0.2942
-2.1761 TO HURRY 0.0000
-2.4771 TO I -0.2778
-2.4771 TO IN -0.2909
-1.8751 TO IT -0.1901
-2.4771 TO LEFT -0.2907
-2.4771 TO MARK 0.0000
-1.4357 TO MY -0.0561
-2.4771 TO PICK -0.2632
-2.1761 TO PUT -0.2730
-2.4771 TO SEND 0.0000
-1.8751 TO TAKE -0.0830
-2.4771 TO THAT -0.2897
-0.6138 TO THE -0.1652
-2.4771 TO THERE -0.2326
-2.4771 TO TRY 0.0000
-2.0000 TO UH -0.2904
-2.4771 TO UM -0.2872
-2.4771 TO WALK -0.2808
-1.7782 TO WHERE -0.1703
-2.4771 TO YEAH -0.2971
-2.0000 TO YOUR -0.1047
-0.6021 TOLD ME -0.1919
-0.9031 TOLD WHAT -0.2894
-0.9031 TOLD YOU -0.2998
-0.3010 TOO </s> -0.3010
-0.3010 TOOK A -0.2892
-0.7782 TOP </s> -0.3010
-0.4771 TOP OF -0.1603
-0.3010 TOTAL </s> -0.3010
-0.6021 TOWARD THAT -0.2994
-0.6021 TOWARD THE -0.2929
-0.4771 TOWARDS THE -0.2902
-0.7782 TOWARDS WHERE -0.2201
-0.3010 TRY TO -0.2981
-0.3010 TRYIN TO -0.2952
-0.3010 TUH THE -0.3001
-1.6990 TURN </s> -0.3010
-0.6990 TURN AROUND -0.1313
-1.6990 TURN INTO -0.1076
-0.8539 TURN LEFT -0.1534
-1.2218 TURN RIGHT -0.2430
-1.6990 TURN STRAIGHT -0.2937
-1.6990 TURN TO -0.1799
-1.6990 TURN YOUR -0.2910
-0.3010 TURNED RIGHT -0.2322
-0.3010 TURNING LEFT -0.1744
-1.0000 TURNS </s> -0.3010
-1.0000 TURNS LEFT -0.2959
-1.0000 TURNS THE -0.3004
-0.6990 TURNS TO -0.1799
-1.1818 TWO </s> -0.3010
-1.5798 TWO AND -0.2824
-1.8808 TWO BLOCKS -0.2923
-1.4037 TWO BLUE -0.2656
-1.8808 TWO BOXES -0.2139
-1.4037 TWO CHAIRS -0.1648
-1.8808 TWO CLOSETS 0.0000
-1.8808 TWO FEET -0.2218
-1.5798 TWO FILING -0.1919
-1.8808 TWO FIVE -0.2894
-1.8808 TWO IS -0.2715
-1.8808 TWO LITTLE -0.2894
-1.4037 TWO MINUTES -0.0792
-1.4037 TWO OFFICES 0.0000
-1.8808 TWO PINK -0.2977
-1.8808 TWO QUESTIONS 0.0000
-1.8808 TWO RIGHT -0.2877
-1.8808 TWO SECONDS 0.0000
-1.8808 TWO STACKS 0.0000
-1.8808 TWO STEPS -0.2788
-1.2788 TWO THREE -0.2507
-1.3750 UH </s> -0.3010
-2.2201 UH ALRIGHT -0.2950
-1.9191 UH ARE -0.1461
-2.2201 UH BASICALLY -0.2688
-2.2201 UH BOOKSHELF -0.2041
-2.2201 UH CABINET -0.2808
-2.2201 UH CARDBOARD -0.0645
-2.2201 UH CONTINUE -0.2430
-1.9191 UH FIRST -0.2808
-2.2201 UH FOURTH -0.1761
-1.7430 UH GO -0.2020
-2.2201 UH GREEN -0.2978
-2.2201 UH HOLD 0.0000
-2.2201 UH HOW -0.1249
-2.2201 UH HUH -0.2218
-1.5211 UH I -0.2635
-1.9191 UH IF -0.1249
-2.2201 UH IS -0.2653
-2.2201 UH IT -0.2918
-1.7430 UH IT'S -0.2545
-2.2201 UH LITTLE -0.2894
-2.2201 UH NO -0.2910
-2.2201 UH OF -0.1773
-2.2201 UH ON -0.1690
-2.2201 UH ONE -0.2973
-2.2201 UH PROFESSOR 0.0000
-1.7430 UH RIGHT -0.2877
-2.2201 UH SEVEN -0.2518
-1.6180 UH SO -0.2560
-1.2659 UH THE -0.2684
-1.6180 UH THERE -0.2164
-1.6180 UH THERE'S -0.1510
-2.2201 UH TOWARDS -0.1249
-2.2201 UH TURN -0.2923
-2.2201 UH UH -0.2768
-2.2201 UH WAIT -0.2430
-2.2201 UH WE -0.2619
-2.2201 UH WHATEVER 0.0000
-2.2201 UH WHEN -0.1139
-2.2201 UH WHICH -0.1761
-2.2201 UH Y 0.0000
-2.2201 UH YEAH -0.2730
-2.2201 UH YELLOW -0.2900
-1.6180 UH YOU -0.2824
-0.3010 UHF YEAH -0.2646
-0.3010 UHUH </s> -0.3010
-1.5051 UM </s> -0.3010
-1.8062 UM A -0.2714
-1.8062 UM AGAINST 0.0000
-2.1072 UM ALRIGHT -0.2730
-1.5051 UM AND -0.2296
-2.1072 UM ANY -0.2553
-2.1072 UM AS -0.2919
-2.1072 UM BACK -0.2968
-2.1072 UM DO -0.2956
-2.1072 UM FROM -0.1206
-1.3291 UM GO -0.1486
-2.1072 UM GOING -0.2808
-1.6301 UM I -0.2319
-2.1072 UM I'M -0.2946
-2.1072 UM IF -0.1829
-2.1072 UM IMMEDIATELY -0.2218
-1.8062 UM IS -0.2684
-1.5051 UM IT'S -0.2730
-1.5051 UM ON -0.1495
-2.1072 UM SECOND -0.2632
-2.1072 UM SO -0.2977
-2.1072 UM SORT -0.1761
-2.1072 UM STILL -0.2730
-2.1072 UM TAKE -0.1684
-1.5051 UM THE -0.2885
-1.8062 UM THERE'S -0.1747
-2.1072 UM TO -0.2848
-1.4082 UM TURN -0.2041
-2.1072 UM TURNED 0.0000
-2.1072 UM WALK -0.2808
-2.1072 UM WE -0.2452
-2.1072 UM WHERE -0.2923
-2.1072 UM YEAH -0.2932
-2.1072 UM YES -0.2711
-0.3010 UNDER ONE -0.2897
-0.3010 UNDERNEATH THE -0.3001
-0.3010 UNDERSTAND WHERE -0.2923
-0.3010 UNLESS YOU -0.2850
-0.9031 UNTIL </s> -0.3010
-0.4260 UNTIL YOU -0.2735
-0.7782 UP </s> -0.3010
-1.0792 UP AGAINST 0.0000
-1.5563 UP ALL -0.1047
-1.5563 UP BEFORE -0.2109
-1.5563 UP OR -0.2935
-0.8573 UP THE -0.2729
-1.5563 UP WHAT -0.2527
-0.3010 UUM </s> -0.3010
-0.6021 VERY CORNER -0.2657
-0.6021 VERY GOOD -0.0792
-0.3010 W WHERE -0.2923
-0.9031 WAIT A -0.2946
-0.9031 WAIT HOLD 0.0000
-0.9031 WAIT I -0.2635
-0.9031 WAIT ONE -0.2954
-1.3424 WALK ALL -0.1047
-1.3424 WALK BACK -0.2924
-1.0414 WALK IN -0.2857
-1.0414 WALK INTO -0.1076
-1.3424 WALK OUT -0.1549
-1.3424 WALK PAST -0.2156
-1.0414 WALK STRAIGHT -0.2218
-1.3424 WALK WALK -0.2596
-0.6021 WALKED IN -0.2344
-1.0000 WALKED INTO -0.0969
-1.3010 WALKED PAST -0.2852
-1.3010 WALKED STRAIGHT -0.2863
-1.3010 WALKED THROUGH -0.1717
-0.6021 WALKING BACK -0.2467
-1.0792 WALKING I'M -0.2978
-1.0792 WALKING STRAIGHT -0.2218
-1.0792 WALKING TO -0.1799
-1.0414 WALL </s> -0.3010
-1.6435 WALL ABOUT -0.2840
-1.6435 WALL AND -0.2868
-1.6435 WALL BUT -0.2632
-1.1663 WALL ON -0.1428
-1.6435 WALL OR -0.2935
-1.6435 WALL STRAIGHT -0.2041
-1.3424 WALL THAT -0.2881
-1.1663 WALL THERE'S -0.1540
-1.3424 WALL UM -0.2942
-1.6435 WALL UNDERNEATH 0.0000
-1.6435 WALL WHERE -0.2201
-1.6435 WALL YOU -0.2937
-1.3010 WANNA DO -0.2844
-1.0000 WANNA GO -0.2055
-1.3010 WANNA HANG -0.2218
-1.3010 WANNA HEAD -0.2688
-1.3010 WANNA MAKE -0.1761
-1.3010 WANNA OPEN -0.2852
-1.3010 WANNA PASS 0.0000
-1.3010 WANNA START -0.2218
-1.3010 WANNA WALK -0.2808
-1.2553 WANT </s> -0.3010
-0.5563 WANT ME -0.2071
-0.9542 WANT THOSE -0.2430
-1.2553 WANT TO -0.2952
-1.0580 WAS </s> -0.3010
-1.0000 WAS A -0.2184
-1.9031 WAS ALRRIGHT 0.0000
-1.9031 WAS BUSY 0.0000
-1.9031 WAS FOUR -0.2341
-1.9031 WAS IN -0.2994
-1.9031 WAS IT -0.1901
-1.6021 WAS JUST -0.2711
-1.9031 WAS NUMBER -0.2784
-1.4260 WAS ON -0.1411
-1.9031 WAS ONE -0.2478
-1.9031 WAS STRAIGHT -0.2863
-1.9031 WAS THAT -0.2913
-1.0580 WAS THE -0.2942
-1.9031 WAS THERE'S -0.1804
-1.6021 WAS TWO -0.2591
-1.9031 WAS WHEN -0.2553
-1.2553 WAY BACK -0.2515
-1.2553 WAY I'M -0.2848
-1.2553 WAY IF -0.1829
-1.2553 WAY THAT -0.2946
-0.6532 WAY TO -0.1584
-1.2553 WAY YOU -0.2949
-1.4624 WE CAN -0.2499
-1.7634 WE GO -0.2331
-1.0645 WE GOT -0.2656
-0.8092 WE HAVE -0.2024
-1.7634 WE HAVEN'T -0.2218
-1.7634 WE IGNORE 0.0000
-0.9183 WE NEED -0.1326
-1.7634 WE NOW -0.2946
-1.7634 WE NUMBER -0.2822
-1.7634 WE ONLY -0.2688
-0.6021 WE'LL COME -0.1761
-0.6021 WE'LL HEAD -0.0580
-1.3010 WE'RE DONE -0.1761
-1.3010 WE'RE GETTING -0.1249
-0.6990 WE'RE GONNA -0.2511
-1.3010 WE'RE JUST -0.2937
-1.0000 WE'RE NOT -0.2711
-1.3010 WE'RE OUT -0.2798
-0.6021 WE'VE GOT -0.2792
-0.9031 WE'VE GOTTA -0.2632
-0.9031 WE'VE ONLY -0.2688
-1.0000 WELL </s> -0.3010
-1.4771 WELL AS -0.2825
-1.1761 WELL I -0.2902
-1.4771 WELL I'M -0.2978
-1.4771 WELL IT'S -0.2802
-1.4771 WELL LET'S -0.1761
-1.4771 WELL NOT -0.2863
-1.4771 WELL OKAY -0.2975
-1.4771 WELL THEN -0.2915
-1.4771 WELL THERE'S -0.2989
-1.4771 WELL UH -0.2877
-1.4771 WELL WHAT -0.2775
-1.0792 WENT BACK -0.2792
-1.0792 WENT OUT -0.2688
-0.6021 WENT THROUGH -0.1627
-1.0792 WENT TO -0.1799
-1.1461 WERE </s> -0.3010
-1.1461 WERE IN -0.2875
-1.1461 WERE IT'S -0.2976
-1.1461 WERE JUST -0.2863
-1.1461 WERE THREE -0.2657
-0.8451 WERE TO -0.2981
-0.6021 WH WHAT -0.2527
-0.6021 WH WHERE -0.2923
-0.9777 WHAT </s> -0.3010
-1.5798 WHAT BOX -0.2854
-1.5798 WHAT COLOR 0.0000
-1.5798 WHAT I -0.2997
-1.5798 WHAT I'M -0.2747
-1.5798 WHAT IS -0.2653
-1.5798 WHAT NEXT -0.2944
-0.9777 WHAT NUMBER -0.2822
-1.5798 WHAT TO -0.2967
-1.2788 WHAT WAS -0.2900
-1.5798 WHAT YOU -0.2837
-1.5798 WHAT YOU'RE -0.1984
-0.3010 WHAT'S THE -0.2997
-0.3010 WHATEVER YOU -0.2887
-1.0000 WHEN I -0.2943
-1.3010 WHEN WE -0.2935
-0.4559 WHEN YOU -0.2786
-1.5229 WHERE </s> -0.3010
-1.5229 WHERE ALL -0.1047
-1.6990 WHERE ARE -0.1614
-2.0000 WHERE ELSE 0.0000
-1.6990 WHERE I -0.2861
-2.0000 WHERE IN -0.2062
-1.0969 WHERE IS -0.2331
-2.0000 WHERE NOW -0.2946
-2.0000 WHERE NUMBER -0.2745
-2.0000 WHERE TH -0.2730
-0.7696 WHERE THE -0.2535
-1.6990 WHERE THERE -0.2778
-1.0969 WHERE YOU -0.2761
-1.2041 WHERE'S EIGHT -0.1165
-0.9031 WHERE'S NUMBER -0.2666
-1.2041 WHERE'S SIX -0.1996
-0.6021 WHERE'S THE -0.2909
-0.6021 WHICH IS -0.2924
-1.0792 WHICH SHOULD -0.1027
-0.7782 WHICH SIDE -0.2775
-0.3010 WHILE BLAH -0.1761
-0.3010 WHOLE TIME -0.2430
-0.3010 WILL SOUND 0.0000
-0.6021 WINDOW </s> -0.3010
-0.9031 WINDOW ON -0.2769
-0.9031 WINDOW THERE'S -0.1804
-1.1461 WITH A -0.2409
-1.3222 WITH ALL -0.1047
-1.6232 WITH DESKS -0.2553
-1.6232 WITH IT -0.2918
-1.6232 WITH SOME -0.2430
-0.5819 WITH THE -0.2838
-1.3222 WITH TWO -0.2835
-0.3010 WONDERFUL ALRIGHT -0.2730
-0.3010 WOODEN PLATFORM -0.1919
-0.3010 WORTH OF -0.2956
-0.6021 WOULD BE -0.2737
-0.9031 WOULD IT -0.2949
-0.9031 WOULD YOU -0.2998
-0.3010 WOW OKAY -0.2813
-0.3010 WRITE THIS -0.2863
-0.6021 WRONG FIVE -0.2775
-0.6021 WRONG ON -0.2818
-0.3010 Y ARE -0.1614
-0.3010 YA S -0.1761
-1.3010 YAH </s> -0.3010
-1.3010 YAH I -0.2957
-1.3010 YAH WHERE -0.2201
-0.4559 YAH YAH 0.0000
-0.6021 YE </s> -0.3010
-0.6021 YE EACH -0.2218
-1.2041 YEAH </s> -0.3010
-2.0492 YEAH DO -0.1538
-2.0492 YEAH FIVE -0.2775
-1.7482 YEAH GO -0.2091
-2.0492 YEAH GOIN -0.2218
-2.0492 YEAH GREAT 0.0000
-2.0492 YEAH HEAD -0.0580
-1.0950 YEAH I -0.2256
-1.7482 YEAH I'VE -0.0969
-2.0492 YEAH IT -0.2918
-1.7482 YEAH OKAY -0.2886
-1.7482 YEAH ON -0.1690
-2.0492 YEAH PUT -0.2730
-1.5721 YEAH SO -0.2449
-2.0492 YEAH THAT -0.2913
-1.7482 YEAH THAT'S -0.2688
-1.7482 YEAH THE -0.2805
-1.7482 YEAH THERE -0.2081
-1.7482 YEAH THERE'S -0.1775
-2.0492 YEAH UH -0.2984
-2.0492 YEAH UM -0.2872
-2.0492 YEAH WE'VE -0.2430
-2.0492 YEAH WELL -0.2863
-2.0492 YEAH WHERE -0.2878
-1.7482 YEAH WITH -0.1549
-1.7482 YEAH YAH -0.1139
-1.5721 YEAH YEAH -0.2561
-2.0492 YEAH YOU'RE -0.1984
-1.6021 YELLOW </s> -0.3010
-1.1249 YELLOW BLOCK -0.0792
-0.7570 YELLOW BLOCKS -0.1703
-1.6021 YELLOW BO -0.1761
-1.6021 YELLOW BOX -0.2999
-1.3010 YELLOW CHIP -0.1249
-1.3010 YELLOW ONE -0.2782
-1.3010 YELLOW ONES -0.2499
-1.6021 YELLOW UH -0.2984
-1.3010 YEP </s> -0.3010
-1.3010 YEP AND -0.2940
-1.3010 YEP GOT -0.2609
-1.3010 YEP GOTCHA -0.1461
-0.8239 YEP I -0.2620
-1.3010 YEP I'VE -0.0969
-1.3010 YEP IN -0.2062
-1.3010 YEP SO -0.2808
-1.4771 YES </s> -0.3010
-1.4771 YES EACH -0.2218
-1.4771 YES GET -0.2304
-0.8751 YES I -0.2319
-1.4771 YES IT'S -0.2802
-0.7782 YES THERE -0.2081
-1.1761 YES THERE'S -0.1804
-0.9031 YET </s> -0.3010
-0.9031 YET AND -0.2882
-0.9031 YET I'VE -0.2825
-0.9031 YET SO -0.2843
-1.7757 YOU </s> -0.3010
-2.5539 YOU A -0.2978
-2.5539 YOU ABOUT -0.2663
-2.0768 YOU ARE -0.2430
-2.0768 YOU AT -0.0884
-2.5539 YOU BASICALLY -0.2688
-2.5539 YOU BEFORE -0.2109
-1.8549 YOU CAME -0.1597
-2.0768 YOU CAN -0.1919
-2.2529 YOU COME -0.1383
-2.2529 YOU DO -0.1538
-2.0768 YOU DON'T -0.1871
-2.5539 YOU DOWN -0.2688
-2.2529 YOU ENTER -0.1461
-2.2529 YOU FOUND -0.1938
-1.7088 YOU GET -0.1461
-2.5539 YOU GIVE 0.0000
-1.7088 YOU GO -0.1799
-1.7757 YOU GOT -0.1732
-2.5539 YOU GOTTA -0.2632
-1.4078 YOU HAVE -0.1181
-2.5539 YOU HEAD -0.0580
-2.5539 YOU HEAR -0.2041
-2.5539 YOU IN -0.2608
-2.5539 YOU INDICATED 0.0000
-2.5539 YOU JUS 0.0000
-2.0768 YOU JUST -0.2788
-1.7088 YOU KNOW -0.1165
-2.5539 YOU LEAVE -0.0969
-2.5539 YOU LISTENING 0.0000
-2.2529 YOU LOOK -0.2341
-2.5539 YOU NEED -0.2852
-2.5539 YOU NOT -0.2711
-2.5539 YOU NOW -0.2747
-2.5539 YOU OPEN -0.2852
-2.5539 YOU PICKED 0.0000
-2.2529 YOU REACH 0.0000
-2.2529 YOU REALLY -0.1249
-2.5539 YOU REMEMBER -0.1761
-2.5539 YOU RIGHT -0.2935
-1.5996 YOU SAID 0.0000
-2.5539 YOU SAY -0.1761
-1.4399 YOU SEE -0.1195
-2.5539 YOU SH -0.1761
-1.7757 YOU SHOULD -0.0628
-2.5539 YOU SLIGHTLY 0.0000
-2.5539 YOU SPOT -0.1761
-2.5539 YOU STEPPED 0.0000
-2.0768 YOU STILL -0.1761
-2.2529 YOU TAKE -0.1015
-2.2529 YOU THERE -0.2352
-2.5539 YOU THROUGH -0.1717
-2.0768 YOU TO -0.1663
-2.5539 YOU TOLD -0.1761
-1.9518 YOU TURN -0.1818
-2.5539 YOU UH -0.2958
-2.5539 YOU UNDERSTAND 0.0000
-2.5539 YOU WALK -0.2808
-2.0768 YOU WALKED -0.1761
-1.7088 YOU WANNA -0.0792
-1.6508 YOU WANT 0.0000
-2.5539 YOU WENT -0.2632
-2.0768 YOU WERE -0.1549
-2.5539 YOU WITH -0.2688
-2.2529 YOU YOU -0.2937
-0.3010 YOU'LL SEE -0.2304
-1.5798 YOU'RE </s> -0.3010
-1.5798 YOU'RE A -0.3000
-1.5798 YOU'RE FACING -0.1383
-1.5798 YOU'RE GOING -0.2808
-0.6767 YOU'RE GONNA -0.1946
-1.5798 YOU'RE IN -0.2994
-1.5798 YOU'RE LOOKING -0.2632
-1.5798 YOU'RE STANDING -0.2430
-1.5798 YOU'RE STARTED 0.0000
-1.5798 YOU'RE THINK -0.2341
-1.5798 YOU'RE WALKING -0.1761
-1.5798 YOU'RE YOU'RE -0.1984
-0.3010 YOU'VE TAKEN 0.0000
-0.3010 YOULL COME -0.2730
-1.1663 YOUR EYES 0.0000
-1.6435 YOUR FIRST -0.2910
-0.8653 YOUR LEFT -0.1640
-1.6435 YOUR MAP -0.2688
-0.6435 YOUR RIGHT -0.2051
-1.6435 YOUR UH -0.2823

\3-grams:
-0.9031 <s> A CART
-0.9031 <s> A DOOR
-0.9031 <s> A RIGHT
-0.9031 <s> A WHAT
-0.3010 <s> ABOUT MAYBE
-0.3010 <s> ACTUALLY I
-0.3010 <s> AH WE'RE
-0.3010 <s> ALL THE
-0.3010 <s> ALMOST ALL
-2.0492 <s> ALRIGHT </s>
-2.0492 <s> ALRIGHT AN
-1.5721 <s> ALRIGHT AND
-2.0492 <s> ALRIGHT AS
-2.0492 <s> ALRIGHT CONTINUE
-2.0492 <s> ALRIGHT GET
-2.0492 <s> ALRIGHT GO
-2.0492 <s> ALRIGHT HEAD
-2.0492 <s> ALRIGHT HOLD
-2.0492 <s> ALRIGHT HOW
-1.2041 <s> ALRIGHT I
-2.0492 <s> ALRIGHT I'LL
-1.5721 <s> ALRIGHT I'M
-2.0492 <s> ALRIGHT I'VE
-1.7482 <s> ALRIGHT IF
-2.0492 <s> ALRIGHT LET'S
-1.2711 <s> ALRIGHT NOW
-2.0492 <s> ALRIGHT NUMBER
-2.0492 <s> ALRIGHT ON
-2.0492 <s> ALRIGHT OUR
-1.2711 <s> ALRIGHT SO
-2.0492 <s> ALRIGHT START
-2.0492 <s> ALRIGHT THE
-2.0492 <s> ALRIGHT THEN
-1.7482 <s> ALRIGHT THERE'S
-2.0492 <s> ALRIGHT UH
-2.0492 <s> ALRIGHT UM
-2.0492 <s> ALRIGHT WE'LL
-2.0492 <s> ALRIGHT WE'VE
-2.0492 <s> ALRIGHT WELL
-2.0492 <s> ALRIGHT WHERE
-1.5721 <s> ALRIGHT YOU
-0.7782 <s> AN IT'S
-0.7782 <s> AN PUT
-0.7782 <s> AN THERE
-2.0086 <s> AND </s>
-2.0086 <s> AND AND
-1.7076 <s> AND AS
-2.0086 <s> AND BL
-2.0086 <s> AND CONTINUE
-2.0086 <s> AND DO
-2.0086 <s> AND EMPTY
-2.0086 <s> AND GO
-1.4065 <s> AND I
-1.5315 <s> AND I'M
-2.0086 <s> AND I'VE
-2.0086 <s> AND IN
-2.0086 <s> AND IS
-2.0086 <s> AND IT
-1.7076 <s> AND IT'S
-2.0086 <s> AND ON
-1.7076 <s> AND SO
-1.7076 <s> AND THE
-1.0544 <s> AND THEN
-1.7076 <s> AND THERE
-1.3096 <s> AND THERE'S
-1.7076 <s> AND UH
-1.7076 <s> AND WE
-1.4065 <s> AND YOU
-0.3010 <s> ANY PINK
-0.3010 <s> AP THERE'S
-0.3010 <s> ARE YOU
-0.3010 <s> ARIGHT </s>
-0.6021 <s> AT THE
-0.6021 <s> AT THIS
-0.3010 <s> BE SURE
-0.3010 <s> BEHIND THE
-0.3010 <s> BIG CARDBOARD
-0.6021 <s> BLUE </s>
-0.6021 <s> BLUE BOX
-0.3010 <s> BOX SEVEN
-0.7782 <s> BUT INSTEAD
-0.7782 <s> BUT RIGHT
-0.7782 <s> BUT WHERE
-0.3010 <s> BY THE
-0.3010 <s> CAN YOU
-0.3010 <s> CART </s>
-0.3010 <s> D'YA HEAR
-0.3010 <s> D'YOU GET
-0.3010 <s> DID YOU
-0.9700 <s> DO I
-1.4472 <s> DO WE
-0.4472 <s> DO YOU
-0.6021 <s> DON'T ACTUALLY
-0.6021 <s> DON'T HAVE
-0.3010 <s> DUMP DUMP
-0.3010 <s> E DUH
-0.3010 <s> EACH PINK
-0.3010 <s> EH </s>
-0.3010 <s> EM </s>
-0.6021 <s> ENTER THAT
-0.6021 <s> ENTER THE
-0.3010 <s> EXIT EXIT
-0.3010 <s> FILING CABINET
-0.3010 <s> FINDING THE
-0.3010 <s> FIVE S
-0.7782 <s> FOUND ANOTHER
-0.7782 <s> FOUND NUMBER
-0.7782 <s> FOUND THE
-0.7782 <s> FOUR </s>
-0.7782 <s> FOUR SIX
-0.7782 <s> FOUR WAS
-0.6021 <s> GO BACK
-0.9031 <s> GO STRAIGHT
-0.9031 <s> GO THROUGH
-1.1461 <s> GOT A
-1.1461 <s> GOT ANOTHER
-0.8451 <s> GOT IT
-0.8451 <s> GOT THAT
-1.1461 <s> GOT TO
-0.6021 <s> GOTCHA </s>
-0.6021 <s> GOTCHA OKAY
-0.3010 <s> GRAB THE
-0.3010 <s> GREEN BOX
-0.3010 <s> HALLWAY </s>
-0.3010 <s> HANG ON
-0.3010 <s> HELLO </s>
-0.3010 <s> HHH </s>
-0.3010 <s> HM </s>
-0.3010 <s> HOLD ON
-0.3010 <s> HOW MANY
-0.6021 <s> HUH ALRIGHT
-0.6021 <s> HUH THAT'S
-1.7482 <s> I </s>
-1.7482 <s> I AM
-1.7482 <s> I DID
-1.7482 <s> I DO
-1.4472 <s> I DON'T
-1.7482 <s> I FOUND
-1.4472 <s> I GOT
-1.7482 <s> I GRAB
-0.9031 <s> I GUESS
-1.7482 <s> I ITS
-1.0492 <s> I SEE
-1.7482 <s> I STILL
-1.4472 <s> I THINK
-1.7482 <s> I WALK
-1.7482 <s> I WALKED
-0.3010 <s> I'LL LOOK
-1.4771 <s> I'M AT
-1.4771 <s> I'M BACK
-1.4771 <s> I'M FACING
-1.0000 <s> I'M GONNA
-1.4771 <s> I'M NOT
-1.4771 <s> I'M OUTTA
-1.4771 <s> I'M PUTTING
-1.4771 <s> I'M SEEING
-1.4771 <s> I'M STILL
-1.1761 <s> I'M TAKING
-1.4771 <s> I'M TRYIN
-1.4771 <s> I'M WALKING
-0.3010 <s> I'VE GOT
-0.6021 <s> IF SO
-0.6021 <s> IF YOU
-0.3010 <s> IMMEDIATELY I
-1.2041 <s> IN EACH
-1.2041 <s> IN THAT
-0.5051 <s> IN THE
-1.2041 <s> IN THIS
-0.6532 <s> IS IT
-1.2553 <s> IS THAT
-0.7782 <s> IS THERE
-1.2553 <s> IS WHERE
-0.4771 <s> IT IS
-0.7782 <s> IT THERE'S
-1.3222 <s> IT'S A
-1.6232 <s> IT'S ACTUALLY
-1.6232 <s> IT'S CLOSED
-1.3222 <s> IT'S IN
-1.6232 <s> IT'S LIKE
-1.3222 <s> IT'S NUMBER
-1.6232 <s> IT'S OH
-0.8451 <s> IT'S ON
-1.6232 <s> IT'S RIGHT
-1.3222 <s> IT'S THE
-1.6232 <s> IT'S TUH
-1.6232 <s> IT'S UH
-0.9031 <s> JUST PAST
-0.9031 <s> JUST PICK
-0.9031 <s> JUST THE
-0.9031 <s> JUST WELL
-1.3802 <s> KAY </s>
-1.0792 <s> KAY DO
-1.3802 <s> KAY JUST
-1.3802 <s> KAY KEEP
-1.3802 <s> KAY NOW
-1.0792 <s> KAY ONCE
-1.3802 <s> KAY PINK
-1.3802 <s> KAY THAT
-1.3802 <s> KAY THERE'S
-1.3802 <s> KAY UM
-0.3010 <s> KEEP YOUR
-0.6021 <s> LEFT </s>
-0.6021 <s> LEFT WALL
-0.3010 <s> LEFTHAND ROOM
-0.3010 <s> LET ME
-0.3010 <s> LET'S SEE
-0.6021 <s> LIKE BIG
